1092 128
瘤 -0.388077 0.053770 0.444294 0.016161 0.180295 -0.206499 0.274329 -0.062021 0.262872 -0.219516 0.027850 -0.348916 -0.487634 0.446201 -0.312494 0.286801 -0.189631 0.065848 -0.357270 -0.204887 0.286653 0.392682 -0.465153 0.194553 0.118066 0.126062 -0.078035 -0.126074 0.161283 0.284280 -0.172003 -0.055177 0.183955 0.180112 -0.389058 0.160637 -0.352060 -0.149152 -0.012668 0.356299 0.103053 0.037363 0.056182 -0.137109 -0.188030 0.042373 0.293435 -0.132195 0.206991 0.142498 0.287828 0.133758 0.144162 0.206143 -0.035252 0.147592 0.038506 0.051982 0.357199 0.027076 0.223005 0.178968 -0.216209 0.002925 -0.158366 0.171151 -0.271650 -0.108697 0.094695 0.031960 -0.239239 -0.293270 -0.280703 -0.203781 -0.336736 0.483140 -0.293810 -0.037204 0.123851 0.211889 0.307682 0.246590 0.102032 0.075188 -0.174230 -0.247662 -0.026157 0.119526 -0.038742 -0.011938 0.160462 -0.148220 -0.115942 0.046603 0.065180 -0.286982 -0.175945 0.426761 -0.066319 -0.368613 -0.105221 0.215540 0.106729 0.158053 0.245962 0.272289 0.258961 -0.125638 -0.060411 0.077680 -0.467919 -0.219389 0.322812 -0.183675 0.172341 0.030023 -0.138075 0.064599 0.015812 0.079230 -0.033110 -0.236086 0.016210 -0.140747 -0.263754 -0.060700 -0.282692 -0.318159
癌 0.056072 0.080982 -0.241697 -0.016034 0.464480 -0.177767 0.130071 -0.319310 0.182581 -0.046307 0.117038 0.017430 -0.269800 -0.067755 -0.371964 0.531342 -0.053805 -0.472006 -0.372939 0.264676 0.049048 0.215523 0.035071 -0.255770 -0.179582 -0.022430 -0.046633 -0.228550 0.422403 0.142917 0.095842 -0.307785 -0.039632 -0.067339 0.168644 0.202157 -0.269521 -0.178838 0.027516 0.334875 -0.244217 0.184068 -0.474430 -0.241885 0.064791 0.103714 -0.014533 0.511714 0.105379 0.216063 0.035020 -0.203056 0.108447 -0.016066 -0.229306 0.101378 -0.338158 0.559717 0.132856 0.055068 -0.195579 -0.005479 -0.002592 -0.000826 -0.089046 0.051554 -0.068012 0.094973 0.160450 -0.654187 0.086195 -0.379210 -0.297249 -0.345173 -0.246139 -0.044259 -0.138592 0.138610 -0.089461 0.337675 0.237096 0.071719 -0.219426 0.029637 0.013645 0.264741 -0.072153 0.205830 -0.091010 0.114136 -0.151007 -0.042369 -0.138971 0.003023 -0.203529 -0.016966 -0.223483 0.316143 0.159497 -0.389407 -0.016210 0.370769 -0.001273 0.239691 -0.036971 0.073187 0.047557 0.121649 0.021553 -0.013100 0.075742 -0.415296 0.270711 0.017782 0.406479 -0.036551 0.068127 0.165652 0.050224 -0.175486 -0.162187 -0.321389 0.206063 -0.054334 0.161433 0.055548 -0.394164 -0.475221
？ -0.027969 0.171316 -0.109843 0.160786 -0.061743 -0.208648 -0.153470 -0.327816 0.127820 0.035874 0.175231 -0.052300 0.107276 -0.033916 -0.183304 0.410007 -0.230651 0.014013 -0.464051 0.005889 0.094949 0.416680 0.134957 -0.324222 0.147866 0.275266 0.167800 0.012027 0.330187 0.215692 0.049138 -0.017150 -0.005781 0.004744 0.044445 0.026446 -0.655339 -0.056244 0.076647 0.260188 -0.231415 -0.072577 -0.368250 -0.481941 0.072733 0.084094 -0.311434 0.252950 -0.009803 0.059413 -0.037122 -0.170053 0.098077 -0.055812 0.051541 0.199233 0.154002 0.169618 0.293826 -0.052931 -0.074512 0.178971 -0.035604 -0.016880 -0.029779 0.240967 -0.050239 -0.030496 0.320183 -0.107495 -0.331400 0.046940 0.006939 0.117898 -0.396232 0.234671 0.033464 -0.209680 0.182869 0.455587 -0.007226 0.289300 0.307645 0.012471 -0.114771 -0.316161 0.281431 -0.049720 -0.023046 -0.027691 0.006865 0.149079 0.075178 -0.261493 -0.174876 0.059340 -0.448566 0.220467 -0.122225 -0.317482 0.237228 0.235394 -0.069276 -0.001928 0.108777 0.117109 -0.003498 -0.306776 -0.090820 -0.013190 -0.113825 0.072746 0.209484 -0.184452 0.290541 0.207093 0.496191 -0.222409 -0.183695 0.052897 -0.189188 -0.179877 0.063107 0.048421 0.099224 0.001910 -0.117899 0.041891
， -0.155994 0.055222 -0.174518 0.063711 -0.054539 0.004688 0.169858 0.079115 -0.127784 -0.119164 0.290074 -0.026801 0.052561 -0.107368 -0.232539 0.023126 -0.085593 -0.103633 -0.016043 0.086908 0.062623 0.069270 0.095781 0.060377 -0.116579 -0.143545 -0.155250 -0.100913 0.236300 0.201006 0.011937 -0.007491 0.162690 0.047289 -0.121262 0.024864 0.007474 0.043897 0.035910 -0.019399 -0.160653 0.191547 -0.086872 -0.037734 -0.053781 -0.028731 -0.181853 0.114096 0.109595 0.155006 0.126103 0.000783 -0.073418 0.057676 -0.279586 -0.062626 -0.111526 0.132662 0.083798 0.183449 0.127075 0.141655 0.161952 0.089302 -0.029377 0.129438 0.053710 -0.111418 0.260408 -0.010297 -0.055872 0.047802 -0.203786 -0.081678 -0.017701 0.002838 -0.053300 -0.042952 -0.010071 -0.040754 0.102425 -0.093390 0.011911 0.188668 -0.010284 0.026439 -0.022911 0.299142 -0.136572 -0.041121 0.133039 0.143488 0.105262 0.001549 -0.120760 0.119672 -0.274121 -0.048383 -0.162627 -0.172471 0.038192 0.072305 -0.005626 -0.127183 0.106114 0.107556 0.006843 -0.085409 -0.311875 -0.163223 -0.099585 -0.047570 0.316450 -0.008646 -0.123694 -0.112723 0.138564 0.026070 0.017700 0.014366 -0.178696 -0.058971 -0.242935 0.097138 0.008220 -0.250841 0.027331 -0.208810
么 -0.243037 -0.029079 -0.211564 0.161319 -0.038761 -0.117771 -0.094450 -0.480640 0.116039 -0.025947 0.288559 -0.235280 -0.304024 0.008537 -0.238302 0.506651 0.041990 -0.051623 -0.394555 -0.067787 0.258393 0.244712 0.174440 -0.140070 0.088092 0.223735 0.126034 -0.048920 0.588729 0.214705 0.006810 0.069559 0.243003 -0.244837 0.148911 0.040977 -0.593327 0.005358 0.397214 -0.027184 0.055111 0.046309 -0.266649 -0.221572 0.059126 0.197997 -0.154992 0.430590 0.080827 0.061604 -0.050886 -0.275752 -0.148438 -0.051179 0.138504 0.067394 0.038159 0.162005 0.369350 -0.105509 0.098700 0.262039 0.002331 0.312685 -0.051039 0.206603 -0.217525 -0.184337 0.463869 0.071561 -0.412005 0.135202 -0.359449 -0.070705 -0.411470 0.699017 -0.040505 0.025927 -0.109779 0.662155 -0.040876 0.317715 0.342929 0.139532 -0.016509 -0.204381 -0.075106 -0.107928 -0.284501 0.060394 0.160198 -0.083980 0.023206 0.043828 0.011541 -0.043880 -0.432086 0.174202 -0.472555 -0.290047 0.250463 -0.074142 -0.294347 0.018114 0.009817 0.163803 0.272156 -0.159218 -0.177034 0.074004 -0.424439 0.225998 0.119425 -0.108278 0.116316 0.036201 0.171031 0.247826 -0.006088 0.028159 0.012773 0.068021 0.170304 0.382497 -0.012205 0.108665 0.052334 -0.406450
的 -0.059409 0.089391 -0.169389 0.077387 0.185051 -0.082730 -0.003949 -0.316826 0.092255 -0.039126 0.019548 -0.085950 0.009174 -0.066708 -0.087910 0.369914 -0.031572 -0.066091 -0.368708 0.164250 0.244306 0.173081 0.137906 -0.053897 -0.022538 0.309376 0.195224 -0.163074 0.170794 0.252921 -0.027850 -0.110431 -0.073171 0.183983 0.145578 0.103913 -0.223779 0.031681 0.147953 0.162200 -0.090690 0.010643 -0.166486 -0.223819 0.159406 0.114870 -0.139686 0.226518 0.058672 0.025329 -0.022844 -0.142130 -0.043896 0.053654 -0.010841 0.184396 0.043249 0.262389 0.108123 0.063004 0.066388 0.077477 -0.024620 0.003866 -0.020683 0.312812 -0.065453 -0.195400 0.137064 -0.039578 -0.115789 -0.225662 -0.069961 0.065529 -0.263668 0.014961 0.080493 -0.116403 0.137086 0.330258 0.108337 -0.097149 -0.035067 0.014363 0.066343 0.105450 0.160740 -0.189341 -0.009388 0.094110 -0.043568 0.025184 0.036279 -0.120499 -0.073070 0.191488 -0.288863 0.208315 0.051759 -0.153178 0.108043 0.158313 -0.085454 0.045672 0.086015 0.050540 0.091090 -0.045844 -0.035086 -0.211665 -0.201610 -0.029769 0.137990 -0.142393 0.008042 0.072371 0.199977 -0.068735 -0.049194 0.009440 -0.082282 -0.025666 -0.040965 -0.114987 0.099596 -0.012530 -0.103094 -0.064932
腺 -0.148772 0.133036 -0.127077 0.099644 0.337122 0.299882 0.058795 0.140483 -0.013330 -0.107973 0.275776 0.268902 0.142660 -0.160271 -0.274525 0.450509 0.295133 -0.000833 -0.427654 -0.100907 0.497715 0.104100 0.113323 -0.411450 -0.122163 0.042429 0.048052 -0.148876 0.214915 0.016802 -0.015295 -0.211287 0.086815 0.068358 0.192363 0.088407 0.033707 0.002089 0.080865 0.687991 0.058879 0.017723 -0.482065 0.247477 -0.253144 0.131267 -0.135753 0.046112 0.218089 0.447545 -0.125585 -0.065370 -0.179205 -0.020589 -0.195548 -0.103155 -0.072782 0.470953 0.181167 0.179625 0.271629 -0.010302 -0.178201 0.336660 -0.153971 0.380141 -0.217634 0.128061 0.123216 -0.170719 -0.512785 0.145744 0.059727 -0.637115 -0.337746 0.072237 -0.442630 0.413170 0.108951 0.363189 0.142622 -0.057008 -0.096211 0.105228 0.055884 0.281912 0.015275 0.042516 -0.256414 0.116643 0.264291 -0.071005 0.024248 -0.055687 -0.456002 0.206661 -0.212124 0.139254 -0.017719 -0.225946 0.100577 0.336877 0.066461 0.203497 0.188493 0.379914 0.079091 -0.114846 -0.234838 -0.141069 -0.019770 0.073394 -0.029735 0.227778 -0.201818 -0.053800 0.133402 0.482708 0.040610 0.119386 -0.081541 -0.231601 -0.153153 -0.194843 -0.195540 0.312335 -0.610511 -0.262055
是 -0.209960 -0.059956 -0.021014 -0.140182 0.018073 -0.076954 0.175841 -0.137311 0.012052 0.019457 0.119213 -0.205998 -0.071657 -0.044588 -0.241840 0.489506 -0.230747 0.073707 -0.399495 -0.161479 0.091254 0.190880 -0.035823 0.029155 -0.007311 0.196801 0.064465 0.094567 0.281115 0.123615 0.025383 0.089964 -0.058482 0.058388 0.051020 0.115654 -0.199038 0.045409 -0.047163 0.132284 -0.151267 -0.048519 -0.317247 -0.238042 0.123005 -0.002388 -0.169655 0.003943 -0.155875 0.345366 -0.090744 0.055284 0.038011 -0.033880 -0.034324 0.027431 -0.133615 0.213535 0.088633 0.101572 0.303316 0.064756 -0.161290 0.176189 -0.077547 -0.067255 -0.000424 -0.022791 0.324832 0.049582 -0.119325 -0.005034 -0.226019 -0.232982 -0.382414 0.039132 -0.350680 -0.042600 0.025658 0.171328 0.088572 -0.128123 0.018180 0.007438 0.077708 -0.185716 -0.074682 0.174817 -0.021978 0.117149 0.351331 -0.257368 0.217872 0.233467 0.057325 0.062798 -0.180124 0.119618 -0.357509 -0.276480 0.033729 0.140414 -0.001438 0.133372 0.085235 0.145792 -0.131060 0.159231 -0.195814 -0.022926 -0.011788 -0.046761 0.252207 -0.041703 -0.093166 0.014242 0.224997 0.104721 0.045870 0.086763 -0.267409 -0.076545 0.159059 -0.151153 0.032548 -0.126949 0.116788 -0.085028
治 -0.060183 0.118879 0.010564 0.053801 0.243681 -0.143575 -0.180263 -0.219551 0.178381 0.247531 -0.014662 -0.155349 0.144148 0.112492 -0.510849 0.308058 -0.181256 0.115433 -0.355862 0.122388 -0.016754 0.096079 0.059432 -0.422102 -0.017300 0.225453 -0.144716 0.170206 0.287532 0.017387 -0.029528 -0.354853 0.394644 0.056219 -0.067666 0.296708 -0.552164 -0.038498 0.096214 0.375489 0.160324 -0.115759 -0.332258 -0.228651 0.171988 -0.103335 -0.260964 0.180071 -0.082757 -0.028442 0.189313 0.026864 0.052615 0.251128 -0.055756 0.394200 -0.048611 0.048554 0.433374 -0.039638 -0.127840 0.076458 -0.301241 -0.142669 -0.061556 0.662461 -0.402978 -0.302021 0.225186 0.062970 -0.393044 -0.388556 -0.111053 0.215242 -0.111926 0.086104 0.101163 0.092700 -0.023337 0.171548 0.645179 0.305553 0.164589 -0.084609 -0.234407 -0.192289 0.180130 -0.303095 -0.280128 0.086037 0.000601 0.031581 0.038411 -0.095559 -0.302362 0.019545 -0.416466 0.142493 0.061335 -0.477694 0.036779 0.493195 -0.011193 0.236326 0.205217 0.427649 0.034343 -0.510920 -0.410666 -0.198953 -0.354904 -0.078645 0.021809 -0.151869 0.378552 0.424289 0.450018 0.227181 -0.006675 -0.080135 0.139123 -0.236742 0.009998 -0.071802 -0.000010 -0.117736 -0.373116 -0.120467
疗 -0.018837 -0.117575 -0.167723 -0.092344 0.084860 -0.209867 -0.219254 -0.419942 0.153210 0.225114 -0.018635 -0.085823 0.190152 0.287143 -0.210154 0.439290 -0.108513 0.126417 -0.166090 0.231970 0.313640 0.168249 0.060600 -0.168657 -0.060939 0.153864 -0.021171 -0.007037 0.242843 0.194732 -0.091049 -0.335843 0.369308 0.139093 0.106206 0.274381 -0.597653 -0.144086 -0.016488 0.068251 -0.018762 0.109797 -0.334412 0.064581 0.149570 -0.010344 -0.485752 0.117373 0.046497 -0.111498 0.057948 0.019297 0.070865 0.445533 -0.146232 0.250567 -0.179730 0.128380 0.104535 0.100671 -0.134352 0.171860 -0.127757 -0.061304 -0.299807 0.350191 -0.351448 -0.141691 0.200277 0.183024 -0.327041 0.001143 0.151052 0.182613 -0.214185 0.148835 0.240630 -0.246976 0.134152 -0.039629 0.465366 0.127378 0.286324 0.024538 -0.170902 0.168433 0.339169 -0.314020 -0.150493 0.122839 0.231925 0.030865 0.211996 0.037034 -0.350860 0.179432 -0.333606 0.156493 -0.117446 -0.389750 -0.064501 0.616547 -0.158100 0.337762 0.292213 0.245241 0.315117 -0.411432 -0.468983 -0.273982 -0.179100 -0.145283 -0.163324 -0.372124 0.398605 0.211792 0.276499 -0.038213 0.058446 0.058969 0.166312 -0.365927 -0.246588 -0.158936 -0.104159 -0.092642 -0.315363 -0.191042
有 -0.180212 0.062199 0.010527 0.155908 -0.011187 -0.103910 0.071239 -0.095687 -0.032587 0.163300 -0.018990 -0.028760 -0.084150 -0.102309 -0.112436 0.418429 -0.061394 -0.047306 -0.466639 -0.158477 0.145487 0.289037 0.074087 0.040283 -0.013853 0.307330 0.236532 -0.003791 0.131514 0.441888 0.039555 -0.145320 0.060209 0.186901 -0.004810 0.212500 -0.421364 0.003282 0.213699 0.224572 -0.272229 -0.102369 -0.275981 -0.186613 0.058516 0.098921 0.030165 0.280625 -0.074594 0.184967 -0.234643 -0.081624 0.016299 -0.270868 -0.034411 0.155477 0.131988 0.258918 0.056427 0.017546 0.084220 -0.075846 0.064162 -0.051741 -0.087161 0.197855 0.192156 0.025024 0.326504 0.089492 -0.018740 -0.049031 0.025977 -0.011035 -0.177753 0.046087 -0.049431 -0.120304 0.200879 0.328372 0.168883 -0.179673 0.042093 0.018417 -0.045217 -0.091046 0.065951 0.005329 0.089496 0.239909 -0.019832 0.037662 0.151402 -0.048262 0.107669 -0.079802 -0.196832 0.102724 -0.233142 -0.172094 0.081845 0.127154 0.013868 -0.081941 -0.057264 -0.030527 -0.000596 0.046496 0.036548 -0.055265 -0.081500 -0.141969 0.236117 -0.165498 -0.079931 -0.062419 0.008265 -0.274656 -0.017281 0.209260 -0.178878 0.077839 0.135006 0.037369 0.052030 -0.078601 -0.082560 -0.110922
吗 -0.106218 0.367416 -0.023282 0.179088 -0.148580 -0.256163 -0.230423 -0.232009 0.363640 -0.291839 -0.151116 0.118415 0.068005 -0.021004 0.017978 0.241739 -0.268509 -0.073073 -0.490785 -0.017701 0.149713 0.745002 0.188237 -0.395418 0.012335 0.381359 0.027539 -0.166947 0.439863 0.218036 0.145495 -0.069320 -0.211531 0.140029 -0.169893 -0.271989 -0.370863 -0.090447 -0.158481 0.404812 -0.041224 -0.020165 -0.167161 -0.471083 0.034486 0.050143 -0.255623 0.191663 0.158922 -0.128993 0.185814 0.037725 0.096972 -0.015476 -0.435315 0.414472 0.161300 0.142377 0.006001 -0.029505 -0.257257 0.159464 -0.182982 0.020136 -0.044474 0.284940 -0.268614 0.050898 0.151599 -0.127938 -0.478149 -0.025435 0.093589 -0.053681 -0.366041 0.094447 0.108064 -0.280856 0.061106 -0.145867 0.097708 0.326548 0.084603 0.091708 -0.107158 -0.235564 0.385363 0.038578 0.008719 0.118359 0.019029 0.040753 0.228551 0.026383 0.081810 0.025536 -0.110252 0.082648 -0.180601 -0.449007 0.347856 0.277891 0.010811 0.022619 0.247422 0.445865 0.051677 -0.210969 -0.327276 -0.065679 0.010906 0.031879 0.249911 0.086158 0.173975 0.160838 0.578062 -0.120369 -0.318026 -0.045148 -0.088404 -0.273332 0.072150 0.130538 0.101654 -0.000359 0.063146 0.237748
乳 -0.071216 0.221990 0.025247 0.048291 0.068335 0.306615 0.068912 0.139489 -0.010997 -0.358672 0.266517 0.210975 -0.236304 0.359339 -0.203621 0.309007 0.180581 -0.178014 -0.669509 0.081572 0.617230 0.331118 0.040385 -0.377274 -0.165334 -0.080460 0.049073 -0.205931 0.585109 0.241671 -0.040187 0.054481 0.006209 0.214704 0.399647 0.095625 0.179487 -0.066710 -0.038364 0.588765 -0.223673 0.017450 -0.394745 0.213773 -0.151904 0.404027 0.055806 0.238819 0.265864 0.444757 0.094872 -0.069013 -0.223577 -0.093628 -0.213463 -0.026714 0.133649 0.380449 0.069525 0.093183 0.140075 0.027379 -0.270495 0.266694 -0.105190 0.364642 -0.068060 -0.103330 0.092522 -0.152426 -0.630092 0.055516 -0.368718 -0.557513 -0.365862 0.088795 -0.524905 0.652122 0.202139 0.261257 0.259850 0.007747 -0.216918 0.045202 0.163926 0.091340 0.002778 0.150640 -0.068472 0.170495 0.242582 0.204681 0.188513 -0.071796 -0.285416 0.203030 -0.340460 0.030340 0.090117 -0.334110 -0.001209 0.328683 0.159111 0.401326 0.152150 0.311393 0.347573 -0.016455 -0.417537 -0.000327 -0.080218 0.035673 0.111947 0.289980 -0.216488 0.218801 -0.141474 0.461589 0.453941 0.000424 0.138550 -0.240886 -0.113084 -0.049037 -0.190596 0.274880 -0.447965 0.265458
性 -0.260159 0.112652 0.035878 -0.131746 0.480801 0.156738 0.265852 -0.038109 -0.008391 -0.288129 -0.073652 -0.214118 0.057970 0.323237 -0.324919 -0.055605 0.029435 0.069752 -0.671247 -0.427546 0.304344 0.546495 -0.216177 -0.130787 -0.071726 0.235354 0.089470 -0.238309 -0.007760 0.665473 0.210025 0.020562 -0.038102 -0.042948 -0.433983 0.158303 -0.224798 -0.140715 -0.163791 0.383930 0.398018 0.007126 0.043680 0.070131 -0.306070 -0.159922 -0.154048 -0.324216 0.144995 0.118387 0.051973 0.345365 0.081566 0.257873 -0.444953 -0.184645 -0.225758 0.261611 0.064224 -0.077031 0.387959 0.062224 -0.295979 0.049640 0.337373 0.008937 -0.283873 -0.206184 0.237153 -0.130933 -0.433833 -0.123126 -0.136827 -0.207379 -0.255932 0.221927 -0.237932 -0.011362 0.065033 0.289074 0.189035 0.011762 -0.084569 0.001905 -0.118510 -0.088156 -0.020740 0.408578 0.081331 0.119706 -0.061169 -0.284773 0.229744 0.026557 -0.355267 -0.251133 -0.041141 -0.040517 -0.226635 0.050322 -0.153665 -0.156714 0.020472 0.331540 0.044842 0.578871 0.055961 -0.007084 -0.233345 -0.033410 -0.276665 -0.169288 0.372036 0.020653 -0.125856 -0.113674 0.027643 -0.068461 -0.139788 -0.044230 -0.268076 0.140415 0.064533 -0.581319 -0.111276 -0.209243 0.048065 -0.006878
什 -0.007938 -0.185140 -0.010021 -0.093553 0.018265 -0.047834 -0.288295 -0.498070 0.170787 0.085989 0.207027 -0.304118 -0.248231 -0.179584 -0.323228 0.618758 -0.037291 -0.068630 -0.551484 -0.289885 0.167007 0.484268 0.050503 -0.211036 0.071519 0.308299 0.342820 0.128303 0.126654 0.205530 -0.017931 -0.169925 0.312663 0.024608 0.291206 0.089145 0.011276 -0.013842 0.360944 0.175724 -0.030358 -0.235001 -0.473053 -0.417158 0.360199 0.010777 -0.240602 0.394738 -0.048744 0.046064 -0.487981 -0.166889 -0.274968 -0.289278 0.124355 -0.007257 0.271242 -0.117941 0.409410 0.020569 0.003803 -0.180596 -0.037115 0.386486 -0.034492 0.325822 0.002638 -0.056598 0.184462 -0.006404 -0.108719 0.182454 -0.323371 -0.274931 -0.352660 0.253203 0.045608 0.158021 -0.081431 0.803435 0.002979 0.049910 0.161982 -0.130874 0.098352 -0.354236 0.089869 -0.205194 -0.315716 0.213970 0.386720 -0.247567 0.019432 0.172098 0.038694 -0.139269 -0.252992 0.284011 -0.284293 -0.342869 0.066240 0.247616 -0.128313 0.078823 0.179310 -0.113342 0.206834 -0.248645 -0.114355 -0.003407 -0.048476 -0.006306 0.337153 -0.178101 -0.189140 -0.050365 0.129727 0.129746 0.017287 -0.210827 -0.142978 0.067748 0.237693 0.155598 0.094704 0.045136 -0.004297 -0.341826
术 0.072731 0.051474 0.013014 0.036550 -0.101274 -0.322365 0.063410 0.041006 0.237137 -0.342785 0.165558 0.353309 0.149474 0.144613 -0.296355 0.190409 0.121538 -0.130577 -0.228581 0.327611 0.259442 0.507943 -0.073586 -0.268524 -0.240785 -0.164939 -0.153382 0.140037 0.466997 0.373016 0.075968 0.070372 0.282079 0.313628 -0.074591 -0.001407 -0.128578 0.024051 0.135755 0.190181 -0.333895 0.110699 -0.613059 0.278450 -0.008369 0.028335 0.045148 0.039547 0.132188 -0.055521 0.135553 -0.123789 0.005440 0.030234 -0.358764 0.001151 -0.144908 -0.092672 0.282314 0.591364 -0.165946 0.024498 -0.175743 -0.010120 -0.385129 0.013703 -0.062225 -0.034275 0.096601 0.056287 -0.021277 0.143953 -0.088689 -0.140216 0.174930 0.051021 -0.356494 -0.157524 0.004235 -0.057935 0.228738 0.118983 -0.097390 -0.049105 -0.256034 -0.131012 0.258904 0.180044 -0.175015 0.145257 0.449836 0.302540 0.032029 0.169398 -0.168225 0.140019 -0.135238 0.089668 -0.285169 -0.208154 -0.055271 0.493781 0.088973 0.185444 0.239482 0.433399 0.278013 -0.332665 -0.350787 0.082974 0.242749 -0.121438 0.010457 -0.031864 0.162309 0.035531 -0.038539 -0.207539 0.153501 0.009671 0.165499 -0.619024 -0.549276 -0.152892 0.020025 -0.034378 -0.406294 0.039961
状 0.026787 0.271757 -0.292750 0.145080 0.399072 -0.037983 0.237243 -0.045034 -0.065400 0.039822 0.298870 0.065925 -0.428376 -0.004799 -0.184814 0.536525 0.023227 -0.200989 -0.674605 0.058337 0.724508 -0.015939 -0.389247 -0.114420 -0.376210 0.223920 0.183449 -0.291673 0.278236 0.112422 -0.220576 -0.280154 -0.191878 0.068861 0.407115 0.058847 -0.304402 -0.074845 -0.178594 0.695905 -0.224535 0.101342 -0.718042 0.032653 0.107313 0.379762 0.024513 0.299037 0.040280 0.488605 -0.185573 -0.440618 -0.123197 -0.174352 0.073894 0.192956 0.042548 0.429796 0.033142 0.247900 0.028556 -0.449087 -0.037380 0.214589 -0.019330 0.018661 -0.097397 0.021409 0.283076 -0.105246 -0.055529 -0.184264 -0.136679 -0.594966 -0.490512 0.225052 -0.489707 0.574686 -0.111182 0.553731 0.050074 0.100310 -0.115471 -0.169238 -0.050919 0.070914 -0.009447 -0.296233 -0.327461 0.220053 -0.116027 -0.351624 -0.159953 0.316703 -0.261021 -0.003049 -0.349478 -0.129058 0.007618 -0.377596 0.118366 0.445133 0.061461 0.355633 0.005075 0.041151 0.265607 0.009262 -0.219769 -0.067520 -0.169949 -0.001911 0.086833 0.109723 -0.355537 -0.045607 0.156045 0.554887 -0.070809 -0.163515 0.002467 -0.307229 -0.084751 -0.080859 0.008223 0.217135 -0.447348 -0.243812
后 -0.002571 -0.061012 -0.084146 0.113513 -0.056258 -0.072607 0.179014 0.135906 0.013065 -0.246707 0.296459 0.171708 0.145575 0.348379 -0.339069 0.181075 0.043032 -0.043543 0.038049 0.051310 0.196513 0.156363 0.032187 -0.046155 0.021211 -0.228735 -0.215978 0.036834 0.261853 0.370791 0.070874 0.072448 0.358059 0.234239 0.149633 0.070587 -0.315224 -0.142333 0.178315 0.115958 -0.262810 0.194055 -0.467408 0.168795 -0.093298 -0.067188 -0.100989 -0.007105 0.083756 0.015293 0.052229 -0.304075 -0.201541 0.011790 -0.229487 0.023604 -0.161391 0.017126 0.311620 0.402133 -0.078053 0.369632 0.113817 0.006804 -0.226524 0.073080 -0.109251 0.052841 0.202125 -0.061119 -0.330996 0.171437 -0.152541 -0.133703 0.079484 0.108047 -0.266676 0.007503 -0.064336 0.012016 0.146046 0.083912 0.216779 0.124695 -0.116888 -0.019299 -0.054139 0.177196 -0.264860 0.020989 0.420081 0.230368 0.152025 0.074992 -0.232126 0.154035 -0.217056 0.095455 -0.238791 -0.295935 -0.129642 0.335535 0.140866 0.106167 0.140093 0.195388 0.164297 -0.401397 -0.401392 0.156144 0.091655 0.125356 0.028102 -0.104490 0.039630 0.062580 -0.050382 -0.084440 0.174022 0.020325 0.004918 -0.544047 -0.334750 0.127877 -0.008701 0.000378 -0.360929 -0.094949
肿 -0.336701 -0.112371 0.026563 -0.106527 0.245354 -0.113631 0.315037 -0.069050 -0.194077 0.029892 0.065590 0.098000 0.273312 0.151223 -0.204149 0.142247 0.101897 -0.247107 -0.436255 -0.135916 0.188522 0.292692 0.099135 -0.014986 -0.058387 0.192949 0.047132 -0.176399 0.056164 0.353871 0.108966 -0.066689 -0.017908 -0.058854 0.022467 -0.001687 -0.353354 0.176593 0.143646 0.320651 0.051805 -0.032414 -0.129592 0.095782 -0.097857 0.090039 -0.062007 0.070918 0.078481 0.071149 -0.223709 0.145468 0.168932 -0.000881 -0.227088 0.029150 0.087925 0.123044 0.114355 0.268548 0.261453 -0.059870 -0.222369 0.159419 0.267908 0.163070 -0.161564 -0.294549 0.480445 -0.093907 -0.252016 0.000857 -0.204093 -0.128652 0.135965 0.247316 -0.185305 -0.065506 -0.007368 0.304067 -0.005481 -0.100317 -0.124815 -0.052457 -0.226068 0.077729 -0.266024 0.048284 -0.188582 0.003728 0.053376 -0.070330 0.163731 0.181292 -0.050553 -0.020198 -0.059530 -0.256187 -0.304983 -0.094803 0.086419 0.016543 0.064645 0.263216 0.149689 0.544223 0.044311 -0.021585 -0.090232 -0.167758 -0.391155 -0.094897 0.122290 0.004509 -0.374184 -0.130942 0.097987 -0.173067 -0.061809 -0.023925 -0.291127 0.157460 -0.091071 -0.152505 0.052975 0.036334 -0.178060 0.079722
怎 0.131162 -0.276468 -0.356415 -0.211222 0.119201 -0.219061 0.105521 -0.370003 -0.105504 -0.011485 0.326512 -0.253662 0.286740 -0.027729 -0.380358 0.114932 -0.244011 -0.061554 -0.095165 0.035037 0.209905 0.164595 0.146434 -0.316802 0.191640 0.097506 -0.069553 0.043727 0.263128 -0.003076 -0.097159 0.131338 0.216011 -0.120017 0.013625 0.095826 -0.553905 0.089686 0.143472 -0.185155 0.007122 -0.000059 -0.610364 -0.447680 0.124075 0.244236 -0.063534 0.292926 0.263054 0.092784 0.052262 -0.088304 0.137734 0.118853 -0.030819 0.070331 0.034605 -0.136486 0.567613 0.346495 0.130305 0.193620 0.026622 0.081978 0.391079 0.085099 -0.329889 -0.476743 0.050723 -0.154375 -0.471532 0.047264 -0.491466 0.046637 -0.279570 0.458586 0.136775 -0.035698 0.116654 0.577206 -0.090468 0.234493 0.277142 0.154527 -0.067646 -0.099636 0.123470 -0.326665 -0.019263 -0.102881 0.208430 -0.264058 -0.133669 -0.014714 -0.195083 0.140613 -0.579841 -0.124560 -0.289444 -0.399587 -0.041522 0.134197 -0.441823 0.369982 0.238187 0.178829 0.264245 -0.331763 -0.533377 0.056957 -0.450826 -0.037798 0.068258 -0.139607 0.158321 0.235216 0.229292 0.127013 -0.206279 -0.011359 -0.070190 -0.062997 0.031236 -0.117753 0.000104 0.220848 -0.291028 -0.042131
能 -0.129619 0.262920 -0.240499 0.048880 0.027089 -0.036925 0.022832 -0.079196 0.248150 -0.047147 -0.026526 0.181940 0.322590 0.029252 -0.447277 0.474694 -0.156000 -0.044600 -0.503474 -0.243561 -0.088037 0.312476 0.191516 -0.413368 -0.136669 0.028838 -0.115871 -0.073231 0.418578 0.185794 0.278730 0.014906 -0.009802 0.020668 0.110555 0.094002 -0.315341 -0.098842 0.082868 0.306826 0.196818 0.025635 -0.390937 -0.371777 0.121889 0.136169 -0.123370 -0.047944 -0.016006 0.114422 0.267136 0.038560 0.225989 0.214047 -0.360469 0.240326 -0.007313 0.343238 0.109302 -0.051255 -0.176774 0.082338 -0.313676 -0.072211 -0.034777 0.183296 -0.248228 -0.102990 0.280204 -0.075305 -0.464474 -0.193611 -0.141139 0.067104 -0.301432 -0.190093 0.048793 -0.169979 0.064944 -0.111240 0.262232 -0.046829 -0.228228 -0.028419 0.071119 -0.265898 -0.079385 0.392355 0.168793 -0.012008 0.080095 0.225440 0.192592 -0.097716 -0.305084 0.056040 -0.175106 0.121302 -0.253014 -0.294450 0.132294 0.095382 -0.020229 0.178504 -0.017192 0.538953 -0.112364 0.021431 -0.375980 -0.025497 0.206099 -0.156170 0.382833 0.330032 0.071366 0.140660 0.297434 -0.192306 0.081968 -0.131180 -0.164074 -0.243682 -0.044892 -0.235825 0.166244 -0.255508 -0.296556 0.184292
了 -0.185088 0.243267 -0.167546 0.110415 -0.134178 -0.321101 0.384259 0.120443 0.166545 -0.230162 0.211822 0.042856 -0.096180 -0.017457 -0.074845 0.168454 0.274028 -0.322870 -0.271766 0.123211 -0.103038 0.308009 0.241757 -0.054120 -0.041030 -0.021447 0.096900 -0.173211 0.485304 0.345118 0.014757 -0.014610 0.046380 0.459988 -0.198918 -0.009586 0.155934 0.043465 0.384375 -0.129576 -0.309371 0.022059 -0.287917 -0.162595 -0.175791 0.171899 0.185557 0.244267 0.252340 0.158212 0.354602 -0.378782 0.058131 -0.063041 -0.411927 0.092176 0.246161 0.234949 0.072688 0.315949 -0.057819 -0.023324 0.197208 -0.104168 -0.029357 0.012282 0.053601 0.064349 0.117680 -0.094595 0.188326 0.097444 -0.307248 -0.170028 0.063668 -0.260746 0.111761 -0.341754 -0.023625 0.129041 -0.045619 -0.146561 -0.281692 0.191298 -0.050331 -0.083263 -0.266017 0.246926 -0.180068 -0.068960 -0.013770 0.030908 -0.031287 0.119760 -0.072856 0.100933 -0.300546 0.075971 -0.101573 -0.203128 -0.152947 0.078318 -0.111743 -0.202274 0.247351 0.086275 0.231081 0.191162 -0.352162 0.092824 0.126923 -0.221115 0.284158 -0.024716 -0.110197 0.061993 -0.126145 0.038899 0.220640 -0.071419 0.057031 -0.345105 -0.257225 -0.032291 0.341035 -0.099358 -0.142311 -0.182394
期 0.119172 0.103207 -0.444828 -0.059787 0.401981 -0.102352 -0.145693 -0.341158 0.031777 0.060356 -0.053897 0.087745 -0.064105 -0.300584 -0.537475 0.535074 0.009534 -0.298974 -0.361777 0.219878 0.304726 0.099449 0.191693 -0.338547 -0.241411 0.371005 0.020173 -0.272110 0.443097 0.404190 0.237772 -0.148799 0.107162 0.262671 0.413752 0.137711 -0.118041 -0.100796 0.174479 0.195955 -0.400393 0.118796 -0.670220 -0.394021 0.072542 0.222936 0.220067 0.316396 0.026573 0.241738 -0.047929 -0.370327 -0.072743 0.150031 -0.132318 0.007534 -0.477508 0.484895 -0.084697 -0.058677 -0.330202 -0.038577 0.144379 -0.079005 -0.245489 0.272562 -0.203185 0.003921 -0.026210 -0.493942 -0.027947 -0.391961 -0.103176 -0.096124 -0.412984 -0.022187 0.005873 0.224193 0.204391 0.139186 0.319458 -0.078172 -0.320069 -0.191855 0.167271 0.163394 -0.261065 -0.046848 0.013991 0.183959 -0.202099 -0.109874 -0.068936 0.125776 -0.376479 0.075066 -0.180910 0.102709 -0.263430 -0.247598 0.250405 0.104138 0.318739 0.033801 -0.225552 0.345522 0.068179 0.102206 -0.195332 -0.058450 0.075762 -0.451772 0.234606 -0.304792 0.342902 0.173664 -0.147689 -0.250240 -0.181208 -0.018842 -0.166926 -0.220460 0.257479 -0.174482 0.033127 -0.136995 -0.086423 -0.313906
手 -0.104409 0.005761 0.131558 0.112106 -0.071947 -0.043788 0.192784 0.255474 0.075260 -0.202483 0.168545 0.287569 -0.017943 0.210421 -0.272057 0.155811 0.102897 -0.104229 0.082402 0.065756 0.135592 0.197854 0.014979 -0.149294 -0.089471 -0.109273 -0.367187 0.102792 0.190751 0.434051 0.130446 0.001354 0.195125 0.199915 0.066251 0.049996 -0.415149 -0.024970 0.043050 0.248757 -0.278492 -0.064360 -0.522056 0.267912 -0.193043 0.085361 0.159112 -0.086628 -0.168050 -0.071150 0.093752 -0.159329 0.028588 -0.150171 -0.279800 0.205971 -0.217859 -0.009035 0.345195 0.504740 0.169054 0.270563 -0.058794 -0.161848 -0.285807 0.071786 -0.092274 0.125586 0.378497 -0.073262 -0.467953 -0.013246 -0.051944 -0.189687 0.072654 -0.004582 -0.380713 0.082108 0.013962 -0.095462 0.225233 0.150397 0.190420 0.236550 -0.148880 -0.165931 0.059757 0.284560 -0.147512 0.097186 0.446482 0.203263 0.065423 0.051399 -0.154248 -0.029916 -0.003521 -0.066496 -0.351169 -0.363919 -0.093818 0.432578 0.224724 0.117308 0.170898 0.442135 0.182780 -0.240241 -0.353296 0.319438 0.108374 0.010197 0.210197 -0.054153 0.164287 0.133135 -0.059255 -0.083163 0.226607 0.192665 0.012531 -0.632025 -0.413916 0.183991 -0.102347 0.115363 -0.409763 -0.209346
好 -0.077869 0.137550 -0.195868 0.163401 -0.325957 -0.331323 -0.063468 -0.093949 0.255751 0.076811 0.228227 -0.007981 0.021860 -0.033166 -0.167417 0.190017 -0.008084 0.069903 -0.304323 0.120931 -0.095280 0.294219 0.411638 -0.325956 -0.122337 0.220408 0.078500 0.029874 0.401292 0.068521 -0.091153 -0.437304 0.299289 0.131926 0.105427 0.052222 -0.360486 -0.092926 0.304216 0.153509 0.074703 -0.216654 -0.241303 -0.425157 0.178723 0.078528 -0.331994 0.175945 -0.068915 -0.002682 0.176144 -0.005908 0.036707 0.142070 -0.131950 0.411467 0.138867 0.234949 0.124967 0.058429 0.061284 0.066960 -0.004725 -0.072853 0.023401 0.484601 -0.163442 -0.254151 0.250657 0.149559 -0.098291 -0.165422 0.057722 0.171203 -0.242696 -0.164368 0.366924 -0.424008 0.091068 0.101588 0.169452 0.140274 0.282329 0.189810 0.152041 -0.304250 0.310186 -0.199660 0.004233 0.051568 -0.278246 0.364343 0.134252 -0.222860 0.101543 0.235465 -0.268590 0.099407 -0.039966 -0.410096 0.251719 0.297509 -0.142851 -0.214062 0.094882 0.348207 0.128074 -0.217431 -0.174855 -0.018053 -0.274164 0.042662 0.432276 -0.241482 0.178016 0.360645 0.483145 -0.131258 0.035500 -0.123186 0.009635 -0.085961 -0.133423 0.256836 -0.058493 -0.030820 -0.071290 -0.079680
细 -0.415136 0.391850 0.153700 -0.297063 0.349339 -0.438883 0.077087 -0.334735 -0.015014 0.234921 -0.181478 0.062616 -0.125093 0.030617 -0.409766 -0.055960 -0.197892 -0.142161 -0.398169 -0.046831 0.313518 -0.021040 -0.267929 -0.037766 -0.375311 0.605672 0.006381 0.129907 0.272347 0.744534 -0.412825 0.140581 -0.033398 -0.228849 -0.207060 0.388994 -0.090849 0.243971 -0.356929 0.129123 -0.095371 -0.046997 -0.195545 0.013848 -0.016255 0.098529 0.161945 0.241570 0.037142 0.502329 0.391890 0.082198 -0.072517 0.183103 -0.235668 0.136684 -0.241298 -0.015876 -0.156277 0.082650 0.145231 -0.498817 -0.305311 -0.223027 -0.044611 -0.226695 -0.194414 -0.178063 -0.073945 0.213242 0.039300 -0.007109 -0.387452 0.419028 -0.115343 0.216912 -0.233815 0.650550 -0.169443 0.018977 -0.129727 0.113373 -0.366997 0.003526 -0.554654 -0.013907 -0.074330 0.383711 -0.241817 0.331744 0.198115 -0.414344 0.234170 0.192758 -0.123192 -0.469113 -0.563029 0.018941 -0.239661 -0.743377 -0.030789 0.143065 -0.230417 0.556168 -0.172817 -0.064832 0.155174 0.010684 -0.630948 -0.366474 0.032873 -0.327281 0.221615 -0.093233 0.288181 -0.097609 -0.006036 0.303072 0.034582 -0.102236 0.229472 -0.270354 -0.155928 0.082159 -0.104867 -0.225968 -0.293348 -0.076754
胞 -0.406803 0.286067 0.231765 -0.277723 0.493325 -0.246845 0.181810 -0.107506 -0.126449 0.378753 -0.084542 0.107754 -0.100667 -0.029236 -0.536915 -0.086766 0.015538 -0.078629 -0.388611 0.188227 0.189702 -0.251833 -0.173700 -0.273413 -0.344378 0.400027 0.109664 0.460740 0.366497 0.599150 -0.050417 0.002059 0.081006 -0.391861 -0.281052 0.420856 -0.287508 0.333759 -0.234947 -0.027217 -0.207944 -0.148030 -0.250308 0.171028 0.140219 -0.313317 0.184781 0.325233 -0.296679 0.454224 0.004181 -0.163820 -0.011721 0.120806 -0.457110 0.111991 -0.138217 0.343350 -0.202079 -0.036723 0.266987 -0.516358 -0.403987 -0.394501 -0.001337 -0.115443 -0.049919 -0.252837 0.185657 0.225165 0.095509 0.070805 -0.337392 0.194760 -0.140276 0.060340 -0.276608 0.405619 0.033417 0.299753 -0.194985 0.163255 -0.196183 -0.112218 -0.440473 -0.058449 0.135782 0.261410 -0.204939 0.286133 0.008430 -0.192307 0.199292 0.012393 -0.346193 -0.491572 -0.602994 -0.175617 -0.418854 -0.561854 -0.132946 0.247831 -0.172680 0.514019 -0.122923 -0.011456 0.045768 0.102265 -0.536363 -0.127176 0.112247 -0.165883 0.287106 -0.025250 0.290417 -0.108891 0.305292 0.256263 -0.143549 0.044158 0.174176 -0.299000 -0.257042 -0.150471 0.182808 -0.140508 -0.577904 -0.093650
巴 -0.390528 0.215808 -0.166710 0.003085 0.317773 -0.111564 -0.023701 -0.075392 -0.124466 0.283813 0.209595 -0.087543 0.161604 0.159199 -0.396442 -0.000139 -0.219943 -0.480143 -0.297555 -0.122284 0.070255 -0.218881 0.091630 -0.166367 -0.333347 -0.080545 -0.275333 -0.017154 0.155008 0.264157 -0.139211 -0.147018 0.049915 -0.126064 0.001584 0.192638 -0.582328 0.318242 -0.091414 0.121875 0.095277 0.079007 -0.211635 -0.271528 0.316257 -0.011154 -0.125239 0.269716 -0.000733 0.041445 0.072068 0.360445 -0.097436 0.203089 -0.158939 0.243002 0.170712 0.116607 0.146825 0.072237 -0.028552 -0.145450 -0.114266 0.005627 0.033524 0.097850 -0.439335 -0.672126 0.530997 0.428852 -0.266073 -0.002903 -0.454594 0.166685 -0.083363 0.125878 0.262113 0.606993 -0.143805 -0.193082 -0.070646 0.143666 -0.053057 -0.119783 -0.187449 0.308764 -0.308531 0.033913 0.172729 0.037799 -0.103726 0.016365 0.375475 0.106487 -0.247311 -0.002871 -0.472436 -0.340666 -0.459387 -0.508654 -0.039294 -0.215992 0.149597 0.740915 -0.279242 0.099114 0.103473 0.105523 -0.407411 -0.127665 -0.128049 -0.347482 0.154412 0.353884 -0.476368 0.200636 0.074003 0.299028 0.169920 -0.217776 -0.182707 -0.294813 -0.476539 -0.415477 -0.113822 -0.395537 -0.448875 0.138097
淋 -0.643431 0.186128 -0.349481 -0.046237 0.444513 -0.197694 0.147866 0.022432 -0.093341 -0.087384 -0.012854 0.085419 0.105817 0.200470 -0.452931 -0.288385 0.023048 -0.413564 -0.334369 -0.132376 -0.079810 -0.027987 0.047426 -0.288892 -0.234035 0.074584 -0.084011 -0.348771 -0.046426 0.552524 -0.156548 -0.109352 0.133642 -0.014664 -0.091362 0.162917 -0.510055 0.370682 -0.263650 0.344460 0.060130 0.054131 -0.215189 -0.081760 0.243096 0.026966 0.037463 0.360947 0.000289 0.099972 -0.046377 0.351774 -0.086167 0.101208 -0.152241 0.186243 -0.151145 0.202328 -0.095317 0.452700 -0.012972 -0.067962 0.189481 -0.171554 0.100487 0.227241 -0.346966 -0.538159 0.584581 0.378178 -0.035344 -0.109992 -0.454779 0.137007 -0.108667 0.219067 -0.047287 0.303352 -0.026016 -0.022300 0.102282 -0.008531 -0.040212 0.083945 -0.132780 0.152925 0.107012 -0.160383 0.281086 0.285151 -0.467376 -0.145934 0.247793 0.236792 -0.005737 0.051671 -0.387284 -0.195915 -0.505651 -0.539224 0.075367 -0.079501 0.037518 0.527215 -0.227615 0.129051 -0.194838 0.017783 -0.290779 -0.234691 -0.429053 -0.332902 0.115096 0.055950 -0.342424 0.114895 -0.116413 -0.018041 -0.232024 -0.279958 -0.270122 -0.145250 -0.368677 -0.415773 -0.257082 -0.214290 -0.175011 -0.152989
会 -0.366539 0.277409 -0.062566 0.149896 0.037939 -0.012447 -0.116723 -0.248428 0.104034 -0.268427 -0.014075 -0.394045 0.067015 -0.054454 0.030318 0.294000 -0.137160 -0.104042 -0.643265 0.004397 -0.044669 0.691781 0.058702 -0.150610 0.080522 0.153346 0.059172 -0.080567 0.607018 0.431195 0.163093 0.168657 -0.104807 0.212408 -0.326436 -0.135555 0.071971 0.152413 -0.075714 -0.071878 -0.252134 0.045222 -0.262452 -0.255067 -0.018581 0.077246 -0.296885 0.296721 -0.042185 0.085050 -0.107543 0.083503 0.013049 -0.314822 -0.271393 -0.134791 0.263216 0.254799 0.274093 -0.085736 0.133993 0.235692 -0.071964 0.072083 -0.109638 0.031566 0.278938 -0.181930 0.539815 -0.001681 -0.191265 0.320263 -0.359932 -0.281188 -0.414010 0.064626 -0.073495 -0.175983 0.052156 0.315795 -0.032099 -0.118319 -0.201224 0.035131 0.330336 -0.030128 0.187513 0.258291 0.097180 0.127200 0.378376 0.005001 0.145380 -0.035565 0.096299 0.135382 -0.204282 0.240095 -0.400306 -0.313426 -0.091208 0.095531 0.008634 0.120682 0.290130 0.085098 -0.038951 0.254666 -0.128741 0.096422 0.009087 -0.022472 0.331006 0.187154 -0.246500 0.017775 0.173276 0.009473 0.190434 0.050574 -0.309845 -0.217321 0.110626 -0.147731 0.157626 -0.194781 0.054059 0.161471
不 -0.290808 0.020489 -0.059557 -0.111048 -0.236484 -0.180644 0.036846 -0.105328 0.124950 -0.217789 0.091509 -0.074248 -0.036040 -0.028649 -0.353143 0.176761 -0.314973 -0.112599 -0.278452 -0.115868 0.143495 0.537725 0.066660 -0.204999 -0.013021 -0.200545 -0.122888 0.012444 0.342594 0.307935 0.225446 0.200764 0.077832 0.021067 -0.237986 -0.083829 -0.204617 0.107005 -0.163109 0.042652 0.081554 0.002159 -0.284515 -0.322756 0.153980 -0.022733 0.022912 0.248159 0.049857 -0.174936 0.080208 -0.020162 -0.113572 -0.066868 -0.450862 0.092762 -0.054661 0.020613 0.321182 0.206702 0.106804 0.099507 -0.018414 0.215814 -0.066742 -0.049056 -0.033275 0.117798 0.167303 -0.025280 -0.055396 0.077082 -0.051997 -0.298970 -0.046880 0.119878 0.048116 -0.152941 0.083234 -0.021963 0.100028 0.110598 0.093680 0.159772 0.056712 -0.392185 0.224899 0.161071 0.204824 0.019171 0.205047 0.165544 0.313823 -0.041779 0.202913 0.061109 -0.215656 0.248076 -0.266984 -0.275392 -0.018374 0.004613 -0.086092 -0.108879 0.231065 0.243399 -0.094206 -0.092824 -0.181038 -0.091462 0.073165 -0.083868 0.254484 0.022979 -0.242277 -0.077719 0.234504 -0.127969 -0.040537 0.083120 -0.223455 -0.118394 0.062416 0.285811 0.087168 -0.138666 0.322090 -0.081119
发 -0.237208 0.012912 -0.343657 0.253005 0.178693 0.220678 0.004515 0.007789 -0.461950 -0.405142 -0.115304 -0.367541 0.447524 0.163737 -0.475575 -0.092893 -0.095644 -0.076560 -0.219881 0.056288 0.286356 0.137018 -0.328506 0.077354 0.178034 -0.121573 -0.469666 -0.276322 0.376097 0.264407 0.027793 0.241185 0.225123 0.380782 -0.264258 -0.071555 -0.124859 -0.047929 0.282495 0.100478 0.086243 0.128458 -0.670494 0.078972 -0.262511 0.033539 0.018088 0.308476 0.117885 0.299697 -0.059191 -0.328254 0.282113 -0.315142 -0.319488 -0.354082 -0.360747 0.566985 0.627587 0.017887 -0.039827 0.030986 -0.030539 -0.085957 0.080349 0.178772 0.348320 -0.156776 0.098633 -0.386250 -0.528564 -0.001666 -0.132884 -0.145821 -0.208440 0.191375 -0.054260 0.036826 -0.057560 0.367258 0.033766 -0.147084 -0.249119 0.036726 -0.001174 -0.100378 0.049528 0.189112 -0.022671 -0.049722 0.401422 0.043466 -0.416381 -0.104876 -0.196714 -0.164577 -0.344124 -0.068138 -0.399781 -0.390668 -0.308188 0.198068 0.053032 -0.061553 0.101791 0.309651 -0.158971 -0.167717 -0.299276 0.145376 -0.239060 0.053751 0.336325 0.076247 -0.215240 -0.133201 0.034689 -0.033128 -0.173196 0.193566 -0.149447 -0.052101 0.089104 0.063273 0.172341 -0.179382 -0.149130 -0.014783
症 -0.275277 0.233148 -0.204840 0.060055 0.108098 -0.031470 -0.193147 -0.305758 -0.029469 0.245432 0.097392 -0.020598 -0.247177 -0.195433 -0.313542 0.591113 -0.155359 -0.220254 -0.385653 0.209616 0.458311 0.361104 0.261281 -0.397910 -0.156357 0.633361 0.316304 0.014879 0.537198 0.496483 0.148553 -0.093003 0.017885 0.084115 0.400700 0.325211 -0.267660 -0.009500 -0.060654 0.206846 0.115171 -0.109010 -0.693563 -0.299513 0.335569 0.059557 0.375672 0.540449 -0.066352 0.371650 -0.344243 -0.197838 -0.208396 -0.342112 0.230445 0.042337 -0.085478 0.406933 -0.118549 -0.041348 0.093842 -0.177650 0.037446 0.369487 -0.228844 0.135201 0.080590 -0.000166 0.201295 -0.152901 -0.245569 -0.221494 0.043710 -0.128437 -0.497235 0.233959 0.064329 0.405672 0.305185 0.552886 -0.111234 0.089772 0.000214 -0.118329 0.129403 0.091232 -0.091537 -0.249842 -0.052296 0.314062 0.246961 -0.171280 0.064254 0.062351 -0.018881 0.021684 -0.127310 0.061671 -0.446123 -0.332133 0.174546 0.224572 0.259207 0.285892 -0.085821 -0.134374 0.040661 0.082714 -0.020749 -0.174404 -0.165906 -0.086818 0.066835 -0.480027 -0.029015 0.043998 0.169917 -0.026064 -0.096725 0.063934 -0.021094 -0.005978 0.313608 -0.189858 -0.121382 0.069809 0.035741 -0.357308
病 -0.116310 0.031450 -0.054800 -0.087990 -0.106549 0.041645 0.023761 -0.302713 0.082623 -0.212024 0.208549 -0.038318 -0.257169 0.149463 -0.201538 0.379771 -0.188304 0.027635 -0.438156 -0.209187 0.426479 0.193045 0.008980 -0.283421 -0.101883 -0.074111 0.211919 -0.174863 0.194578 0.204892 -0.233899 0.092076 0.034002 -0.147898 0.086103 -0.038369 0.124806 -0.106100 -0.023901 0.203862 -0.064961 -0.205362 -0.146581 -0.045937 0.202754 0.203689 0.123559 0.142915 -0.086083 0.034829 0.106423 0.123086 -0.488262 -0.151417 -0.252827 0.168449 0.127823 0.272131 0.031329 0.057076 0.135107 -0.052890 -0.202782 0.293359 -0.053726 -0.007484 -0.101685 -0.030568 0.173114 -0.085486 -0.263633 0.199438 -0.257543 -0.058022 -0.347006 0.112926 0.103441 0.233125 0.042550 0.594172 0.188345 0.055833 -0.016414 0.297884 0.165306 -0.003097 0.511543 -0.038260 0.084260 0.168080 0.273370 0.083829 0.136659 -0.094256 0.138101 0.220753 -0.449395 0.344698 0.057885 -0.112684 0.027950 -0.168060 -0.236366 0.165987 0.067968 0.083241 0.160330 0.052881 -0.077129 -0.172492 -0.290384 -0.136555 0.114074 -0.084358 -0.030083 -0.147369 0.221587 0.186604 0.170206 0.159759 -0.103188 -0.139873 -0.034078 0.265892 -0.209144 0.092289 -0.048916 -0.406715
大 0.096156 0.268382 -0.428583 0.108344 -0.170941 -0.095494 0.085240 -0.161426 -0.211173 -0.254660 -0.029055 0.095704 0.183193 0.046890 -0.272862 -0.186485 -0.267703 -0.137839 -0.096208 0.053221 -0.070329 0.108637 0.111469 -0.101572 -0.058393 0.003010 -0.113671 -0.193717 0.028842 0.423041 -0.130049 -0.062073 -0.010691 0.250042 -0.097792 0.054757 -0.365937 -0.096573 0.016428 0.151486 0.136860 -0.027130 0.114649 -0.114495 0.314174 0.078975 -0.217471 0.207857 0.141180 0.007067 0.081259 0.209550 0.046113 0.169171 -0.283391 0.229534 -0.029603 0.282028 -0.003697 0.209928 -0.003609 -0.021742 0.060051 0.196471 0.201739 -0.007300 0.057319 -0.167375 0.039073 -0.093698 -0.018718 -0.251984 -0.203787 0.176532 -0.126317 -0.111613 0.388713 -0.288876 -0.072868 -0.131793 0.066972 -0.164224 0.110091 0.165605 -0.127456 -0.118232 0.099181 0.241573 0.276445 0.220684 -0.420233 0.113234 0.172560 -0.007084 0.086061 0.161566 -0.139444 0.158626 -0.145264 -0.031701 -0.035709 -0.073972 -0.108254 0.083950 -0.370936 0.067201 -0.180281 -0.070696 -0.238774 -0.002023 -0.211604 -0.225135 0.465059 -0.148895 0.167731 -0.292157 0.213318 -0.241904 -0.070657 -0.118709 0.019501 0.115243 -0.264003 -0.105256 -0.241854 -0.412200 0.223220 0.115980
多 0.187642 0.404594 -0.345996 0.069293 -0.150624 -0.110857 0.056264 -0.085484 0.300552 -0.247301 -0.076157 0.125241 0.483595 -0.220636 -0.299457 0.383421 -0.495096 -0.144448 -0.560078 -0.595428 0.363367 0.620375 -0.300122 -0.041356 -0.253244 -0.156451 -0.376393 -0.211399 0.191383 0.460417 -0.036083 0.278625 -0.288795 0.309519 -0.193639 -0.134460 -0.256377 -0.229766 0.100014 0.377143 0.054303 0.089421 0.092377 -0.298026 0.093061 0.495329 -0.104754 -0.010422 0.161102 -0.317784 0.261396 -0.112854 0.024695 0.188538 -0.743295 0.245803 -0.002910 0.383072 0.598313 -0.026721 -0.203597 0.146791 -0.045159 -0.012037 -0.145863 0.249997 0.062931 0.058589 -0.092479 0.089723 -0.352596 -0.349544 0.060011 0.171025 -0.395421 0.369600 0.228544 0.020410 -0.020465 -0.370778 0.264220 -0.052675 -0.287391 -0.190692 -0.135049 -0.419897 0.108197 0.348773 0.304814 -0.126707 0.155860 0.133540 0.218290 -0.274414 -0.512593 -0.046822 -0.237709 0.336902 0.027157 0.124903 0.182253 -0.343542 -0.173709 -0.020726 -0.215017 0.016883 0.025122 -0.183468 -0.506185 0.222509 0.085068 -0.127549 0.167915 0.494774 -0.218884 -0.227455 0.066669 -0.194109 0.009272 0.232966 0.091508 -0.065997 -0.304577 -0.352722 0.104506 -0.476250 0.045094 0.638246
子 0.173408 0.380236 -0.172367 0.251091 -0.074961 -0.415165 0.189962 0.036374 0.295246 -0.200477 0.160893 -0.534464 -0.283687 -0.058162 0.265885 0.272477 0.634241 -0.380034 -0.020329 0.189913 0.138463 0.575083 0.272177 -0.154164 0.159034 0.502634 0.048813 -0.016884 -0.054269 0.321087 0.054319 -0.003878 -0.083704 0.677453 0.092779 0.058550 0.271924 0.284174 0.079999 0.261659 0.297300 -0.165541 -0.306788 -0.285311 -0.089819 0.015045 0.094533 -0.469178 -0.008756 0.040707 0.063764 -0.045941 -0.001710 0.007478 -0.355765 0.023555 0.156011 0.044279 0.214599 -0.004558 0.406796 0.102040 -0.412361 0.037270 0.427351 0.180614 0.006117 -0.127223 -0.177095 -0.312590 0.016074 -0.044433 0.031105 -0.352764 -0.395898 0.022774 0.233750 -0.064389 -0.095791 -0.241303 -0.219977 0.148916 0.141580 0.131303 -0.037745 0.043807 0.064154 0.246304 -0.251870 0.054598 0.396735 -0.156771 -0.071014 0.023572 -0.040068 -0.135711 0.337700 0.136158 -0.321477 -0.071720 -0.086018 0.195817 -0.037511 -0.040232 0.023913 -0.164087 0.211752 0.050388 -0.202742 0.281503 0.060201 -0.156067 0.414040 -0.185423 -0.023799 -0.150559 0.312597 -0.160226 0.093631 -0.132177 -0.042509 -0.346186 -0.469067 -0.392144 0.426674 -0.351291 0.030020 -0.363517
经 -0.095029 0.329868 0.365139 -0.390886 0.208480 0.048836 -0.048519 0.252224 -0.089090 -0.086903 0.006277 0.043559 -0.194800 -0.457944 -0.473704 -0.045473 -0.070980 0.253060 -0.231429 -0.139423 0.224344 0.372671 -0.326913 -0.220171 -0.469520 0.269186 -0.397111 0.052530 0.539823 0.521830 -0.097889 -0.146194 0.364220 -0.010242 -0.277815 0.271839 0.595003 0.042892 -0.017360 0.061412 -0.327816 -0.080765 0.199272 0.456401 -0.102626 0.043562 0.342589 0.215971 -0.244074 0.267711 0.412013 -0.033652 -0.088550 0.329898 -0.941028 0.013990 -0.393025 0.209675 0.056476 0.176892 0.625781 -0.091677 -0.218944 -0.566185 -0.067062 0.674272 0.081352 -0.112198 -0.092840 0.334617 -0.388946 -0.279256 -0.327281 0.270524 -0.088490 -0.122520 -0.341383 0.391340 0.060453 -0.071648 0.550390 -0.118424 -0.360771 0.065408 0.084502 -0.342545 0.365825 0.180170 -0.263868 0.201378 0.466248 -0.304271 0.056483 -0.133325 -0.437838 -0.634201 -0.282583 0.000047 0.092798 -0.333670 -0.103343 0.287019 -0.031757 -0.192428 0.507297 0.282979 0.341029 0.020356 -0.572562 0.039060 -0.194927 -0.326744 0.148942 0.029182 0.255627 -0.096386 -0.112420 0.173116 0.305203 0.327093 0.600673 0.234621 -0.158306 0.225120 -0.024866 -0.061711 -0.393991 0.004120
一 -0.012164 0.079921 -0.110833 -0.074824 -0.192572 0.000460 0.159302 0.119945 0.028726 -0.199588 0.291732 0.122766 0.098725 0.029730 -0.093932 0.005576 -0.151320 -0.278771 -0.083612 0.075458 0.131657 0.286250 0.324731 0.012557 -0.068715 -0.029909 0.075393 -0.255568 0.259904 0.475927 0.185729 -0.069443 0.030380 0.334379 -0.076072 0.121293 -0.022413 -0.099531 0.012413 0.056206 -0.316049 -0.056949 -0.167752 -0.245401 0.006319 0.072045 -0.034928 0.325058 0.347279 -0.026473 0.025350 -0.156603 -0.186593 -0.187884 -0.291085 0.192839 0.153377 -0.189049 0.119599 0.430730 0.119751 0.033142 0.267933 0.013645 0.046954 0.147347 0.095308 -0.050767 0.104929 0.065682 -0.062186 0.047795 -0.151795 0.115461 0.197079 -0.326902 0.331882 -0.150947 0.128907 -0.022987 0.101036 -0.188968 -0.008879 0.180398 -0.027688 -0.009733 -0.072655 0.140352 -0.101935 0.072375 0.212863 0.105206 0.265361 0.157742 0.079857 0.173982 -0.232206 -0.197209 0.090474 -0.307285 -0.033677 0.087868 0.176350 0.085270 0.166646 -0.210849 0.160787 -0.102909 -0.451881 -0.048881 0.035565 -0.338156 0.214178 -0.073379 -0.174468 -0.057540 -0.311677 -0.026904 -0.004926 0.027216 0.014777 -0.073908 -0.177061 0.117577 0.006334 -0.068010 0.038693 -0.140928
宫 0.081871 0.347586 -0.454909 0.222238 0.222154 -0.111694 -0.165963 -0.174741 -0.004158 -0.601552 -0.357536 -0.433627 -0.234264 0.129208 -0.135528 0.335501 0.579713 -0.393513 0.199828 0.456015 0.094032 0.274441 -0.030797 -0.321128 0.062252 0.500211 -0.124302 -0.122827 -0.026068 0.333021 0.068100 -0.154085 -0.197305 0.692030 0.163749 0.031949 0.045051 0.012171 0.117131 0.404119 -0.058109 -0.313923 -0.403227 0.152796 0.097861 -0.300313 0.086227 -0.364488 -0.232500 0.277725 -0.197795 -0.315165 0.307080 -0.157771 -0.589598 0.323451 -0.169635 -0.048666 0.223452 0.074925 0.055426 -0.171938 -0.569296 0.241265 0.308934 -0.009318 -0.067069 -0.013718 -0.148185 -0.505300 -0.279093 -0.159779 0.001307 -0.638613 -0.550403 0.270607 0.080969 0.248093 -0.329437 0.102503 -0.041117 0.083834 -0.107203 -0.340159 -0.201063 -0.048053 0.205962 0.442607 -0.096623 -0.047689 0.011992 -0.055815 -0.267532 0.380570 0.115458 -0.497033 0.105968 0.157336 -0.353509 -0.048716 -0.171913 0.300317 -0.059173 0.003027 -0.106076 0.333353 -0.204024 -0.087330 -0.306011 0.252833 -0.050571 -0.072432 0.604849 -0.296851 0.075312 -0.135363 0.374015 0.058454 -0.424283 -0.119887 -0.083529 -0.586129 -0.430115 -0.159909 0.328677 -0.183821 0.028899 -0.336664
. -0.085803 0.158256 0.110987 -0.176800 -0.094111 -0.562429 -0.299375 0.214673 -0.268470 -0.182624 0.235425 -0.021384 -0.014649 -0.266975 -0.288433 0.170266 0.027673 0.171587 0.280363 0.259328 -0.111866 0.371057 -0.034984 -0.307320 0.043044 0.077724 -0.525091 0.221870 -0.106563 0.390639 -0.197291 -0.387963 -0.059393 0.225829 0.105105 0.044251 -0.483057 0.159720 0.333747 -0.258610 -0.189117 0.285110 -0.218471 0.131570 0.069561 -0.154841 -0.196626 -0.467578 0.083158 0.445030 -0.225118 0.168641 0.001760 0.213686 0.055136 0.123955 -0.148869 0.226520 -0.006728 0.439391 -0.179991 0.042157 0.049065 0.076077 -0.476266 0.246909 0.173601 -0.192355 0.217814 0.198980 0.145140 0.339622 0.215059 -0.270415 -0.224922 0.054008 -0.118947 0.522119 0.100899 -0.189628 0.496994 0.118123 0.189828 0.046041 -0.113912 -0.012993 0.160476 -0.201116 -0.209616 -0.170504 0.216208 0.031495 0.182300 -0.179603 -0.465449 0.167651 -0.057432 -0.208005 -0.170651 -0.004112 -0.243920 0.328867 0.293677 -0.196904 0.382731 0.389739 0.681469 -0.478046 -0.050616 0.192375 -0.341539 0.341739 0.370502 -0.520686 0.040721 0.135385 0.548875 0.208646 0.204762 0.012951 -0.763383 -0.070207 -0.564237 -0.049686 -0.252409 -0.195202 0.051034 -0.564221
化 0.173968 0.057991 -0.110321 -0.077952 0.538356 0.059826 -0.160284 -0.408907 -0.136262 -0.106970 -0.136782 0.264020 -0.038031 0.283335 -0.416263 0.147139 -0.086657 0.022562 -0.175545 0.035665 0.236515 -0.047935 0.004697 -0.171768 -0.145872 -0.018526 0.026971 0.185050 0.087215 0.272685 0.045466 -0.094835 -0.046894 0.252682 -0.099313 -0.007718 -0.550685 -0.047215 -0.108155 0.472754 -0.171450 0.191469 -0.098730 -0.052932 -0.124420 -0.523965 -0.460577 0.261323 0.207468 -0.085088 -0.119740 -0.336924 -0.229257 0.222122 -0.309133 0.091352 -0.492532 -0.040364 0.211069 0.106597 -0.258919 0.095906 -0.119664 -0.068567 0.110061 0.270768 -0.106713 0.023531 0.063972 0.157495 -0.194331 0.136109 -0.045680 -0.013301 -0.082839 0.055045 -0.082141 0.200219 0.008566 0.107543 0.502360 0.047175 -0.005311 -0.091965 -0.322030 0.122949 0.081371 0.109712 -0.347158 0.249248 0.273808 -0.002285 0.290636 0.337170 -0.464238 0.181740 -0.146347 0.165268 0.048623 -0.216917 0.143908 0.246536 0.037282 0.127167 0.079727 0.174591 0.166126 -0.470324 -0.603320 -0.182788 0.282920 -0.210737 0.052975 0.014699 0.384461 -0.122387 -0.256857 0.123539 -0.068264 -0.068371 0.074321 -0.348053 -0.044300 -0.137014 0.281596 -0.061434 -0.459335 0.043733
医 0.077446 0.245934 -0.016651 -0.047650 -0.264756 -0.233340 0.075695 -0.063560 -0.266647 0.316993 0.185079 0.151908 0.129486 0.135816 -0.261620 0.103382 0.184060 0.157734 -0.472650 0.372676 0.160440 0.219795 -0.060709 0.044684 -0.519599 0.279964 0.220096 -0.100419 -0.232785 0.372427 -0.127765 -0.279750 0.404262 0.084336 0.174169 0.380226 -0.521384 -0.063319 0.320377 0.137604 0.278727 -0.203556 0.028170 -0.372617 0.338336 0.530400 -0.160400 0.211702 -0.134905 -0.157744 0.198784 -0.067189 -0.102997 0.126848 -0.106332 0.598369 0.182471 -0.199000 0.210773 0.150791 0.276472 -0.022082 -0.397772 -0.175383 -0.189094 0.580333 -0.350888 -0.395116 0.064277 0.266507 0.149514 -0.485036 0.249827 0.117523 0.149919 -0.603682 0.410700 -0.150600 0.141650 -0.099958 0.191809 -0.068684 0.048757 0.280425 -0.238438 -0.004428 0.149470 -0.454216 0.093047 0.122252 -0.109107 0.137109 0.120920 -0.140263 0.178495 0.608840 -0.254264 -0.239177 -0.027386 -0.120300 0.171994 0.297153 0.014170 0.231653 0.069236 0.013784 0.145926 -0.268028 -0.333664 -0.453363 -0.528365 -0.270323 0.438526 -0.380489 -0.007888 0.197854 0.421961 -0.003229 -0.136268 0.064199 -0.148211 -0.004279 -0.078985 0.331550 -0.127986 -0.013118 -0.437269 -0.250999
个 -0.310384 0.337821 0.061605 0.266235 -0.379440 -0.091314 0.197133 0.200424 -0.056402 -0.249314 0.351294 0.244262 0.078809 0.062677 -0.112828 -0.003604 0.099964 -0.301341 -0.279517 0.049705 0.175284 0.198014 0.062254 0.240496 0.014753 0.047907 -0.092959 -0.013769 0.295378 0.468862 -0.423360 -0.324543 0.268749 0.431957 0.009823 0.271131 -0.041461 -0.042153 0.568127 -0.003058 -0.459585 -0.170094 0.237629 0.143157 -0.018531 0.171890 0.195436 0.306484 0.132368 0.190490 0.263439 -0.083118 -0.180489 -0.058164 -0.565269 0.285991 0.588439 0.159355 -0.115573 0.113796 0.094693 0.022832 -0.086630 -0.157168 -0.035166 0.542875 0.191102 -0.000316 -0.274098 0.138271 0.022162 -0.006212 -0.204537 0.181784 0.191948 -0.110668 0.359405 -0.261282 -0.091497 -0.227373 0.122999 -0.046571 0.062242 0.101893 -0.310993 0.027206 -0.168724 0.106642 -0.279396 -0.005347 -0.077707 0.079688 0.108837 0.094251 0.177785 -0.217229 -0.318353 -0.168007 0.078364 -0.187008 -0.153005 -0.157679 -0.041210 -0.270918 0.085808 -0.038800 0.191386 0.100041 -0.534927 -0.029521 -0.072102 -0.247875 0.188336 -0.344586 -0.042573 -0.288394 -0.081229 -0.057650 0.045993 0.010272 -0.021991 0.215465 -0.502157 0.344215 0.086744 -0.199208 0.045632 0.003255
哪 -0.315928 0.058219 -0.375637 0.072366 -0.248163 -0.322581 0.055341 0.028584 -0.050194 0.070051 0.100476 0.154794 -0.410520 0.002299 -0.353887 0.572288 -0.114749 -0.175423 -0.404889 -0.216572 -0.048571 0.467441 0.123201 -0.095981 -0.162562 0.261420 0.316360 -0.477692 -0.219777 0.530710 -0.113375 -0.798186 0.558334 -0.058046 0.335189 0.251687 -0.394599 -0.240886 0.191139 0.460616 -0.013098 -0.189178 -0.137181 -0.363532 0.466360 0.242935 0.249613 0.448328 -0.297063 0.054599 -0.419036 -0.031348 0.052864 -0.183508 -0.147504 0.367466 0.527312 0.255888 -0.178916 0.153629 0.129416 -0.538431 0.197418 0.157457 -0.266468 0.529557 0.026693 -0.041115 0.373371 0.416310 0.099934 -0.200744 0.163898 0.074158 -0.322770 0.041754 0.219585 0.136761 0.192277 0.395236 0.303819 -0.246437 0.086005 -0.077063 0.121370 -0.350391 0.346417 -0.529052 -0.062444 0.241166 -0.120369 0.064078 0.202635 0.089791 0.361523 -0.037308 -0.359566 0.047459 0.039477 -0.323079 0.494441 0.079181 -0.062072 -0.246312 0.085731 -0.058547 0.028328 -0.108296 -0.002276 -0.414847 -0.560026 -0.508557 0.296316 -0.477289 -0.140274 0.088813 0.207238 -0.210590 -0.233103 0.048450 -0.139917 0.316452 0.093288 0.422489 0.013285 0.153251 -0.466284 -0.619711
肉 -0.169716 0.102140 0.233924 0.185835 0.183577 -0.119491 0.116714 -0.059150 0.338294 -0.453853 -0.076843 -0.278027 -0.138737 0.422973 -0.137214 -0.029525 0.273530 0.059562 -0.071661 -0.129288 0.077154 0.460335 -0.223096 0.011445 0.080159 0.217072 0.025907 0.017447 0.131682 0.221310 0.139670 0.073064 0.179403 0.338204 -0.381993 -0.060275 -0.092832 -0.110621 0.319641 -0.013100 0.504639 -0.176573 -0.041050 0.249029 -0.031695 -0.083482 0.303943 0.012327 -0.050837 -0.090895 0.102262 -0.311021 0.082664 0.081380 -0.509376 0.118319 -0.036527 0.019582 0.534684 0.216658 0.234469 0.179289 -0.121313 0.059195 0.019946 0.325818 -0.135791 -0.134688 0.074101 0.324506 -0.332234 -0.122647 -0.057279 -0.199449 -0.368746 0.237669 0.108798 -0.111330 -0.037484 0.204887 0.072731 0.177481 0.151457 0.060329 0.137897 -0.296277 0.179885 -0.202250 -0.035665 -0.097036 0.527233 -0.080601 -0.245932 0.252127 0.059510 -0.350373 0.066901 0.231841 -0.313723 -0.191286 -0.247401 0.061306 -0.342490 -0.061457 0.077127 0.122208 0.390426 -0.358063 -0.572719 0.416988 -0.470472 -0.265753 0.398418 -0.163523 -0.235636 -0.052063 0.113341 0.303738 -0.155098 0.110385 0.026931 -0.367500 -0.214540 -0.116755 0.189512 0.286604 -0.540413 -0.311556
管 -0.291677 -0.255695 -0.013884 0.002106 0.134169 0.071587 0.454073 -0.013350 0.237937 -0.252487 0.213158 -0.215842 -0.304341 0.346097 -0.111106 0.177509 0.241708 -0.194626 -0.267317 -0.230259 0.259948 0.010996 -0.104223 0.072382 0.087440 -0.060229 0.052728 0.179614 -0.122723 0.076922 -0.111695 -0.022399 0.083638 0.300682 0.079851 0.409982 -0.301372 0.325141 0.126582 0.159135 -0.145471 -0.037315 0.092362 0.018458 0.410507 0.299689 0.247327 -0.041899 0.046024 -0.242091 0.155452 0.255127 0.142472 0.227400 -0.020911 0.320476 0.321980 -0.023133 0.134002 0.362726 0.072876 0.019061 0.137405 0.371790 0.062287 0.519047 -0.557636 -0.004801 0.471062 0.252241 -0.355555 -0.388203 -0.648966 0.012496 -0.133925 0.349830 -0.283653 0.460887 -0.244103 0.017994 0.142922 0.174076 0.240738 0.019413 -0.237078 -0.259021 0.284824 -0.231088 0.408415 -0.001967 -0.337513 0.112615 0.022991 0.114270 0.108367 -0.130546 -0.426484 0.106418 -0.169470 -0.074568 0.127817 -0.074242 -0.314259 0.233815 0.217777 0.352404 0.275442 -0.087774 -0.430155 -0.482565 -0.323454 -0.175740 0.327937 -0.073095 -0.393655 0.100308 -0.088795 0.190928 0.114720 -0.121934 -0.008737 -0.103959 -0.473483 -0.053891 -0.023247 -0.152354 -0.084970 -0.040760
肺 -0.048732 0.247103 -0.243735 0.031029 0.404430 0.032209 -0.074927 -0.202846 0.070382 0.052132 -0.043468 0.067023 -0.061942 0.014213 -0.387957 0.121783 0.284420 -0.212324 -0.338724 0.176314 0.122340 -0.005688 0.327387 -0.191157 -0.226980 0.164762 0.011778 -0.122792 0.185733 0.336271 0.166606 -0.016716 0.060177 0.227513 0.103981 0.144815 -0.064189 0.129632 -0.254063 0.418945 0.190216 -0.117179 -0.254243 -0.150099 0.154879 0.015339 -0.012672 0.219263 0.073330 0.014240 -0.165009 -0.066665 -0.396253 -0.019965 -0.278020 0.042798 -0.175276 0.384335 -0.134709 0.051947 0.129727 0.008971 -0.204138 -0.077855 -0.026652 0.146724 -0.140338 -0.217167 0.194902 -0.070863 -0.160491 -0.250877 -0.208808 -0.082716 -0.118671 -0.154597 0.026828 0.244518 -0.015688 -0.060439 0.111506 0.004197 -0.140445 0.086062 0.077738 0.314777 -0.105674 0.089506 -0.021736 0.431867 -0.107595 0.037747 0.319834 0.222753 -0.265562 0.223197 -0.056609 -0.076076 -0.219870 -0.231093 0.067108 -0.012928 0.159722 0.245212 -0.267363 0.050032 0.017254 0.088095 -0.150224 -0.066439 0.010519 -0.268284 0.097225 0.126056 -0.116769 0.030946 0.009237 0.177202 0.073530 -0.193781 0.067305 -0.076731 0.147023 -0.147779 -0.002867 -0.142124 -0.022167 -0.059797
骨 -0.023880 -0.032425 0.101739 0.000968 0.431984 0.166012 -0.010292 -0.089882 0.142005 -0.131536 0.161672 -0.237215 0.139468 0.383279 -0.419412 -0.194332 0.029484 -0.204185 -0.088278 0.095468 0.103886 0.227239 0.107206 0.079431 -0.012104 -0.189748 -0.153003 -0.349498 0.362214 0.128833 0.218552 0.255363 0.121023 0.128009 -0.366983 0.027520 0.004303 0.137772 -0.138275 0.078892 0.497584 0.034102 0.030036 0.203817 -0.043506 -0.010515 0.050952 0.615511 0.350152 -0.180729 0.073054 -0.214503 -0.061369 0.187682 -0.539803 -0.236234 -0.215652 0.204788 0.524205 0.094137 0.198936 0.117165 -0.007622 -0.055093 0.131535 0.145798 -0.083974 -0.285383 0.483679 0.209617 -0.291280 -0.121211 -0.359056 -0.013906 -0.278506 0.249084 0.326050 -0.096213 0.017992 0.295718 0.014713 0.147929 -0.259925 0.196907 0.330928 0.155861 -0.033054 0.177220 -0.052801 -0.015176 0.298489 -0.156429 -0.174512 0.222658 -0.196249 -0.131843 -0.155457 0.204647 -0.158224 -0.206743 -0.081525 -0.243383 -0.306997 0.178636 0.185386 0.167235 0.316474 -0.235783 -0.315798 0.416168 -0.575716 -0.549509 0.221892 0.218303 -0.226156 -0.216873 -0.224179 0.508223 0.090407 0.057255 0.025987 -0.240527 0.162910 -0.073416 -0.012656 0.074688 -0.336890 0.049376
维 -0.120323 0.163611 0.266030 -0.020395 -0.180308 0.293935 -0.184233 0.116578 0.308334 -0.502667 0.014446 -0.011610 -0.220914 0.183386 -0.036368 0.184521 0.289341 0.191992 -0.836852 -0.412027 0.579831 0.769282 -0.263724 -0.537344 -0.193583 0.138703 0.003478 -0.081268 0.646890 0.366834 -0.052581 -0.022173 -0.010130 0.000620 0.069640 0.010804 0.242854 -0.214959 0.312334 0.328150 -0.077746 -0.202605 -0.369729 0.356089 -0.118592 0.456252 0.329349 -0.040307 -0.151818 0.334051 0.268724 0.145029 -0.170967 0.099849 -0.469223 0.058717 0.087925 0.192026 0.155394 -0.064668 0.376713 0.192507 -0.530786 0.018118 -0.153834 0.801773 -0.055880 0.027134 -0.041073 0.134095 -0.919886 -0.069040 -0.369085 -0.185596 -0.616851 0.188813 -0.540048 0.335521 0.137610 0.331805 0.566406 0.199904 0.035287 -0.007725 0.153311 -0.593832 0.390873 -0.130235 -0.088428 0.190641 0.592814 -0.119544 0.051352 -0.275457 -0.296690 -0.192008 -0.166619 -0.017196 -0.297431 -0.327311 0.061737 0.284832 -0.033598 0.287556 0.448164 0.637486 0.550853 -0.101797 -0.630670 0.350328 -0.356894 0.233827 0.181778 0.033935 0.019419 0.279096 0.108686 0.291480 0.262929 0.228898 0.215030 0.003476 -0.277960 -0.052955 -0.205789 0.344455 -0.386676 0.112354
可 -0.310462 0.293630 0.201824 -0.079524 0.023929 -0.115376 -0.019664 0.109451 0.532480 0.294339 0.146670 0.087947 0.025980 0.033854 -0.219200 0.505333 -0.215332 -0.197861 -0.396189 -0.219298 -0.212355 0.712436 0.428969 -0.427673 -0.244867 0.095336 -0.105349 -0.446112 0.088184 0.383379 0.251560 -0.033077 -0.086551 -0.016491 0.129509 0.127251 -0.487087 -0.205477 -0.099634 0.451009 0.267427 0.014137 -0.102056 -0.161706 0.088651 -0.013718 -0.006665 0.025056 0.122834 -0.069188 0.179064 -0.172485 0.233597 -0.169512 -0.269952 0.525788 0.219861 0.054850 0.046671 0.105829 -0.061883 0.010951 -0.415357 0.129116 -0.280511 0.269505 -0.200730 0.234503 0.413582 -0.156379 -0.239033 -0.314340 0.190492 0.119037 0.105431 -0.138528 0.242919 -0.088132 0.117072 0.049667 0.166614 0.192257 -0.146918 0.058363 -0.367430 -0.194361 -0.062286 0.324545 0.021807 0.027410 0.191628 0.253158 0.507211 -0.169201 -0.322181 -0.209420 -0.207242 0.015087 0.022029 -0.509184 -0.040657 0.215883 0.216672 0.139640 0.077898 0.022875 0.146328 -0.336096 -0.177492 0.018730 0.066927 -0.056785 0.084322 0.227280 -0.137020 -0.023475 0.459622 -0.041228 0.256886 -0.088773 0.160318 -0.016855 -0.087685 0.224211 0.176758 0.064355 -0.387682 0.083297
纤 -0.166615 -0.024520 0.601426 -0.428713 0.033060 -0.181348 -0.081714 0.252691 0.437306 -0.412686 0.151239 0.203771 -0.166836 0.071667 -0.268113 0.288329 0.110022 0.035942 -0.736058 -0.420280 0.415262 1.024334 -0.190692 -0.501781 -0.030525 0.451028 -0.062299 0.105156 0.503655 0.332647 0.020722 -0.171818 0.007155 -0.103429 0.051666 0.162594 0.043423 -0.203942 0.575621 0.380173 -0.016401 -0.207455 -0.036083 0.196434 -0.433865 0.293615 0.111718 0.059971 -0.015090 0.480453 0.241452 -0.006722 0.029384 0.132993 -0.475657 -0.069125 -0.370049 0.210604 0.396901 0.136685 0.264240 0.169593 -0.194007 0.147724 0.036715 0.646115 -0.350930 -0.012428 -0.085897 0.153783 -0.798939 -0.135004 -0.325208 -0.461096 -0.457015 0.336908 -0.452248 0.273349 0.455902 0.228280 0.364054 -0.008967 -0.113997 0.086789 0.299287 -0.388455 0.149941 0.021972 0.170329 0.179361 0.589081 -0.083103 0.084685 -0.259421 -0.148937 -0.489911 -0.174473 0.427353 0.187228 -0.273825 0.132452 0.190580 -0.000048 0.255232 0.613050 0.563495 0.561931 -0.046213 -0.530133 0.411257 -0.321919 -0.142477 0.302661 0.347533 0.078978 0.259848 -0.084907 0.474821 0.399058 0.278570 0.089553 -0.024536 0.054910 -0.024981 -0.195703 0.552979 -0.589418 0.023809
? -0.059404 0.213240 0.084572 0.149788 -0.094856 -0.000666 -0.240399 -0.353347 0.124252 -0.036511 -0.081274 -0.145889 -0.062021 -0.046042 -0.053286 0.180846 -0.269843 0.049309 -0.539152 -0.234198 0.225575 0.453102 -0.062452 -0.243055 -0.107699 0.145127 0.200664 -0.137726 0.325514 0.276524 0.055341 -0.014833 -0.120887 -0.114352 -0.115947 -0.215964 -0.357164 -0.160017 0.043629 0.280317 -0.023009 -0.130851 -0.258175 -0.333215 0.211863 0.044065 -0.275032 0.261157 -0.094878 0.019798 -0.092410 -0.085973 0.085253 -0.108012 -0.112822 0.167061 0.281794 0.181859 0.177760 -0.110644 -0.042378 0.007180 -0.119785 -0.006158 -0.094420 0.254602 0.107199 -0.062189 0.409734 0.026424 -0.318405 0.008358 0.055480 0.069386 -0.539755 0.150707 0.052766 -0.219035 0.072060 0.507916 -0.056669 0.262804 0.224169 0.022625 -0.131228 -0.377627 0.425155 -0.041798 -0.074929 0.108918 0.090759 -0.036482 0.058109 -0.111831 -0.075662 -0.100826 -0.319387 0.037237 -0.312653 -0.390513 0.247945 0.223935 -0.075497 -0.001574 -0.025450 0.126669 0.165414 -0.225495 -0.133467 -0.000711 -0.163987 0.077804 0.411654 -0.125946 0.047491 0.000394 0.433713 -0.151556 -0.255527 0.043558 -0.156297 -0.003007 -0.035525 0.042571 0.082928 -0.020396 -0.070095 -0.001713
头 -0.310356 -0.031731 -0.189619 -0.009451 0.208349 0.085863 0.493571 0.229189 0.102219 -0.203169 0.674433 0.145417 -0.210156 0.046204 -0.266516 0.475002 0.160477 -0.442626 -0.538706 -0.032562 0.604009 0.180295 0.262626 -0.362508 0.052590 -0.004136 0.190063 0.146792 0.153629 0.113376 -0.173696 -0.210798 0.013456 -0.082086 0.245632 0.372855 -0.044918 0.254604 0.033181 0.470659 0.025808 -0.070779 -0.320190 -0.085097 -0.095662 0.254848 0.131404 0.208759 0.307355 0.358363 -0.078982 0.042460 -0.020054 -0.109131 -0.134394 0.203171 0.277104 0.324365 0.304788 0.352480 0.331007 -0.330462 -0.193532 0.508331 0.172764 0.190417 -0.335010 0.004015 0.021703 -0.122957 -0.284045 0.145265 -0.233402 -0.649617 -0.328091 0.256829 -0.279724 0.524948 0.131173 0.357704 -0.143792 0.017627 -0.112057 0.105092 0.090165 0.258943 -0.064687 0.100752 -0.037657 0.012733 0.111404 -0.008256 0.038343 -0.095136 0.179159 0.062807 -0.192177 0.031014 0.080691 -0.259858 -0.020647 0.037448 -0.096728 0.553987 0.287903 0.056506 0.096141 0.242659 -0.460855 -0.090619 0.046896 -0.105594 0.166298 0.228469 -0.385437 -0.019260 -0.201718 0.554097 0.133870 -0.016089 -0.273300 -0.314578 -0.151428 -0.242401 0.096467 0.349887 -0.505155 -0.087068
我 0.198275 0.241576 -0.240716 0.166067 -0.466226 -0.093916 0.207642 0.087225 0.023330 -0.038569 0.364886 -0.014632 0.046079 -0.563571 -0.144912 0.253080 -0.054665 0.024298 -0.012267 0.051593 0.141041 0.236060 0.321993 -0.072336 -0.138012 0.095661 0.097312 -0.186747 -0.094934 -0.058658 -0.108804 0.161366 0.149995 0.370862 -0.086238 -0.065666 0.301121 0.024699 0.181548 -0.081679 0.012144 -0.060704 -0.063778 -0.381565 -0.061673 0.154787 -0.030239 0.020562 0.137673 0.188528 0.276227 -0.030272 -0.243194 0.117396 -0.351184 0.091131 0.050606 0.102410 -0.058945 0.245746 0.467587 0.155123 0.242014 0.264546 0.149054 0.082224 0.048881 -0.019879 -0.016646 -0.171447 0.152390 0.020873 0.093654 -0.060675 -0.092913 -0.399457 0.272266 -0.310032 0.018362 -0.095235 -0.131179 -0.321029 -0.069995 0.537566 0.094087 -0.075978 -0.074430 0.265466 0.060780 -0.183582 0.043903 0.208935 0.105675 -0.196760 -0.107913 0.296106 -0.380766 0.103070 -0.000115 -0.011745 0.028844 -0.004799 -0.281427 -0.433803 0.007651 0.000190 0.130920 -0.206970 -0.068568 -0.368324 -0.123428 -0.124853 0.423528 -0.086211 -0.336454 -0.078869 0.723806 0.171856 -0.051863 0.031560 -0.226609 0.038229 -0.201144 0.294639 -0.035924 -0.114909 0.102775 -0.329249
血 -0.057299 -0.133655 0.334121 -0.095600 -0.173639 0.201583 -0.069244 0.060565 0.012445 -0.055843 0.085606 -0.321725 -0.183338 0.264858 -0.063397 -0.173839 -0.142162 -0.483120 -0.096901 0.152928 0.426321 0.095661 0.263020 -0.136044 -0.050701 -0.172633 0.155338 0.067692 0.174985 0.381576 0.087804 0.240235 -0.057129 0.057992 0.043102 0.378232 -0.149337 0.321415 0.226563 -0.081717 -0.196159 -0.200215 0.085274 -0.146816 0.372525 0.035769 0.098575 0.234475 0.006297 -0.188732 0.045594 0.238348 -0.151601 -0.014116 -0.202678 0.227266 0.260142 -0.167282 0.231977 0.165247 0.146285 0.023870 0.083273 0.068965 -0.051327 0.510034 -0.157097 -0.371682 0.308342 0.062643 -0.327684 -0.356109 -0.511144 0.184867 0.047529 0.235546 0.064625 0.140346 0.163521 0.001061 -0.121018 0.208470 0.289866 0.207749 -0.138973 0.093821 0.125772 0.088196 0.389966 -0.154897 -0.024061 0.329630 -0.052866 -0.260329 0.154124 -0.131738 -0.606575 -0.035325 -0.135927 -0.338535 -0.096330 0.096743 -0.048903 0.425240 0.183245 -0.194404 0.078592 -0.049902 -0.060049 -0.304080 -0.515501 -0.089719 0.337268 0.100958 -0.485185 0.045162 0.047828 0.100581 -0.014371 -0.068401 -0.115091 -0.036536 -0.420356 0.073270 -0.044223 -0.245676 -0.016042 0.120910
中 0.064460 0.121362 -0.180951 -0.219118 0.367408 -0.077091 -0.064283 -0.414754 0.175648 0.311913 -0.244332 0.056297 -0.115629 0.058891 -0.242564 0.441388 0.039768 -0.111012 -0.123563 0.015714 -0.004170 0.044267 0.299806 -0.417030 -0.173904 0.291465 0.098912 -0.158014 0.124173 0.330504 0.065333 -0.491596 0.132082 0.106771 0.426158 0.225613 -0.186951 -0.214351 0.133662 0.446152 0.244249 -0.118449 -0.012306 -0.014296 0.214670 -0.159969 -0.215823 0.160486 -0.122516 -0.018143 -0.033982 -0.251857 0.018043 0.362984 -0.433638 0.438746 0.020836 0.219595 0.000114 -0.104152 -0.037183 -0.213269 -0.391856 0.067707 0.081482 0.458017 -0.387573 -0.008270 -0.056041 -0.202353 -0.214125 -0.313345 0.048420 0.018029 -0.297367 -0.013533 0.384927 0.068274 0.129274 0.123606 0.504687 0.058331 0.028315 -0.075553 -0.132100 0.102139 -0.039455 0.042775 -0.106321 0.220536 -0.075682 -0.082582 0.256249 0.137850 -0.355583 -0.144741 -0.078789 0.367264 0.224732 -0.205136 0.114772 0.200751 -0.102050 0.002479 -0.080784 -0.031626 0.070474 -0.146911 -0.336347 -0.163252 -0.082220 -0.403796 0.211357 -0.179144 0.361680 -0.227269 0.056397 -0.071378 0.145749 -0.033625 0.207383 -0.085959 0.120990 -0.134343 0.210008 -0.240483 -0.408548 -0.346721
生 0.296008 0.200866 0.009541 -0.137355 -0.148219 0.190068 0.141258 -0.042662 -0.077241 0.220582 0.084057 0.002011 0.271384 -0.224178 0.015946 0.262070 -0.209083 -0.240864 -0.284720 0.099271 0.250203 0.262171 0.124022 -0.447912 -0.051122 -0.007202 -0.172782 -0.100633 -0.120809 0.195833 -0.046469 0.006497 0.054264 0.203002 0.028075 0.101631 0.159084 0.077352 -0.235438 0.224380 0.140505 -0.194792 0.090883 -0.106167 0.017787 0.338643 -0.029193 0.283796 0.077317 -0.306954 0.020193 0.053083 0.103307 0.144279 -0.484331 0.100143 0.484469 0.245716 0.323225 -0.002961 0.374980 -0.054865 -0.158620 0.093406 0.145809 0.377771 -0.061644 -0.201360 0.043871 -0.127555 -0.119916 -0.082619 0.141564 -0.025294 -0.312231 -0.064163 0.206340 0.279423 0.342107 0.008934 0.106351 -0.011920 0.121905 0.210337 -0.014646 0.059080 -0.006303 0.080133 0.153210 -0.174844 -0.013423 0.279697 0.195926 -0.508682 -0.275049 0.073499 -0.198302 0.108496 0.240693 -0.143714 -0.034692 -0.030583 -0.139536 0.051297 -0.068907 -0.265789 -0.019710 -0.226046 -0.159702 -0.294269 -0.054417 -0.380526 0.080714 0.150521 -0.291481 -0.180636 0.150517 0.164695 0.286411 0.193726 -0.074551 -0.030675 -0.031832 -0.182452 0.133220 -0.206139 -0.469730 0.221633
神 -0.231496 0.279066 0.257926 -0.197638 -0.048096 -0.022157 0.014396 0.130601 -0.030071 -0.207514 -0.025719 0.012128 -0.113814 -0.055564 -0.350024 -0.060502 0.293925 0.269576 -0.481789 -0.364577 0.350635 0.437083 -0.162426 -0.130848 -0.168943 0.559088 -0.049941 0.256310 0.210448 0.825269 -0.359476 0.191571 0.274393 0.173433 -0.100712 0.426201 0.493957 0.274864 0.170611 0.168613 -0.023377 -0.100846 0.072851 0.361402 -0.392595 -0.016485 0.438211 0.087164 -0.239210 0.498021 0.267127 0.274903 -0.506934 0.470382 -0.643322 -0.179734 -0.275855 0.210136 -0.033912 -0.347158 0.637674 -0.198992 -0.314057 -0.454816 0.033207 0.646091 0.192479 -0.213552 -0.652075 0.307501 -0.176098 0.088687 -0.321157 0.437889 -0.479830 0.152570 -0.248775 0.379429 0.426440 -0.027706 0.270951 -0.109253 -0.315049 0.175768 0.079539 -0.116170 0.309902 0.264705 -0.070317 0.220420 0.526632 -0.214620 0.125704 -0.420227 -0.462306 -0.491629 -0.109776 0.501940 -0.058725 -0.246579 0.047656 0.065986 -0.185245 0.170462 0.273674 -0.108954 0.220664 0.018950 -0.450902 0.209719 -0.177135 -0.212164 0.280990 -0.084044 0.443451 -0.268872 0.063957 -0.057467 0.262677 0.183922 0.275346 0.081257 0.014714 -0.192540 -0.233066 0.025952 -0.527090 0.001443
以 -0.050087 0.003724 0.153220 0.015066 -0.264922 -0.343935 -0.091027 -0.073088 0.322296 0.205668 -0.088417 0.551341 0.095610 0.251858 -0.300407 0.434446 0.075209 -0.075372 -0.397799 -0.223855 -0.257326 0.518039 0.577370 -0.384160 0.092853 0.036255 0.002123 0.053677 -0.128346 0.146477 0.182164 -0.060051 -0.038445 0.117574 0.342695 -0.062460 -0.365674 0.108724 0.368617 0.396140 0.225387 -0.014858 -0.237001 -0.207345 0.133064 0.084998 0.039181 -0.046012 0.195819 0.133308 0.133595 -0.049497 0.250749 0.223255 -0.401107 0.344464 0.352351 0.177916 -0.238960 0.222473 -0.254550 -0.084625 -0.413012 -0.121177 0.007586 0.236996 -0.295443 0.263928 0.414318 -0.125125 -0.338020 0.169805 0.191044 -0.004711 -0.057708 -0.413954 0.191739 -0.232687 0.159413 -0.115792 0.006938 0.011710 0.075683 0.296822 -0.114698 -0.184597 -0.121074 0.480232 0.112695 -0.025060 0.299709 0.332836 0.273291 0.088217 -0.462849 -0.045344 -0.014386 0.080479 -0.034663 -0.329235 0.133627 0.206523 0.048636 0.076373 -0.028136 0.529619 0.285853 -0.337239 -0.208306 -0.071009 0.259247 -0.270649 0.215283 0.202018 -0.034697 0.023969 0.235571 -0.069820 0.296865 -0.091115 -0.141720 -0.317669 -0.045148 0.160072 -0.100347 -0.032692 -0.672963 0.200376
小 -0.066007 0.322253 0.138621 0.085196 0.033024 -0.225487 0.130387 0.020044 0.043375 -0.068084 0.087257 -0.157491 0.013423 0.137608 0.187962 -0.241447 0.301340 -0.092110 -0.302809 -0.134666 -0.066948 0.199581 0.414263 -0.034156 0.005536 0.005500 0.014331 -0.239492 0.097776 0.431780 -0.172236 -0.119360 -0.090109 0.224162 -0.151876 0.025691 0.152293 0.052777 0.150991 0.163041 0.094208 -0.107182 0.244408 -0.159231 -0.201064 0.094759 -0.201815 -0.064373 0.289080 0.227663 0.265407 0.125996 -0.203815 0.132568 -0.482309 0.020003 0.358435 0.304407 -0.020246 0.108931 0.317426 0.161212 -0.236843 -0.342601 0.269305 0.271927 -0.005030 -0.134727 0.030026 -0.059818 0.018718 0.104421 -0.113149 0.023718 -0.125492 -0.160822 0.304968 -0.096479 -0.145296 -0.136556 -0.098369 0.126353 0.176832 0.446191 -0.202673 0.174866 -0.076898 0.213260 -0.195602 0.091730 0.023786 -0.253788 0.276388 -0.111149 -0.216472 -0.158364 -0.166183 -0.001930 -0.019937 -0.337141 -0.276507 -0.070833 0.040987 -0.059538 -0.112348 -0.216097 0.364100 0.036213 -0.352557 0.078267 -0.054119 -0.254938 0.258130 -0.052626 -0.100364 -0.007386 0.038366 0.047228 0.351158 -0.036715 -0.075091 0.094482 -0.389991 -0.100854 0.129609 -0.243589 0.107107 -0.110462
得 -0.106151 0.211233 -0.106938 -0.061886 0.072523 -0.019795 0.235630 -0.177131 0.176814 -0.139186 0.112993 -0.283408 -0.171897 -0.362755 -0.005160 0.177185 -0.056593 -0.076370 -0.208915 -0.058034 -0.137168 0.364702 0.565463 -0.007167 -0.083522 -0.035151 0.059949 -0.362436 0.519387 0.068304 0.159712 0.118424 -0.074440 0.121739 -0.150799 0.032009 0.251818 0.000595 0.085045 -0.170254 -0.139836 0.002833 -0.157649 -0.348345 0.039673 0.074531 0.021683 0.199052 0.231738 0.336908 0.283788 0.068212 -0.043725 -0.145643 -0.586947 -0.014341 -0.151038 0.574834 -0.031393 0.097675 0.266231 0.078240 -0.052155 -0.023122 0.143928 0.132503 0.079210 0.073633 0.177403 -0.474353 0.112832 -0.089901 -0.285280 -0.287527 -0.212605 -0.183761 0.278498 -0.272973 -0.182523 -0.036289 -0.098512 -0.146687 -0.458478 0.277276 0.180765 0.126260 0.039174 0.359373 0.058975 0.153872 0.264753 -0.282869 0.091251 0.176035 -0.075321 -0.135656 -0.131679 0.130376 -0.160835 -0.194020 -0.082325 0.097510 -0.067970 -0.134545 0.139452 -0.020037 0.420990 0.230550 -0.163610 0.021540 0.080084 -0.184761 0.296288 0.078901 -0.011627 -0.082849 0.123115 0.001074 0.168566 0.038337 0.130517 0.088683 -0.134496 0.059060 0.205587 -0.091610 0.177544 -0.387612
岁 0.061019 0.139503 -0.040830 -0.215213 0.217365 -0.287223 0.303797 0.036295 0.329073 -0.095911 0.440544 -0.422322 -0.186844 -0.494989 -0.315194 -0.156250 0.152872 -0.214827 -0.170985 -0.079100 0.101495 0.398430 0.597772 -0.192047 0.009217 -0.033602 -0.044837 -0.123684 0.233387 0.542680 -0.167407 0.226391 -0.317837 0.586982 -0.295131 0.081748 0.279562 0.225289 -0.026992 -0.247640 -0.325198 0.091791 0.008132 0.084924 -0.131695 -0.058207 0.093218 -0.297167 0.442421 0.489166 0.250225 0.248151 -0.365514 0.264331 -0.500129 0.023884 -0.080498 0.498617 -0.415090 0.640693 0.426723 0.158993 0.003028 -0.225952 -0.081147 -0.041766 0.470349 0.028762 -0.151428 -0.597064 0.268576 0.103145 -0.345421 0.159432 -0.082103 -0.363345 0.094658 -0.182909 -0.111984 0.142546 0.136376 -0.232529 -0.280835 0.543174 -0.167721 0.235016 0.060424 0.638083 -0.169743 0.028164 -0.079639 -0.230335 0.364070 -0.332144 -0.821245 -0.015273 -0.503223 -0.244227 0.244483 -0.145920 -0.766253 -0.021681 0.108340 -0.130009 -0.051489 0.103335 0.786934 0.300029 -0.113781 0.232096 -0.261170 -0.046551 0.417440 -0.629610 -0.164698 -0.221226 0.416522 0.003213 0.320985 -0.088897 -0.373438 0.247142 -0.603247 -0.435111 -0.222647 -0.250084 0.400038 -0.073961
脑 -0.145246 -0.017457 -0.092342 -0.153456 0.112839 -0.173457 0.483961 -0.087182 0.143671 0.061122 0.087112 -0.216166 -0.048952 0.272758 -0.112820 0.104757 0.323216 0.014116 -0.251135 -0.101161 0.290322 0.170873 0.230874 0.050702 -0.243072 0.107063 0.005890 0.064383 0.273178 0.630771 -0.048601 0.098923 0.055961 0.222283 0.207770 0.223919 0.010027 0.159419 0.276285 0.069088 0.189418 -0.025414 -0.363339 0.044669 -0.056910 0.138890 0.071570 -0.281672 -0.170556 0.121912 0.039743 0.119840 -0.277310 0.203158 -0.242060 0.102563 0.032216 0.300264 0.026023 0.054460 0.419286 0.068302 -0.262048 -0.051448 -0.040969 0.216092 -0.113568 -0.220091 0.009717 -0.145745 -0.075081 -0.123703 -0.326916 0.027637 -0.108652 0.105650 -0.047273 0.092628 -0.095320 -0.161752 -0.102611 -0.037496 -0.070199 0.072992 -0.175796 0.217518 -0.171482 0.156484 -0.206700 0.245701 0.367936 -0.102264 0.348201 0.016888 -0.183519 0.093811 0.036833 0.014219 -0.357752 -0.026006 0.001880 -0.003474 0.117865 0.251952 0.133179 -0.081428 0.255226 0.135357 -0.152962 0.056689 -0.236042 0.095087 0.236912 -0.128603 -0.130436 -0.146550 0.010415 -0.328289 0.256779 -0.031485 0.103772 -0.214491 -0.313555 -0.322801 0.105055 -0.275642 -0.012317 -0.191005
恶 -0.356343 0.173749 0.033086 -0.124904 0.417261 -0.052435 0.369730 -0.156208 0.109273 -0.361084 -0.111546 -0.333794 0.095512 0.324858 -0.111096 -0.051955 0.168086 -0.072244 -0.577250 -0.053411 0.025434 0.426705 -0.279199 -0.109054 0.009188 0.561987 -0.038082 -0.255704 0.017313 0.479610 0.015907 0.218889 -0.265157 0.145769 -0.306192 0.025079 -0.382614 0.079048 -0.104093 0.349196 0.304306 -0.097110 0.016396 -0.145356 -0.189219 0.165732 0.016997 -0.102526 0.123096 0.267507 0.189012 0.183096 0.188449 0.014384 -0.183725 0.166471 -0.127415 0.126245 0.045100 0.019554 0.592533 0.119058 -0.486017 0.179248 0.304342 0.227267 -0.131788 -0.466277 0.242483 -0.138069 -0.327801 -0.225804 -0.402340 -0.026101 -0.218615 0.387962 -0.263775 0.153713 0.044791 0.250796 0.093759 0.008749 -0.367439 -0.107713 -0.118265 -0.183195 -0.024378 0.230593 0.116662 -0.089701 -0.085747 -0.218184 0.202072 0.061561 -0.093243 -0.093131 0.075088 -0.020422 -0.089799 -0.064039 0.067089 -0.112545 0.045331 0.293006 0.132596 0.386512 -0.060222 0.032121 -0.236223 0.148556 -0.578943 -0.052284 0.507014 0.089678 0.170449 -0.014093 0.179048 0.111197 -0.040516 0.105545 -0.277863 0.042245 -0.080339 -0.432332 -0.158474 -0.109262 -0.018549 0.059052
现 0.033475 0.110157 -0.461038 0.348032 -0.064874 0.146368 0.074264 0.231891 -0.590313 -0.059309 0.408115 -0.064957 -0.125328 -0.254739 -0.324990 0.356388 -0.069925 -0.315251 -0.120438 0.217211 0.268630 0.367017 -0.024982 -0.042630 -0.168574 -0.287713 -0.223738 -0.073610 0.144023 0.568175 0.189852 -0.091310 0.471965 -0.090317 -0.166248 0.388524 0.125613 -0.067620 0.172751 -0.271434 -0.383553 -0.044451 -0.424047 -0.114293 -0.156749 0.083375 0.333648 0.129712 -0.154599 0.071775 -0.154304 -0.108319 -0.072330 -0.380893 -0.411697 -0.399047 -0.033068 0.436320 0.412041 0.161794 0.168822 -0.178728 0.211361 -0.063271 0.133003 0.138550 0.013378 0.040928 0.289347 -0.034690 0.022769 -0.183913 -0.174079 -0.291433 0.093962 0.173666 -0.165715 0.192347 -0.007091 0.252275 0.241995 -0.239566 0.102168 -0.116401 0.201768 -0.158536 -0.254701 -0.011020 -0.202268 -0.175236 0.289032 0.328939 -0.215476 -0.116434 -0.176434 -0.075147 -0.192506 -0.300236 -0.372347 0.012409 -0.125661 0.029305 0.175105 -0.275644 0.274297 0.035058 0.003546 -0.144102 -0.370946 -0.293285 -0.089072 -0.262125 0.015730 -0.224102 -0.502147 0.029792 -0.262611 0.061009 0.014971 0.206395 -0.046644 -0.116191 -0.178725 -0.039437 0.417250 -0.418321 -0.222262 -0.339084
囊 -0.005262 0.002890 -0.103339 0.054270 0.549748 -0.109122 0.447412 -0.110081 -0.093170 -0.166281 0.149447 0.184791 0.277619 -0.037112 -0.154868 0.323301 0.139370 -0.436844 -0.393362 0.421650 0.257651 0.432483 -0.054541 -0.222500 0.044321 0.261882 -0.009883 -0.399617 -0.067108 0.139001 -0.197213 0.157749 0.171431 0.301302 0.019115 0.006986 0.038658 0.145838 -0.083589 0.216951 -0.207375 0.297880 -0.085545 -0.197114 -0.240042 0.213786 0.009758 0.216850 0.546536 -0.113167 -0.132352 -0.004601 0.167875 -0.040464 -0.014471 0.097251 0.074893 0.282500 -0.087957 0.470086 0.297023 0.124847 -0.171275 0.237521 0.043668 0.222529 -0.317299 -0.392131 0.416175 -0.545403 -0.257530 -0.152449 -0.233990 -0.246180 0.130999 0.351009 -0.525038 0.324384 0.022323 0.460352 0.186875 -0.058605 -0.305941 -0.098112 -0.309171 0.290094 -0.476044 -0.040399 -0.578501 -0.234950 0.021000 -0.030472 0.150697 0.060016 -0.319638 0.320776 -0.009875 -0.387526 0.099443 0.171806 0.103121 0.136640 0.288695 0.361353 0.175800 0.301720 0.114828 -0.451088 0.098856 -0.424437 -0.502399 -0.101835 -0.037850 -0.132986 -0.036027 0.127782 0.016258 0.098415 0.124258 0.160182 -0.201828 -0.007451 -0.024215 -0.344652 -0.043608 -0.098791 -0.386496 -0.074385
吃 0.007290 0.091709 0.302334 -0.002962 0.121482 0.100022 -0.472576 -0.337548 0.388838 0.101718 0.092395 0.119286 -0.268041 -0.332757 -0.321501 0.675466 -0.036896 -0.167655 -0.264181 -0.363200 -0.167887 0.439056 0.355455 -0.308529 -0.027217 0.099377 0.201005 -0.056040 0.424071 -0.087106 0.263765 -0.074069 0.055739 0.036038 0.174487 -0.012485 -0.047324 -0.410769 0.557473 0.114094 -0.129939 -0.253416 -0.088860 -0.198847 0.373983 -0.099952 0.026915 0.290992 -0.000860 0.079754 -0.075946 -0.392743 -0.245073 -0.204086 -0.344895 0.405843 0.000615 0.150220 0.060987 0.197180 -0.076754 0.303093 -0.283175 0.106992 -0.278209 0.435606 -0.224735 0.165557 0.312373 -0.145515 -0.537011 -0.251675 -0.126549 -0.127940 -0.097165 -0.086823 0.376184 -0.067859 -0.123468 0.581457 0.296148 0.131616 0.082186 0.125680 -0.002826 -0.307580 -0.053882 0.207601 -0.277367 0.089910 0.557288 0.016733 0.123103 0.164996 -0.151013 -0.112027 -0.215104 0.261357 -0.074389 -0.406103 0.101118 0.031790 -0.080677 -0.275193 -0.092058 0.091414 0.363409 -0.033222 -0.387341 0.277102 -0.056700 -0.214613 0.111538 -0.172007 0.262945 -0.152703 0.060199 0.234615 0.087703 0.202405 -0.025624 -0.024847 0.176552 0.219582 0.035301 -0.004355 -0.315723 -0.446530
上 0.200668 0.077322 0.042372 0.104447 0.114979 -0.011664 0.425970 0.125559 0.057779 -0.078928 0.151299 -0.104627 -0.576620 0.128499 0.054367 0.337626 0.312412 -0.399653 -0.216705 0.199193 0.088987 0.337710 0.138909 0.188545 0.040530 0.127921 0.062499 -0.126614 -0.102384 0.380307 0.142937 -0.094015 -0.047011 0.437985 0.009526 0.494077 -0.177664 -0.097860 -0.038810 0.190957 -0.183084 0.037220 0.182758 -0.099995 -0.032045 0.105675 0.385243 0.165634 0.391821 -0.012998 0.144988 -0.209855 0.236876 -0.128096 -0.255122 0.171827 0.357279 0.066643 -0.030993 0.148700 0.014602 -0.291679 0.088811 0.220836 0.195564 0.040745 -0.147276 0.264820 0.245580 0.054449 -0.127452 -0.342297 -0.264097 -0.089373 0.092329 -0.037369 -0.035872 0.396106 0.002752 -0.012583 0.375845 0.069141 -0.025107 0.118677 -0.108506 -0.016300 -0.310051 0.052295 0.030938 0.090589 -0.069791 0.007337 0.290268 0.177125 0.035582 -0.179208 -0.138008 -0.092367 0.115283 -0.087893 0.000401 0.084543 -0.191719 0.133252 0.256806 0.070353 0.556289 -0.141697 -0.327165 -0.031149 -0.097184 -0.372891 0.188630 0.002681 -0.335914 0.048517 -0.091521 0.521566 0.372291 0.089840 0.141710 0.104991 0.156124 0.200264 0.389458 0.041555 -0.185866 0.100633
如 0.209053 -0.272117 -0.410750 -0.084760 0.099555 -0.095073 -0.278758 -0.450179 0.242427 -0.138171 -0.065219 -0.107091 -0.104906 -0.088014 -0.572589 0.330217 -0.057067 0.075183 -0.059236 -0.157788 0.074279 0.186976 0.079972 -0.006251 -0.181651 -0.091452 -0.442468 -0.452087 0.007455 0.283803 -0.128829 -0.003472 0.344237 0.014515 0.147295 -0.002857 -0.323479 0.048149 -0.164826 0.223996 0.089981 0.254457 -0.982572 -0.194529 -0.130816 -0.051119 0.006653 0.115752 0.164557 0.160853 0.383464 -0.133729 0.071604 0.307749 -0.170912 -0.045961 -0.471315 -0.383124 0.099159 0.073893 0.003979 -0.351869 -0.000326 -0.001487 -0.006272 -0.144153 -0.229258 0.135355 0.074198 -0.070202 -0.339160 0.192172 0.032832 0.528555 -0.240222 0.336170 0.150867 0.425990 -0.119028 0.410818 0.296078 0.337576 -0.056611 0.116226 -0.124392 -0.181989 0.343618 -0.042510 -0.082515 -0.035619 0.528869 0.005322 0.128322 0.159320 -0.514538 -0.278360 -0.462617 0.333637 -0.168203 -0.489131 0.152913 0.183833 -0.391368 0.239815 -0.005455 0.547793 0.355395 -0.706052 -0.161871 -0.038844 0.091141 -0.216585 0.072973 -0.136029 0.687426 0.225085 0.393855 0.176327 0.064179 0.154957 -0.228674 -0.508069 -0.254967 0.254899 -0.042136 0.136254 -0.363128 -0.506083
在 -0.084429 -0.006853 -0.154223 0.167254 -0.146893 -0.017387 0.223138 0.109402 -0.266482 -0.112867 0.191483 -0.057021 -0.098457 -0.054849 -0.259095 0.262644 0.078992 -0.343169 -0.216202 -0.073945 0.273564 0.367281 0.091917 0.054495 -0.071159 -0.299927 -0.116229 0.005365 0.171812 0.326557 0.020684 -0.270691 0.494362 0.292461 -0.023395 0.153775 -0.034415 -0.001069 0.451879 -0.083519 -0.319750 -0.040067 -0.149560 -0.057298 -0.167495 0.159982 0.140125 0.228702 0.037845 -0.279832 -0.145054 -0.133509 0.156662 -0.088043 -0.384242 -0.055168 0.244339 0.171404 0.480240 0.205074 0.078863 -0.148618 0.139420 0.017655 0.037935 0.380905 -0.060724 -0.096522 0.185074 -0.019376 -0.131001 -0.119898 -0.087084 -0.110334 0.142747 -0.090907 0.143877 -0.086156 -0.046613 0.101547 0.210086 -0.108928 0.006720 0.104464 -0.067729 -0.080971 -0.236618 0.069078 -0.099919 -0.054468 0.111984 0.454357 0.059007 -0.085975 0.035302 -0.050337 -0.260499 -0.245867 -0.150597 -0.144309 -0.122950 0.046477 -0.020344 -0.262824 0.156426 0.223494 0.241039 0.050937 -0.425176 -0.192946 -0.078402 -0.284861 0.302646 -0.165816 -0.413227 -0.063751 -0.250933 -0.064215 0.081802 -0.023205 -0.077637 0.136969 -0.071665 0.325455 0.494829 -0.137674 -0.319571 -0.064663
何 0.217197 -0.569861 -0.421674 -0.146790 -0.014890 0.120073 -0.089302 -0.194489 0.134047 0.054956 0.340602 -0.082827 -0.226468 0.275828 -0.779987 0.614916 -0.368838 0.211133 0.221944 0.178498 0.325641 0.260861 0.389437 -0.153009 -0.278353 -0.378987 -0.288439 -0.289303 -0.012675 0.240045 -0.020542 0.114946 0.409384 -0.140401 0.472602 0.084307 -0.245990 0.100942 -0.132655 0.146613 0.246286 0.218982 -0.776286 -0.067975 0.218266 -0.328476 0.158981 0.211610 -0.116671 0.241154 0.285191 -0.251501 0.015237 0.471838 -0.042509 0.115609 -0.625697 -0.256482 0.164718 -0.059777 0.001788 -0.206460 -0.409212 -0.088536 0.346320 -0.012175 -0.238737 0.007089 0.141232 0.044134 -0.404086 0.071945 -0.276531 0.409319 -0.351525 0.177566 0.263609 0.232317 0.039927 0.577512 0.439646 0.151822 -0.276915 -0.142900 0.069768 -0.191391 0.409274 0.272118 -0.050891 -0.054214 0.713007 0.003433 -0.148300 -0.077800 -0.416511 -0.131902 -0.455766 0.111719 -0.346022 -0.280928 0.056945 0.097973 -0.500443 0.208641 0.093852 0.468579 0.047323 -0.647948 -0.047747 -0.056989 -0.093545 -0.264302 -0.140018 -0.269542 0.252211 0.207134 0.487683 0.149687 0.057537 0.183496 -0.277963 -0.223929 0.062321 0.031283 0.061402 0.138840 -0.273280 -0.288549
要 0.194374 -0.089403 0.074822 0.103480 -0.306627 -0.243587 0.159664 -0.053204 0.329937 -0.004671 0.009795 0.155124 0.086085 0.193875 -0.010712 0.574391 0.131453 -0.105694 -0.169320 -0.415025 0.112500 0.527051 0.141193 -0.042981 0.251395 0.027392 0.281875 0.039584 -0.098306 0.068609 0.010627 0.262909 0.204001 0.589147 0.087530 -0.192969 -0.366628 -0.108240 0.318428 0.416370 -0.497049 0.044856 -0.354850 -0.313840 -0.123524 0.014931 -0.570463 -0.168472 0.125991 -0.350224 -0.208537 -0.175967 -0.107365 -0.008130 -0.111034 0.200963 0.083573 -0.008247 0.249297 0.286904 -0.206923 0.511256 0.218765 0.021425 -0.248869 0.385946 -0.137058 0.216063 0.351401 -0.013775 -0.376734 0.177316 -0.072558 -0.168171 -0.229035 0.139567 -0.269042 -0.276689 0.013664 0.043743 0.099111 0.031540 0.210921 0.119779 -0.408161 -0.293121 0.100028 0.204180 -0.372219 0.171577 0.403035 0.248693 0.444444 0.055227 -0.376831 0.274580 -0.287581 0.435972 -0.177902 -0.133311 0.389900 0.460869 -0.131489 -0.108981 0.290456 -0.030459 0.321417 -0.436527 -0.142939 -0.014690 0.281672 0.175282 -0.069845 -0.129159 0.172739 0.061181 0.085545 -0.437823 0.061672 -0.000089 0.034221 -0.600741 -0.359412 -0.167660 0.255499 -0.199951 -0.295802 -0.013931
问 -0.415960 0.199000 -0.125437 0.243234 -0.053477 -0.027457 0.234312 -0.295102 -0.146095 -0.184035 0.465070 -0.173940 0.243346 -0.236282 -0.387468 0.035361 -0.145566 -0.138213 -0.077328 0.337470 0.219801 -0.290788 -0.360340 0.095699 -0.163417 0.317485 -0.023454 -0.056709 -0.022996 -0.235886 -0.272856 0.168702 0.424461 0.441044 -0.419817 -0.269685 -0.085461 0.001042 0.120827 0.036557 0.400361 0.281770 -0.021532 -0.005370 0.141540 -0.345888 -0.689062 0.574441 0.010430 0.112707 -0.031547 -0.211573 -0.040437 0.037416 -0.136612 -0.014684 -0.238448 0.273777 0.146788 0.067377 0.071573 0.107752 0.321090 0.414842 -0.115117 0.137065 0.212231 -0.628539 0.435617 0.192337 0.130170 0.120980 -0.001202 -0.148532 -0.445545 0.011248 0.168103 -0.196136 0.109184 0.234293 -0.315719 -0.200585 -0.146215 0.344159 -0.187767 0.115137 0.120083 0.211023 -0.331399 0.073491 0.111939 0.114292 -0.285931 -0.062167 0.253111 0.219454 -0.267047 0.084391 -0.466990 -0.310423 0.297771 0.278924 -0.321084 0.075304 -0.239586 -0.193006 -0.058443 -0.174430 -0.325540 -0.474575 -0.142871 -0.011972 0.543464 -0.019658 -0.167805 -0.549827 0.585403 0.299813 -0.401430 -0.407710 -0.110977 -0.116578 -0.326067 0.045536 0.141327 -0.160735 -0.318996 -0.624310
做 0.161786 0.193698 -0.062840 0.021567 -0.365304 -0.267996 0.122499 0.189359 -0.084159 0.010143 0.157218 0.192106 -0.099602 -0.080199 -0.104697 0.309764 0.055115 -0.158121 0.016559 0.204083 0.101385 0.334628 -0.025456 -0.012470 -0.234496 -0.110662 -0.180506 -0.081980 0.148681 0.233567 -0.121052 -0.088685 0.086947 0.306931 0.173470 0.029192 -0.101033 -0.108557 0.082979 0.119259 -0.507436 0.022689 -0.340683 0.018154 0.041998 0.160002 0.102535 -0.216090 -0.023089 0.069175 0.211395 -0.206374 0.083604 -0.107610 -0.432311 0.255066 -0.017323 0.055724 -0.027449 0.486570 0.025029 -0.046490 -0.089056 -0.021761 -0.208242 0.132393 0.123120 0.228840 0.146281 -0.031301 -0.091458 0.056387 0.069673 -0.152821 0.124241 -0.120158 -0.175614 -0.013060 -0.093469 -0.282931 0.186810 -0.047934 0.067329 -0.035393 -0.196714 -0.219559 0.018520 0.027928 -0.349376 -0.081392 0.369551 0.237108 0.157920 0.230356 -0.221053 0.169163 -0.183945 -0.150145 -0.031240 -0.000724 0.068880 0.523471 0.185158 -0.077506 0.309322 0.207837 0.351315 -0.361446 -0.291184 -0.082919 0.014863 -0.048132 0.074895 -0.154799 0.054231 -0.019567 0.123042 -0.170559 0.211144 0.198294 0.216297 -0.366850 -0.616408 0.361659 0.101863 -0.125628 -0.318704 -0.158596
1 -0.180669 0.031210 -0.188086 -0.269932 0.187363 -0.598454 0.045091 0.126193 0.021012 -0.008323 0.319560 -0.121655 -0.253490 -0.476991 -0.536436 -0.352396 0.169999 -0.238131 0.057422 0.045602 0.166398 0.299875 0.246018 -0.054199 -0.102463 0.154643 -0.081380 0.002802 0.057798 0.606328 -0.265364 -0.497681 -0.138723 0.377783 -0.217457 -0.042827 -0.172430 0.086605 0.229997 -0.236276 -0.279232 0.113345 0.138541 0.202088 -0.203833 -0.167734 -0.140807 -0.361930 0.283581 0.462660 -0.214411 0.155636 -0.308640 0.410942 -0.433319 -0.020902 -0.162243 0.429436 -0.427540 0.607869 0.204447 -0.225731 0.231149 0.006881 -0.264200 0.046946 0.259265 -0.121456 -0.277513 -0.111889 0.169847 0.197288 -0.032586 -0.039973 -0.107875 -0.148604 0.158256 0.042620 -0.007108 -0.119682 0.123898 -0.213550 0.129303 0.269755 -0.181194 0.156915 -0.153363 0.149310 -0.263064 0.091715 -0.146462 -0.045170 0.450085 -0.059141 -0.745417 -0.004094 -0.573300 -0.542637 0.143043 -0.175452 -0.588248 0.048569 0.278911 -0.172753 0.001477 0.250945 0.741883 0.195712 -0.382761 0.074858 -0.484126 0.005386 0.546313 -0.592955 -0.394877 -0.216870 0.500921 0.100240 -0.084632 -0.287989 -0.590789 0.299481 -0.616473 -0.211670 -0.318209 -0.187635 0.244177 -0.232132
晚 0.050113 0.126681 -0.357950 0.057704 0.510204 -0.209774 -0.073956 -0.442327 0.414174 0.171062 -0.070876 -0.012598 -0.151692 -0.295303 -0.373882 0.639364 -0.022463 -0.183395 -0.158728 0.460388 0.048466 0.287043 0.375872 -0.270673 -0.524183 0.165677 -0.220290 -0.117705 0.488980 0.266011 0.391094 -0.181636 -0.084298 0.068687 0.325759 0.300349 -0.400613 -0.089100 0.151762 0.108276 0.203743 -0.041077 -0.484349 -0.161826 0.249216 0.122253 -0.110682 0.250182 0.019844 0.009726 -0.046696 -0.192777 0.052807 -0.111937 -0.123846 0.231240 -0.472456 0.490441 0.313680 0.072919 -0.166047 -0.050681 -0.184658 0.132914 -0.271774 0.089125 -0.190507 -0.007801 0.232270 -0.495054 -0.028616 -0.763998 -0.067497 -0.186658 -0.164837 -0.120524 0.186791 0.088625 -0.121392 0.013814 0.208654 -0.014126 -0.432034 -0.081342 -0.030991 0.283265 -0.034934 0.144970 0.130854 0.433519 0.129137 0.061239 0.131803 0.203049 -0.458708 -0.140354 -0.071175 0.035264 -0.065928 -0.115016 -0.103460 0.389422 0.121312 0.266727 -0.224833 0.072087 0.252430 -0.064632 -0.134688 -0.250625 0.095681 -0.155097 0.182891 0.080103 0.064315 0.180840 0.312360 0.268557 0.105789 -0.236383 0.145110 -0.024336 0.074408 -0.175984 0.210304 -0.025532 0.040487 -0.435544
长 -0.101370 0.026699 -0.022730 0.132782 -0.068158 0.151787 0.396140 0.207111 0.036780 -0.263711 0.222401 -0.276422 -0.172722 0.345956 -0.131839 -0.002366 0.033272 -0.182161 -0.346113 -0.159628 0.307050 0.423419 0.171375 0.244706 0.054807 -0.196541 0.059063 -0.193657 0.166131 0.407598 0.169567 0.027086 0.062324 0.300881 -0.178950 0.279206 0.064569 -0.019101 0.010502 0.209191 -0.023938 -0.064650 0.133266 -0.330116 0.028097 0.072490 0.222873 0.123713 0.262533 -0.141887 0.174921 -0.243370 0.092855 0.039628 -0.555305 0.205951 0.280223 0.078669 0.358016 0.119661 0.193676 -0.032151 -0.063151 -0.066936 0.382411 0.389165 0.005514 0.108794 0.047631 0.133869 -0.302226 -0.266574 -0.248435 -0.234153 -0.082420 0.013733 0.203231 -0.137211 -0.001507 -0.179133 0.224902 0.028353 0.090457 -0.013600 0.139282 -0.182045 -0.183424 0.068629 0.039521 -0.074718 0.089457 -0.032842 0.134868 0.088813 0.208808 -0.290245 -0.028912 -0.035461 -0.126338 -0.107339 -0.174982 0.023422 -0.003275 0.100667 0.240688 -0.080654 0.072318 -0.144183 -0.542949 0.186231 -0.027550 -0.313963 0.357001 0.138193 -0.534352 -0.036164 -0.272144 -0.136884 0.045273 0.183140 0.131150 0.009711 -0.078365 0.093682 0.469803 -0.092332 0.056233 0.222329
些 0.142077 0.002524 0.068339 0.401627 -0.340542 -0.421053 -0.224094 -0.292490 0.052757 0.293025 -0.003038 0.282910 -0.529446 -0.312150 -0.305018 0.865648 -0.217820 -0.229501 -0.371960 0.184545 0.586892 0.666454 0.006319 0.088203 -0.240506 0.627312 0.319117 0.239591 0.077232 0.261766 -0.254564 -0.154270 0.355345 0.192814 0.358318 -0.009320 -0.227749 0.159265 0.350781 0.392976 -0.366784 -0.271072 -0.330205 -0.264794 0.266114 0.267982 0.040288 0.464577 -0.217065 0.036781 -0.657374 -0.074239 0.003683 -0.483860 0.201704 0.333916 0.232000 0.260922 0.050690 -0.055048 0.021293 -0.375922 -0.031295 0.208830 -0.450577 0.285954 0.231750 -0.088627 0.308799 0.115796 -0.084637 -0.143711 0.078234 0.032434 -0.281134 0.295243 0.026379 0.206915 0.085697 0.453998 -0.225330 -0.005303 -0.021096 -0.055604 -0.187232 -0.119962 0.371088 -0.034594 -0.449093 0.517394 0.570153 0.172137 -0.180896 0.147768 0.255201 -0.138515 -0.217484 -0.025832 -0.343387 -0.224549 0.615269 0.461583 -0.144224 -0.107626 -0.026496 -0.002331 0.339401 -0.152058 0.269387 -0.305332 -0.254495 -0.110992 0.201328 -0.355184 -0.086617 -0.144647 0.461481 -0.163201 -0.265628 0.095644 -0.028971 0.017620 0.179321 0.494613 -0.074477 0.045531 -0.298774 -0.149652
年 0.082374 -0.048640 -0.318383 0.023193 -0.272496 -0.023203 0.143645 0.246678 -0.013729 -0.137058 0.459112 0.329124 0.040591 -0.305048 -0.577851 0.118136 -0.127790 -0.241145 0.051793 0.101434 0.308503 0.214647 0.219332 -0.095236 -0.165126 -0.425910 -0.373255 0.046772 0.353933 0.398134 -0.138258 -0.056925 0.178835 0.452576 0.087742 0.065661 0.133920 -0.107721 0.325384 -0.169633 -0.536448 0.019168 -0.186479 0.402415 -0.167002 0.164015 0.387774 0.028303 0.141532 0.243270 0.126517 -0.039701 -0.220880 0.120146 -0.634823 -0.129408 -0.190761 0.665064 -0.128998 0.489582 0.068544 0.071647 0.135499 -0.078931 -0.326547 0.173743 0.407043 0.272319 -0.247815 -0.322773 0.125405 0.111000 0.008779 0.067239 0.093083 -0.296804 0.045622 -0.145391 0.015392 -0.204747 0.307267 -0.385426 -0.109021 0.197232 -0.049350 -0.042457 -0.027285 0.445942 -0.142647 -0.097183 0.235025 0.402487 0.085536 -0.155965 -0.618623 0.050478 -0.393195 -0.315960 0.081427 -0.064248 -0.362719 -0.080689 0.240523 -0.447990 -0.118983 0.409927 0.372823 0.069496 -0.409656 0.027235 -0.003168 -0.265135 0.194179 -0.479929 -0.153130 -0.224848 -0.044598 -0.184120 0.176869 0.079586 -0.159210 0.076312 -0.452895 0.004449 -0.317716 -0.246350 -0.029860 0.020162
患 0.118456 0.111389 -0.005634 -0.264659 0.439146 -0.013317 -0.135929 -0.194781 0.333644 0.033081 0.031261 -0.318121 -0.266837 -0.555479 -0.336132 0.314014 0.146619 -0.319796 -0.071982 -0.080669 0.113551 0.449973 0.420826 -0.415135 -0.350206 -0.220140 -0.347975 -0.374406 0.337727 -0.027702 0.209601 -0.231581 0.100002 -0.022417 0.202108 0.001801 0.394086 0.067423 -0.055286 0.162673 -0.165680 0.031897 -0.263405 -0.190681 0.292565 0.036383 0.152772 -0.014608 0.053134 -0.061659 0.086079 -0.044865 0.071783 0.244119 -0.531476 -0.159832 -0.396730 0.367347 0.117589 0.144133 0.069400 -0.035273 -0.238972 -0.152315 0.051379 0.300533 -0.213706 -0.046261 0.305941 -0.571627 -0.157298 -0.488421 -0.222421 -0.307105 -0.392775 -0.069226 0.309722 0.134007 -0.233507 -0.029171 0.072290 0.171903 -0.426734 0.089693 0.007498 0.090868 0.040418 0.452389 0.033839 0.365931 0.127577 -0.129106 0.074891 0.085642 -0.509029 -0.447489 -0.006503 -0.021984 -0.093027 -0.271403 0.080550 0.058154 0.131106 -0.023672 -0.010417 0.413922 0.651373 0.127836 0.036472 0.176381 0.184193 -0.340387 0.348865 0.072642 -0.017522 -0.169429 -0.124903 -0.014807 0.193503 -0.235802 0.195441 0.159435 -0.310562 0.196845 0.238511 -0.224542 -0.055982 -0.395985
人 -0.033698 -0.034356 -0.159699 -0.066730 -0.009213 0.164549 0.143360 -0.161949 0.206614 -0.135205 0.070312 -0.015002 -0.223304 -0.131656 -0.127590 0.423897 0.149053 -0.141030 -0.164741 -0.175432 0.015876 0.178037 0.302475 -0.181375 -0.115061 -0.206416 0.132059 -0.290191 0.219566 0.135790 0.103576 0.061065 -0.189075 0.063547 0.289671 -0.095355 0.062079 -0.108592 0.254316 0.089456 -0.247340 -0.075543 -0.388058 -0.032319 0.169646 0.290347 0.028013 -0.050121 0.027774 0.274949 0.161645 -0.061224 -0.044310 -0.116535 -0.158212 0.056161 0.041668 0.475838 -0.150697 0.123409 0.020229 0.007915 0.083002 0.276938 -0.174266 0.261560 0.067547 0.121631 0.177680 -0.382897 -0.073051 -0.125422 -0.377198 -0.045951 -0.085787 -0.236141 0.022875 -0.025456 -0.086644 0.352250 0.074136 -0.246929 -0.266785 0.264146 0.122995 -0.037376 0.192629 0.339454 0.201094 0.044511 0.078644 0.228327 0.040990 -0.072631 -0.358802 0.213402 -0.318253 0.199989 0.082532 -0.303660 0.092186 0.003042 -0.087380 -0.311118 0.140213 0.294919 0.465514 0.239970 -0.040257 -0.152606 0.017040 -0.037426 0.487946 -0.052392 -0.003289 -0.108668 0.111135 0.030842 0.277754 -0.063478 -0.157964 -0.046734 -0.176014 0.179494 -0.106074 -0.084497 -0.197987 -0.375503
