1381 128
？ 0.100787 0.031741 -0.178465 0.152283 0.044512 -0.044002 0.025668 0.039299 0.022620 0.035748 0.043198 0.001603 -0.173675 -0.196594 0.066158 0.212056 0.001075 0.024330 -0.003494 0.160065 0.095944 0.098721 0.099207 -0.254974 0.014331 0.002016 -0.104112 -0.066655 -0.106580 -0.019828 -0.122462 -0.074850 -0.081118 -0.070272 0.073700 -0.036303 -0.140749 0.081339 -0.063009 0.035972 -0.103567 0.057783 0.195825 -0.130166 0.152773 0.030000 0.036201 -0.087684 0.053538 0.101237 0.158844 -0.053817 0.014986 -0.003779 -0.069608 -0.096167 -0.018242 -0.020997 -0.167867 0.386831 -0.009914 -0.069297 0.035882 0.064765 0.036133 0.122605 0.186635 -0.002667 0.102427 0.024678 -0.236320 0.005104 -0.082167 0.101631 -0.260763 -0.028428 0.186936 -0.058935 0.071646 -0.140986 -0.025378 0.158691 -0.010470 0.137717 -0.029571 -0.134960 0.156380 -0.226739 0.229037 -0.024639 0.024844 0.217950 0.250896 -0.197473 -0.044777 0.192020 -0.223112 0.045084 -0.038015 0.098514 0.146995 -0.244147 0.065522 -0.099998 -0.055935 -0.027248 -0.208297 -0.181459 -0.010127 -0.120889 -0.131319 -0.178361 -0.030657 -0.242996 -0.028408 -0.023275 0.174973 -0.165540 -0.022022 0.040751 0.219597 -0.048751 0.139776 -0.048784 0.189110 0.079765 -0.176079 0.007892
， 0.035741 -0.095263 -0.081959 0.254497 -0.111944 -0.024224 0.227134 -0.052763 0.081212 -0.103386 0.035364 0.065145 -0.050359 -0.142399 -0.174786 0.124360 0.053349 -0.165002 -0.100231 0.037460 0.166285 0.154963 0.099142 -0.232899 0.066005 0.017007 -0.083272 -0.051896 0.053098 0.132848 0.095186 -0.184867 -0.030600 0.022937 -0.005448 0.043401 -0.118062 -0.034285 -0.027814 -0.119125 -0.106391 -0.085045 -0.117680 -0.032377 0.069362 0.159164 0.127060 -0.053029 -0.008883 0.187960 0.113231 -0.145520 -0.026825 0.045278 -0.090657 -0.032635 0.062912 0.001740 -0.127870 0.291635 0.179155 0.151971 0.230558 0.148505 0.001683 -0.005027 0.076639 -0.044610 0.058962 0.038864 -0.062865 -0.125886 -0.114116 0.083832 -0.102342 -0.103401 0.175672 -0.142689 0.024407 -0.011882 -0.064267 0.171430 -0.000874 0.232155 -0.048822 -0.118556 -0.008542 -0.095649 -0.038067 -0.111431 -0.010403 0.069777 0.066297 -0.052621 0.101716 0.034140 -0.308118 0.053719 -0.059936 -0.065158 0.166398 -0.208331 -0.034660 -0.071153 0.055723 0.079489 0.194423 0.021088 -0.202288 0.091812 0.122164 -0.067344 0.239003 -0.099614 -0.249225 0.010181 0.039925 0.004049 -0.113730 -0.024268 0.011118 0.068519 -0.072164 0.107572 0.010748 -0.027037 -0.063689 -0.008002
的 0.050301 -0.039578 -0.143667 0.154878 -0.023217 0.042870 0.125495 -0.026168 0.028220 0.011466 0.031516 0.014348 -0.078955 -0.166602 -0.032826 0.150350 0.059274 -0.080000 -0.013731 0.144758 0.054491 0.163528 0.121388 -0.188195 0.001234 0.019336 -0.078331 -0.068417 -0.094886 0.090665 -0.016455 -0.080082 -0.042620 -0.047154 -0.015115 -0.036190 -0.115921 0.050130 -0.006137 -0.063781 -0.073585 0.002081 0.108350 -0.093058 0.092538 0.059695 0.044642 -0.076999 0.040836 0.167323 0.095672 -0.055422 -0.002707 -0.045862 -0.047047 -0.029537 -0.037886 -0.015296 -0.155395 0.302209 0.056466 0.010328 0.063970 0.090120 0.026283 0.017932 0.173639 -0.037102 0.056262 0.002638 -0.133475 -0.063074 -0.115462 0.108798 -0.156912 -0.012310 0.172703 -0.096512 0.033747 -0.075055 -0.065303 0.123404 -0.038447 0.147110 -0.051129 -0.060867 0.146527 -0.155631 0.114034 -0.068441 -0.034635 0.146661 0.211843 -0.141943 0.048040 0.144533 -0.211970 0.026233 -0.039263 0.024877 0.162414 -0.195254 -0.006162 -0.049824 0.013346 0.025744 -0.074954 -0.044798 -0.035902 -0.054438 -0.005551 -0.119989 0.074806 -0.152262 -0.071303 0.007898 0.100373 -0.061638 -0.032075 -0.010978 0.113197 0.005860 0.006066 -0.017536 0.093390 0.062680 -0.098818 -0.007644
吗 0.079544 0.038112 -0.173460 0.083863 -0.052389 -0.101710 0.078517 -0.006866 0.110226 -0.057547 0.018967 0.064244 -0.161042 -0.065310 -0.000365 0.174280 -0.060710 -0.005835 -0.036078 0.088915 0.162159 0.113458 0.074249 -0.254157 0.075911 -0.058161 -0.090662 -0.017445 0.020165 0.027958 -0.044579 -0.058315 -0.114645 -0.100163 0.116201 0.022959 -0.111855 0.095209 -0.053877 0.009247 -0.073304 -0.045425 0.027044 -0.063565 0.102207 0.065609 0.044431 -0.019105 0.016912 0.107529 0.228358 -0.073109 -0.013829 0.064283 -0.115866 -0.052948 0.012164 -0.000781 -0.158688 0.305595 0.013509 -0.034610 0.106073 0.108986 -0.021059 0.139758 0.094261 0.037085 0.111784 0.048936 -0.147569 0.004367 -0.057872 0.071270 -0.241456 -0.050056 0.185207 -0.129458 0.022625 -0.144059 -0.046316 0.156027 0.056487 0.179663 -0.050351 -0.145989 0.092896 -0.198799 0.113335 -0.060687 0.067371 0.106159 0.172999 -0.118406 0.061603 0.114916 -0.207087 0.037998 -0.072016 0.031709 0.165737 -0.216333 0.073389 -0.100305 0.000251 0.010134 -0.050459 -0.096334 -0.068462 -0.023139 -0.022895 -0.079973 0.058800 -0.135390 -0.115874 -0.079894 0.083837 -0.129186 -0.037263 -0.030760 0.121622 -0.002996 0.124130 -0.017523 0.158179 -0.026789 -0.117252 0.040589
是 0.120885 -0.090751 -0.106387 0.200098 0.039603 0.114894 0.125309 -0.023785 -0.049906 0.022417 0.021006 0.000314 -0.118847 -0.191460 -0.052682 0.197578 0.055498 -0.059279 -0.013135 0.178469 0.049493 0.095014 0.084596 -0.134258 -0.004025 0.032698 -0.178668 -0.076869 -0.155962 0.100305 -0.038877 -0.095167 0.029985 -0.108185 -0.025607 -0.048579 -0.085417 0.001936 0.000840 -0.038802 -0.091311 0.045388 0.111043 -0.112813 0.117722 0.126982 0.050537 -0.151847 0.043890 0.161127 0.009733 -0.104547 -0.004706 -0.062676 -0.046791 0.007189 -0.030899 0.009984 -0.133348 0.303621 0.060556 0.031056 0.041574 0.058297 -0.030385 -0.012367 0.190169 -0.065218 0.046166 0.038260 -0.187332 -0.083313 -0.175100 0.104855 -0.175614 0.017080 0.144333 -0.066840 0.124882 -0.074607 -0.027803 0.152424 -0.037642 0.117167 -0.023660 -0.095352 0.116946 -0.118636 0.146611 -0.031463 -0.025824 0.167815 0.178371 -0.198560 -0.020171 0.172413 -0.237619 0.090494 -0.035191 0.030014 0.118739 -0.138780 -0.026634 -0.053021 -0.033254 0.012598 -0.114557 -0.037462 -0.058075 -0.047124 -0.006603 -0.150578 0.032189 -0.179224 -0.050237 0.078812 0.127051 -0.029765 -0.066315 0.050303 0.110236 -0.005986 0.033834 0.021003 0.121662 0.119929 -0.100321 -0.039677
什么 0.134693 0.077307 -0.136710 0.176898 0.047673 -0.054593 -0.006360 -0.014901 -0.018406 0.037190 0.049729 0.069467 -0.141244 -0.184866 0.040116 0.195655 0.055035 0.075902 -0.031470 0.180317 0.099129 0.067547 0.131289 -0.221833 0.109908 0.025577 -0.153003 -0.081533 -0.093260 -0.017188 -0.104304 -0.092003 -0.053650 -0.200385 0.091511 -0.028684 -0.082295 0.075022 -0.050518 0.004331 -0.076598 0.034593 0.176053 -0.120549 0.149606 0.044323 0.025847 -0.103262 0.052540 0.042503 0.192649 -0.122177 -0.015012 0.031173 -0.097491 0.014910 -0.096524 -0.006141 -0.173029 0.346892 -0.049773 0.000148 0.100374 0.060870 0.006929 0.120249 0.130242 -0.008372 0.125886 0.109617 -0.169705 -0.039924 -0.090851 0.105881 -0.246206 -0.036245 0.210058 -0.068875 0.102332 -0.157092 -0.048256 0.139429 -0.007723 0.152377 -0.048128 -0.166514 0.107098 -0.163796 0.163313 -0.011195 0.037741 0.133230 0.220618 -0.229743 -0.097632 0.163917 -0.288908 0.119469 -0.056730 0.042633 0.086111 -0.168854 0.018746 -0.040430 -0.039571 0.006316 -0.184404 -0.132081 -0.064604 -0.101442 -0.047251 -0.178021 -0.110444 -0.126101 -0.024521 0.021479 0.136530 -0.158934 -0.006348 0.037382 0.204405 -0.052400 0.107771 -0.020237 0.195752 0.134549 -0.146731 -0.012014
有 0.078984 -0.019158 -0.104894 0.212805 0.056072 0.012018 0.086568 0.017305 -0.052875 0.055569 0.020747 0.073827 -0.136810 -0.214456 0.079971 0.203537 0.049957 -0.030057 0.035438 0.205653 0.078204 0.097351 0.116141 -0.209523 -0.000656 0.056303 -0.112507 -0.067186 -0.131145 0.047102 -0.116999 -0.126258 -0.039922 -0.093656 0.008693 -0.028833 -0.088721 0.038997 -0.023169 0.032631 -0.135753 0.065677 0.157152 -0.138746 0.151258 0.115204 0.060855 -0.139858 0.063027 0.087612 0.070898 -0.068851 -0.023487 -0.043687 -0.063991 0.002860 -0.075151 -0.030202 -0.143806 0.398718 0.056560 -0.002801 0.052171 -0.001531 -0.044284 0.073045 0.194740 -0.060256 0.110229 0.076284 -0.204779 -0.039296 -0.088559 0.049160 -0.186991 0.016142 0.108641 -0.029567 0.119844 -0.108435 -0.084303 0.152250 -0.020656 0.122505 -0.028546 -0.119582 0.097983 -0.205261 0.177644 0.034059 0.047751 0.190015 0.217208 -0.204376 -0.026709 0.084214 -0.291744 0.063168 -0.007898 0.078473 0.136215 -0.191722 0.055762 -0.091530 -0.077177 -0.029616 -0.139182 -0.128445 0.023231 -0.109838 -0.107589 -0.185377 -0.056228 -0.197291 -0.045049 0.039296 0.180265 -0.138125 -0.073187 0.064855 0.224341 -0.034364 0.057646 -0.003568 0.115472 0.135418 -0.146183 -0.029764
治疗 0.108787 -0.046332 -0.209315 0.129024 0.034768 0.050097 0.080721 -0.027515 0.018817 0.013208 0.044019 0.029419 -0.057930 -0.149208 -0.013887 0.105787 0.053986 -0.006282 0.000557 0.147283 0.021724 0.132641 0.092714 -0.203474 -0.002895 0.002600 -0.116131 -0.093795 -0.118110 0.044202 -0.051718 -0.054298 -0.045079 -0.096136 0.013581 -0.029627 -0.151337 0.063008 -0.015959 -0.009470 0.011635 0.050495 0.139528 -0.143624 0.110019 -0.008505 0.025069 -0.005457 0.071649 0.156295 0.177303 -0.048130 -0.039129 0.028121 -0.045040 -0.047121 -0.095722 -0.035750 -0.146133 0.215152 0.008135 -0.028274 0.037944 0.107773 0.048293 0.027856 0.195853 -0.040831 0.085715 0.048030 -0.160698 -0.096928 -0.097611 0.145462 -0.238878 -0.006799 0.187648 -0.058552 0.093694 -0.142954 -0.063519 0.127824 -0.032727 0.083066 -0.013033 -0.063660 0.145899 -0.161011 0.099628 -0.038988 -0.098905 0.147752 0.300227 -0.166999 0.051797 0.152149 -0.149778 -0.021740 -0.003307 0.030910 0.146091 -0.161004 -0.006317 -0.034000 0.047347 -0.030212 -0.174031 -0.103461 -0.075306 -0.106341 -0.099953 -0.123807 -0.020753 -0.118303 -0.006451 0.013054 0.068192 -0.093202 -0.019968 0.003494 0.123645 -0.037761 0.084156 -0.041386 0.151341 0.068615 -0.142641 0.023989
了 -0.099336 -0.029492 -0.007719 0.194896 -0.166308 -0.093268 0.272283 -0.052569 0.139703 -0.101579 0.064127 0.077633 0.030269 -0.033122 -0.198277 0.119285 0.067069 -0.246572 -0.040193 -0.057667 0.159722 0.202114 0.162284 -0.296756 0.150423 0.005873 0.027492 -0.024758 0.175019 0.149117 0.112083 -0.200963 -0.112714 0.145996 -0.006566 0.094124 -0.054762 -0.043144 -0.037359 -0.128239 -0.184216 -0.173244 -0.109138 -0.003876 0.003606 0.139462 0.075167 0.036270 -0.063055 0.154378 0.169706 -0.129492 -0.022052 0.047895 -0.125027 -0.019270 0.082318 -0.020269 -0.139187 0.349544 0.207047 0.164307 0.237727 0.042801 0.035747 -0.023498 0.031083 -0.009552 0.049453 0.002343 0.050047 -0.082276 -0.104143 0.054644 0.005538 -0.168926 0.174400 -0.157587 -0.120970 0.022863 -0.084124 0.101983 -0.029982 0.314189 -0.038113 -0.083596 -0.095499 -0.157549 -0.070876 -0.140856 0.081033 0.052568 0.005651 0.030636 0.086202 -0.004663 -0.294322 0.071026 -0.081376 -0.122775 0.178001 -0.262711 0.002022 -0.109534 0.042674 0.093887 0.297688 -0.007000 -0.176383 0.174342 0.170825 -0.042791 0.348504 -0.101784 -0.290134 -0.048092 0.043577 0.027334 -0.067058 -0.056396 -0.002205 0.028504 -0.142811 0.102692 -0.010526 -0.073080 -0.011264 0.012127
手术 -0.053471 0.015206 -0.063619 0.212732 -0.088409 -0.068088 0.214404 -0.000790 0.124770 -0.092110 -0.041456 0.072524 -0.039221 -0.120319 -0.149156 0.183483 0.087707 -0.176208 -0.092123 -0.028931 0.177715 0.161070 0.000785 -0.223985 0.121574 0.021157 -0.083431 -0.063809 0.034676 0.110498 0.010784 -0.197227 -0.092858 -0.035895 0.107247 0.021673 -0.174354 0.042365 0.004312 -0.114081 -0.145494 -0.147530 -0.086525 -0.067670 0.100153 0.092851 0.130628 -0.028434 -0.038850 0.117547 0.159757 -0.112114 -0.017126 0.016985 -0.145125 0.033288 -0.000404 0.067166 -0.183820 0.278923 0.104190 0.026102 0.185005 0.090010 0.025606 -0.007178 0.020486 -0.032418 0.014369 -0.025157 -0.169314 -0.047511 -0.138497 0.056529 -0.154984 -0.066992 0.279136 -0.111995 -0.100477 -0.047089 -0.060339 0.166846 -0.018090 0.212884 -0.049227 -0.074600 -0.011876 -0.116894 -0.018684 -0.166956 0.019605 0.087470 0.092695 -0.103816 -0.002443 0.072652 -0.305176 0.169010 -0.141677 -0.103454 0.168731 -0.234637 -0.005799 -0.030326 0.007511 0.064507 0.050953 -0.033011 -0.184426 0.103811 0.063944 -0.037720 0.144743 -0.085050 -0.199676 -0.027969 0.018939 -0.063478 -0.085784 -0.095075 0.007514 0.000387 -0.088839 -0.023253 0.111448 -0.078310 -0.052292 0.001438
好 0.117300 0.055211 -0.184543 0.195692 -0.004774 -0.079689 -0.015888 -0.008149 0.068130 0.004191 0.056226 0.001893 -0.140311 -0.181097 0.003426 0.246493 0.043914 0.002179 -0.060576 0.094481 0.101945 0.067274 0.097173 -0.205813 0.031848 0.016252 -0.120869 -0.080288 -0.098175 0.001235 -0.070627 -0.113963 -0.087232 -0.068948 0.121300 -0.004693 -0.145815 0.075677 -0.066460 -0.030306 -0.016731 0.046130 0.039021 -0.101827 0.157016 0.057226 0.056845 -0.031834 0.055923 0.065710 0.143221 -0.116543 0.028319 0.004429 -0.077867 -0.063873 -0.109505 -0.030809 -0.152072 0.288914 -0.052257 -0.053271 0.027832 0.062979 0.019611 0.098929 0.154497 -0.006854 0.045744 0.122643 -0.192876 -0.071092 -0.151426 0.141889 -0.227748 -0.060481 0.203157 -0.122212 0.085757 -0.166240 0.044151 0.118702 0.012609 0.125630 -0.027945 -0.128609 0.122169 -0.178524 0.163080 -0.056619 0.007025 0.141748 0.236516 -0.181496 -0.069990 0.191616 -0.180974 0.065692 -0.058310 0.010129 0.090110 -0.142304 0.022010 -0.075027 -0.063453 0.002145 -0.120677 -0.134656 -0.088591 -0.031475 -0.096416 -0.126496 -0.023000 -0.180769 -0.006508 0.002125 0.118635 -0.186748 -0.011170 0.009727 0.149526 -0.029703 0.095815 -0.001771 0.162192 0.079019 -0.164716 -0.007515
会 0.048536 -0.010091 -0.076822 0.138692 -0.051941 -0.012732 0.109852 -0.013156 0.019728 -0.033392 -0.003840 -0.034702 -0.097426 -0.067748 -0.092657 0.173839 0.012964 -0.091379 -0.026266 0.069225 0.093676 0.106099 0.081819 -0.206810 0.108600 -0.003924 -0.075850 -0.071745 -0.020710 0.077801 -0.029504 -0.087490 -0.066076 -0.029083 0.007916 0.025107 -0.062931 -0.010937 -0.091634 -0.045622 -0.145700 0.001111 0.063716 -0.036137 0.076451 0.111400 0.006140 -0.038750 -0.010483 0.121076 0.096868 -0.120334 0.011254 0.016412 -0.082669 -0.038627 0.079226 -0.014030 -0.124470 0.304090 0.080058 0.052850 0.134838 0.074643 0.039515 0.028123 0.120046 -0.003597 0.128727 -0.000241 -0.088781 -0.007579 -0.112417 0.067173 -0.149296 -0.068510 0.158283 -0.084371 0.011749 -0.034205 -0.002334 0.115520 -0.017452 0.219034 -0.044923 -0.075298 0.006407 -0.108688 0.103241 -0.102857 0.053079 0.135738 0.097616 -0.108752 0.024148 0.151847 -0.187211 0.066264 -0.076278 -0.015229 0.154044 -0.200853 0.021862 -0.059904 -0.010062 0.023010 0.004723 -0.035904 -0.075950 0.048514 0.042134 -0.083022 0.108286 -0.183591 -0.138175 -0.054403 0.101603 -0.032334 0.007700 -0.032606 0.043016 -0.019412 -0.000902 0.021374 0.130943 0.029165 -0.088420 0.007055
后 0.043030 -0.058802 -0.067829 0.215641 -0.039685 -0.003482 0.192762 -0.031156 0.056994 -0.084261 0.019091 0.099631 -0.061665 -0.082161 -0.188547 0.210110 0.045487 -0.137292 -0.109656 0.002837 0.097606 0.097308 -0.008580 -0.168336 0.153004 -0.059244 -0.181866 -0.021900 0.048139 0.109386 0.071183 -0.119793 -0.038816 -0.092020 0.015029 0.034654 -0.112437 -0.024101 -0.031599 -0.098088 -0.110453 -0.077620 -0.104472 0.021852 0.081631 0.071231 0.092493 -0.054260 -0.027315 0.115509 0.138587 -0.132264 -0.036057 0.050356 -0.101186 0.009005 0.069957 0.061911 -0.205754 0.251241 0.039314 0.093449 0.137269 0.088872 -0.009822 0.019084 0.041068 0.009059 0.067620 0.061917 -0.073715 -0.057831 -0.210388 0.126460 -0.123986 -0.083819 0.221017 -0.143322 -0.012829 -0.063635 0.010367 0.111092 0.006336 0.228552 -0.033136 -0.124685 -0.045356 -0.036349 -0.007752 -0.118777 0.040437 0.081914 0.091047 -0.063341 -0.041623 0.120304 -0.281399 0.096786 -0.093895 -0.093305 0.103444 -0.201607 -0.026379 -0.101979 0.019922 0.038426 0.072661 -0.020889 -0.205771 0.127454 0.126597 -0.023222 0.190181 -0.105981 -0.175261 0.005381 0.056477 -0.008869 -0.070306 -0.020637 -0.004789 0.012047 -0.011333 0.023897 0.126091 -0.071000 -0.076273 0.019017
能 0.106882 0.000712 -0.213036 0.121491 -0.071871 -0.082455 0.064524 0.017610 0.165955 -0.013543 -0.002560 0.029066 -0.066647 -0.160683 -0.050824 0.214053 -0.027554 -0.113972 -0.037524 0.036127 0.175361 0.126510 0.017366 -0.245356 0.044127 -0.113066 -0.098640 -0.002308 0.102322 0.078935 -0.026256 -0.099046 -0.030925 -0.069709 0.088060 0.083953 -0.144121 0.021058 -0.046779 -0.064771 -0.090284 -0.065867 -0.046475 -0.000003 0.141399 0.134811 0.025869 -0.075851 -0.016242 0.140949 0.200799 -0.103394 0.050248 0.057743 -0.146078 -0.041886 -0.046828 0.071714 -0.195753 0.354757 -0.019735 -0.152830 0.019515 0.073828 -0.072405 0.081654 0.111989 0.057569 0.108283 0.034170 -0.097647 -0.057923 -0.128804 0.038796 -0.253993 -0.035965 0.183766 -0.232207 -0.028804 -0.096291 0.014348 0.185066 -0.032180 0.240482 -0.050946 -0.143879 0.038054 -0.146625 0.051527 -0.005719 0.108744 0.096572 0.183255 -0.091584 -0.073954 0.107803 -0.188405 0.144882 -0.039816 -0.009391 0.146519 -0.248691 0.046910 -0.140003 -0.064901 0.039434 -0.018677 -0.099549 -0.114377 0.126185 0.007006 -0.088110 0.202195 -0.213749 -0.097710 -0.133614 0.153183 -0.161963 -0.043059 -0.040283 0.080352 0.030992 0.074324 0.001228 0.177671 -0.130366 -0.168851 0.053329
? 0.194599 -0.017634 -0.196673 0.108914 -0.015690 -0.014516 0.048423 -0.005132 0.032845 -0.076154 -0.015095 -0.016959 -0.187872 -0.147665 0.009766 0.157500 0.014687 0.030364 -0.087140 0.137050 0.098024 0.039476 0.039746 -0.190977 0.023199 -0.040174 -0.126444 -0.057774 -0.105151 0.019139 -0.072269 -0.047302 -0.024263 -0.135810 0.100111 0.009680 -0.179520 0.104435 0.003215 -0.018760 -0.010231 -0.002623 0.068986 -0.098375 0.145190 0.031715 0.073855 -0.060318 0.012189 0.180115 0.110146 -0.102343 -0.015126 0.035828 -0.070513 -0.091246 -0.001353 -0.039219 -0.113702 0.238840 0.043423 -0.032060 0.102398 0.162007 0.011673 0.106288 0.160042 -0.040666 0.077676 0.012050 -0.245417 -0.021568 -0.067932 0.131355 -0.283737 -0.001755 0.246984 -0.079932 0.081746 -0.137441 -0.027433 0.164516 0.063393 0.123298 -0.082727 -0.128718 0.174103 -0.151910 0.158165 -0.098811 -0.029964 0.140202 0.230587 -0.188611 0.089557 0.212195 -0.201263 0.003367 -0.092967 0.039805 0.117801 -0.163577 0.039124 -0.023107 0.007981 -0.017296 -0.177575 -0.023354 -0.068342 -0.102482 -0.080657 -0.144356 -0.022295 -0.128719 -0.042035 0.009065 0.028216 -0.125743 -0.036193 -0.024669 0.099373 -0.003484 0.139816 -0.048152 0.168145 0.062736 -0.144399 -0.021143
乳腺癌 0.102876 -0.042496 -0.111687 0.143627 0.020491 0.076093 0.093366 -0.016786 0.031534 0.021155 -0.003226 -0.001881 -0.100386 -0.139576 -0.027027 0.192788 0.068668 -0.124995 -0.002962 0.099322 0.116640 0.071333 0.060225 -0.175060 -0.004373 -0.023878 -0.104915 -0.049214 -0.048914 0.098792 0.003064 -0.113380 -0.017946 -0.088980 0.041728 0.016194 -0.076779 0.022070 -0.018404 -0.056800 -0.094474 -0.003685 0.010088 -0.046349 0.095703 0.134826 0.045190 -0.086330 -0.003169 0.129779 0.031909 -0.108559 0.017986 -0.014751 -0.082313 -0.000748 -0.013448 0.038834 -0.104865 0.250509 0.064813 -0.013414 0.076163 0.046714 -0.070410 0.021324 0.140693 -0.028408 0.040209 0.032147 -0.097001 -0.063761 -0.125834 0.029268 -0.147363 -0.026845 0.128875 -0.085247 0.037488 -0.036307 -0.001291 0.155399 -0.016589 0.162285 -0.037862 -0.074875 0.050576 -0.096253 0.054248 -0.040150 0.045377 0.092635 0.102923 -0.132724 -0.027876 0.123653 -0.185383 0.043379 -0.067134 0.006137 0.084434 -0.135704 0.012945 -0.046124 -0.045053 -0.006557 -0.003992 -0.024406 -0.067454 0.043400 -0.023533 -0.070390 0.078869 -0.191035 -0.074001 -0.023058 0.076076 -0.066010 -0.055285 -0.032792 0.061974 0.000417 -0.003996 0.037519 0.100496 0.047308 -0.111692 -0.015896
我 -0.062984 -0.094467 -0.021418 0.208417 -0.106405 -0.053828 0.298327 -0.026964 0.090083 -0.097093 0.086330 0.117086 0.033536 -0.069186 -0.200639 0.063298 0.043676 -0.197225 -0.013220 0.010494 0.159711 0.222225 0.185551 -0.269160 0.122839 0.031832 -0.003532 -0.053456 0.137081 0.131984 0.097541 -0.173127 -0.048832 0.116629 -0.053017 0.037502 -0.037639 -0.064573 -0.008211 -0.093814 -0.172954 -0.131254 -0.060281 -0.060726 -0.003149 0.156428 0.085050 -0.016971 -0.018539 0.145131 0.133253 -0.094930 -0.045959 0.046768 -0.115006 -0.002173 0.030444 0.016501 -0.129019 0.344304 0.235174 0.194690 0.229858 0.068428 0.023296 -0.028794 0.044546 -0.029675 0.059050 -0.004608 0.002451 -0.106122 -0.095854 0.037931 -0.019063 -0.108732 0.129193 -0.129862 -0.049719 0.010622 -0.153865 0.163408 -0.079921 0.254063 -0.015898 -0.107800 -0.067159 -0.140569 -0.038946 -0.066445 0.023277 0.060068 0.032918 0.038327 0.119951 -0.055391 -0.319351 0.093311 -0.045546 -0.075774 0.231022 -0.244238 -0.049043 -0.097073 0.062263 0.091835 0.255282 -0.030646 -0.152812 0.121340 0.168195 -0.092276 0.336491 -0.058696 -0.281928 0.005210 0.072922 0.037873 -0.126861 -0.006004 0.032225 0.045498 -0.122379 0.116757 -0.040639 -0.025556 0.002441 0.031890
肿瘤 0.032974 -0.022604 -0.099288 0.130589 -0.073687 0.013275 0.182460 -0.040612 0.113595 -0.004896 0.009592 0.025399 -0.088900 -0.082854 -0.100819 0.101756 0.094998 -0.109183 -0.033460 0.063774 0.069907 0.204435 0.127987 -0.190864 0.059762 0.023728 -0.041748 -0.036739 -0.032744 0.095887 0.021720 -0.122700 -0.010418 -0.048289 0.015403 -0.004030 -0.120284 0.012766 0.023668 -0.070989 -0.105229 -0.090893 0.047581 -0.096825 0.029195 0.089430 0.053713 -0.074804 0.039370 0.181958 0.142614 -0.098425 0.001191 0.001595 -0.119937 0.007136 -0.025461 -0.008440 -0.135664 0.273557 0.116367 0.040143 0.150061 0.103554 -0.003670 -0.013672 0.112342 -0.032212 0.014624 -0.046580 -0.126341 -0.062451 -0.123958 0.077358 -0.126108 -0.044181 0.193249 -0.120222 -0.047073 -0.074630 -0.109434 0.176585 -0.012288 0.195427 -0.032487 -0.070934 0.106964 -0.143207 0.067216 -0.108228 -0.028170 0.103766 0.156918 -0.134104 0.064523 0.112632 -0.254586 0.087807 -0.070873 -0.044791 0.172399 -0.167611 -0.017259 0.019679 0.068063 0.064664 0.032052 0.001201 -0.099983 0.020497 0.072984 -0.122835 0.159512 -0.059958 -0.137134 0.038699 0.049933 -0.016452 -0.026477 -0.013305 0.069330 -0.014203 -0.032136 0.006887 0.055062 0.032170 -0.040506 -0.028043
怎么 0.112858 -0.004618 -0.124834 0.154312 0.035452 0.008236 0.039651 -0.019098 -0.066879 -0.062621 0.028960 0.050169 -0.168903 -0.165995 0.031003 0.196111 0.056356 0.046275 -0.060561 0.196013 0.114655 0.038927 0.089937 -0.180486 -0.011599 0.031858 -0.121934 -0.086402 -0.125943 0.057890 -0.089616 -0.103153 -0.051774 -0.120623 0.062459 -0.010031 -0.133584 0.087834 -0.006764 0.017827 -0.009406 0.050208 0.062350 -0.147020 0.133404 0.085789 0.081980 -0.042751 0.037843 0.136258 0.076108 -0.069536 -0.051539 0.005505 -0.038606 -0.035155 -0.049028 -0.089588 -0.099656 0.273815 0.035028 0.056271 0.118007 0.091304 -0.028511 0.107390 0.182549 -0.046962 0.089229 0.118539 -0.148894 -0.047233 -0.092207 0.087999 -0.223736 -0.029260 0.138851 -0.048867 0.195299 -0.160032 -0.076545 0.143338 0.045707 0.110401 -0.026021 -0.121654 0.109576 -0.189425 0.139321 -0.021199 0.002197 0.139984 0.212034 -0.203726 -0.002634 0.095646 -0.257907 -0.039884 -0.021011 0.077384 0.111547 -0.115242 0.039968 -0.039469 -0.033244 -0.075732 -0.131113 -0.057222 -0.038884 -0.123802 -0.126752 -0.166928 -0.108183 -0.134575 -0.058842 0.053041 0.045314 -0.110457 -0.104660 0.036761 0.182208 -0.022652 0.119101 0.030129 0.106375 0.132602 -0.147082 -0.034251
得 -0.043283 -0.057789 -0.036257 0.038276 -0.054633 -0.040077 0.222246 0.009078 0.035137 -0.105450 -0.014892 0.040973 -0.019971 -0.012279 -0.164520 0.067177 -0.016689 -0.133108 0.007089 0.034082 0.136030 0.169819 0.097181 -0.212727 0.099788 0.005921 -0.014784 -0.058365 0.097441 0.100478 -0.010454 -0.047003 -0.079734 0.067045 -0.005522 0.012754 -0.028426 -0.062971 -0.052736 -0.045564 -0.170950 -0.117477 0.047994 -0.057155 0.004242 0.124289 0.015340 -0.024026 -0.071666 0.126847 0.092035 -0.007639 -0.017634 0.050039 -0.063603 -0.016685 0.060290 0.029372 -0.117663 0.283898 0.164142 0.072562 0.148344 0.041129 0.052775 0.029872 0.069649 0.010614 0.109013 -0.103937 -0.034528 0.006135 -0.046233 -0.002241 -0.096100 -0.034471 0.114767 -0.042462 -0.026616 0.015970 -0.130852 0.168236 -0.089824 0.178887 0.010672 -0.056595 -0.043062 -0.132418 0.032351 -0.079480 0.046806 0.093999 0.028973 0.016541 0.094946 0.014137 -0.173707 0.062038 -0.039162 -0.017305 0.254969 -0.230975 0.019789 -0.062055 0.029304 0.024453 0.102937 -0.075782 -0.086035 0.078966 0.072903 -0.050733 0.212143 -0.081361 -0.178363 -0.047977 0.041416 -0.002165 -0.056795 -0.032485 0.026376 0.026895 -0.034771 0.052410 0.022471 -0.052234 -0.026557 0.065742
吃 0.025862 0.159537 -0.054597 0.303221 -0.064387 -0.161211 0.050412 -0.039054 0.074072 0.014548 0.015717 0.079652 -0.121531 -0.135986 -0.021627 0.229128 0.029835 -0.003876 -0.092028 0.046917 0.066023 0.117664 0.075051 -0.189480 0.156083 0.079137 -0.131868 -0.001584 -0.097049 -0.039014 -0.042477 -0.166044 -0.085245 -0.088205 0.136113 -0.055187 -0.104326 -0.012152 -0.105372 0.005473 -0.127406 -0.013810 0.021064 -0.058737 0.157220 0.031854 0.078659 -0.110627 0.041522 -0.058440 0.234775 -0.168041 0.009479 -0.001729 -0.124251 0.001866 -0.045738 0.048837 -0.196031 0.316076 -0.075527 0.028896 0.042466 0.012105 0.007480 0.101256 0.022442 -0.010829 0.080718 0.125925 -0.256111 -0.046212 -0.138247 0.098810 -0.173675 -0.089190 0.192174 -0.105550 0.000216 -0.112678 0.014956 0.077316 0.037466 0.156845 0.013303 -0.169034 -0.011351 -0.108328 0.117227 -0.057968 0.013708 0.160853 0.163971 -0.173284 -0.151640 0.155830 -0.291367 0.206280 -0.095660 -0.059854 0.052690 -0.165118 0.020642 -0.090797 -0.057307 0.063332 -0.060592 -0.149149 -0.179154 0.016033 0.042508 -0.131731 -0.041732 -0.097809 -0.070372 0.035747 0.196194 -0.165588 0.013472 -0.009276 0.155601 -0.036868 0.049695 -0.016243 0.172328 0.073248 -0.144652 0.004164
岁 -0.043619 -0.106804 -0.028359 0.151715 -0.072713 0.063526 0.344524 -0.013980 0.106061 -0.024797 0.038056 0.049022 -0.023332 -0.097179 -0.115423 0.081092 0.074352 -0.294867 0.057036 0.083945 0.162330 0.247711 0.213109 -0.302410 0.036193 0.038838 0.023733 -0.010063 0.084257 0.207703 0.107372 -0.190493 -0.020409 0.087218 -0.049596 0.021127 -0.003086 -0.091977 -0.000044 -0.101819 -0.231060 -0.130546 -0.011581 -0.057081 -0.015777 0.237541 0.029483 -0.121645 -0.047043 0.192600 0.091318 -0.065098 -0.032134 -0.002341 -0.064566 -0.007993 0.042359 0.060342 -0.108417 0.382972 0.277240 0.170866 0.163498 -0.026777 -0.087345 -0.051917 0.124812 -0.011427 0.048229 -0.083856 0.004412 -0.077033 -0.102421 -0.068298 -0.016284 -0.105417 0.039567 -0.082889 -0.038304 0.068323 -0.134064 0.243179 -0.099730 0.280960 0.028826 -0.010487 -0.025622 -0.180640 -0.008881 -0.036063 0.040135 0.082332 -0.021027 -0.030388 0.054028 0.006209 -0.269222 0.044373 -0.028220 0.014861 0.223157 -0.215437 0.005502 -0.128616 0.010883 0.053555 0.305399 -0.018720 -0.105411 0.131407 0.115193 -0.055642 0.353997 -0.183160 -0.229288 -0.112758 0.091218 0.017934 -0.122671 -0.063148 0.050167 0.091004 -0.139451 0.113567 -0.065313 0.005455 -0.047362 0.030178
可以 0.094131 -0.018179 -0.171326 0.194529 -0.039096 -0.053549 0.065530 -0.023378 0.097327 -0.054971 0.019852 0.045365 -0.090035 -0.146013 -0.100794 0.196252 0.016762 -0.047394 -0.080798 0.062593 0.116741 0.102909 0.037028 -0.185262 0.035816 -0.031514 -0.117074 -0.055696 -0.039979 0.057161 -0.053774 -0.095009 -0.061187 -0.051350 0.041275 0.014966 -0.184637 0.038062 -0.059408 -0.058513 -0.047330 -0.012902 -0.009935 -0.047303 0.128536 0.053623 0.081196 -0.009731 0.036052 0.117681 0.145777 -0.110875 0.014012 0.011407 -0.091850 -0.063651 -0.043089 0.001166 -0.161159 0.242204 0.027792 -0.021052 0.075653 0.146918 0.040322 0.063356 0.135907 -0.025170 0.075597 0.068113 -0.169642 -0.077202 -0.126243 0.124308 -0.200312 -0.059666 0.231490 -0.150925 0.028349 -0.113852 0.001664 0.120156 0.000132 0.166723 -0.065406 -0.128511 0.069625 -0.101992 0.066396 -0.088440 -0.016076 0.145191 0.217605 -0.122626 0.015043 0.132180 -0.235157 0.067263 -0.060551 -0.028512 0.129191 -0.217434 -0.008452 -0.070150 0.011879 0.021416 -0.072512 -0.062023 -0.155712 0.024960 -0.014305 -0.108882 0.101721 -0.150881 -0.099808 -0.003548 0.054345 -0.123947 -0.029717 -0.035069 0.080277 -0.017416 0.042877 -0.009259 0.140430 -0.017193 -0.114695 0.025472
术后 0.062103 -0.121388 -0.087363 0.184047 0.040595 0.107241 0.206913 -0.058421 -0.054486 -0.070915 -0.037309 0.155724 -0.074404 -0.169227 -0.090356 0.155522 0.078877 -0.095669 -0.047902 0.139377 0.083045 0.103527 -0.016572 -0.160544 0.031761 -0.009439 -0.180232 -0.050919 -0.099104 0.166003 0.017583 -0.103433 -0.011606 -0.141505 -0.026605 -0.020402 -0.118082 -0.013171 0.027493 -0.060657 -0.078495 -0.038774 0.015766 -0.067191 0.102839 0.103636 0.074684 -0.127060 -0.022875 0.131403 0.062184 -0.099356 -0.086525 0.013364 -0.055405 0.040388 -0.013113 0.057370 -0.164130 0.221910 0.094217 0.083883 0.088197 0.046414 -0.042832 -0.018521 0.107984 -0.071427 0.038640 0.024461 -0.113870 -0.072940 -0.124460 0.030314 -0.158152 0.003003 0.200461 -0.064169 0.098014 -0.066431 -0.078945 0.150892 -0.019485 0.128454 -0.019554 -0.074335 0.032738 -0.110153 0.017029 -0.078184 -0.055374 0.122362 0.150802 -0.132148 0.003134 0.091299 -0.288737 0.039741 -0.085077 0.019396 0.136620 -0.162070 -0.004615 -0.058010 0.014179 -0.029573 -0.052091 0.012079 -0.121463 0.003405 0.029891 -0.066247 0.068313 -0.108212 -0.116872 0.037041 0.006640 -0.020433 -0.137362 -0.060672 0.035311 0.024289 0.008365 0.007483 0.113466 0.036147 -0.081543 -0.006362
。 0.026161 -0.107719 -0.100104 0.254897 -0.084828 0.007587 0.250500 -0.053908 0.101554 -0.076555 0.063278 0.095983 -0.026386 -0.129574 -0.172367 0.120822 0.051311 -0.172273 -0.060941 0.072227 0.133415 0.196615 0.142872 -0.233720 0.080945 -0.004768 -0.091766 -0.046352 0.036271 0.151978 0.095927 -0.167059 -0.022173 0.000789 -0.046522 0.014936 -0.110866 -0.025847 -0.008712 -0.110799 -0.128634 -0.096801 -0.064332 -0.041388 0.055769 0.130581 0.106277 -0.061149 0.008272 0.192126 0.152110 -0.154003 -0.044936 0.032980 -0.105303 -0.002850 0.027771 0.014507 -0.166614 0.305321 0.169964 0.150953 0.196810 0.129188 -0.012634 -0.024949 0.112077 -0.043764 0.051909 0.043113 -0.067056 -0.133645 -0.131064 0.103264 -0.096364 -0.094261 0.203900 -0.170612 -0.003275 -0.033348 -0.086676 0.160657 -0.037492 0.257404 -0.044719 -0.117713 0.001275 -0.119596 -0.025221 -0.097295 -0.015725 0.088832 0.113616 -0.044336 0.095370 0.050897 -0.341781 0.073651 -0.058342 -0.064005 0.180862 -0.239216 -0.049498 -0.080801 0.061563 0.070332 0.169730 -0.005733 -0.200543 0.085040 0.145681 -0.102504 0.276531 -0.107247 -0.232347 0.025814 0.061584 0.012425 -0.125722 -0.010928 0.034248 0.037122 -0.062071 0.095107 0.031028 -0.016479 -0.045591 0.005349
肺癌 0.022126 -0.048469 -0.116367 0.171228 -0.010015 0.077921 0.141987 -0.069509 0.029842 0.066711 -0.007197 0.038078 -0.025412 -0.156122 -0.037852 0.142698 0.094007 -0.173135 0.052123 0.142731 0.074379 0.160655 0.103033 -0.191277 -0.024502 0.039439 -0.093155 -0.048010 -0.058566 0.166287 0.013740 -0.141292 -0.015011 -0.047740 -0.036861 -0.006683 -0.092276 -0.027111 -0.029112 -0.052816 -0.087908 -0.008542 0.031917 -0.077062 0.059455 0.133971 0.012254 -0.080723 0.026229 0.146859 0.066204 -0.077402 0.012914 -0.055328 -0.053274 0.046405 -0.095420 0.040367 -0.123733 0.253541 0.084431 0.014374 0.030293 0.006049 -0.076112 -0.030494 0.155258 -0.064210 0.025580 0.052892 -0.086842 -0.129009 -0.155588 0.010411 -0.106942 -0.015197 0.064571 -0.112908 0.055698 -0.021273 -0.066395 0.136773 -0.068070 0.148075 0.021413 -0.008518 0.040060 -0.136168 0.040914 -0.017351 -0.021178 0.097329 0.154207 -0.127911 -0.041654 0.060511 -0.198608 0.058985 -0.015474 -0.017648 0.109935 -0.142256 0.007079 -0.065601 -0.018397 0.003726 0.029188 -0.036363 -0.075555 0.070994 -0.018796 -0.067130 0.093937 -0.156123 -0.055297 -0.024961 0.080494 -0.068023 -0.073157 -0.044154 0.075042 -0.004850 -0.040489 0.043269 0.018426 0.063352 -0.099114 -0.018693
晚期 0.034841 -0.007239 -0.118992 0.134795 -0.032782 -0.036083 0.131539 -0.053893 0.007208 -0.047622 -0.031320 0.100249 -0.093871 -0.133143 -0.040170 0.117189 0.026644 -0.057438 -0.026943 0.124105 0.102119 0.112634 0.016985 -0.234102 0.058250 0.020460 -0.097351 -0.032847 -0.016051 0.095211 -0.029909 -0.089363 -0.055760 -0.071507 0.041407 0.003503 -0.096939 0.019234 -0.038133 -0.025413 -0.071449 -0.042762 0.007901 -0.068662 0.108338 0.111706 0.045525 -0.059476 -0.011655 0.100770 0.136143 -0.064514 -0.062177 0.029306 -0.059820 -0.008476 -0.045464 0.008794 -0.136071 0.261064 0.068326 0.034598 0.089921 0.040018 -0.044013 0.078378 0.072621 -0.030372 0.085684 0.037347 -0.112605 -0.048441 -0.076142 0.006811 -0.183262 -0.011457 0.127105 -0.082961 0.089263 -0.080937 -0.103469 0.140407 0.013464 0.118972 -0.007400 -0.085304 0.023080 -0.163582 0.051751 -0.031162 -0.001495 0.082507 0.153861 -0.111373 0.019507 0.025701 -0.232984 0.037085 -0.031287 0.036289 0.148848 -0.151176 0.059958 -0.078056 0.014934 -0.021625 -0.027656 -0.059527 -0.072780 -0.019218 -0.017139 -0.071648 0.002076 -0.073478 -0.090320 -0.031953 0.057119 -0.100084 -0.094762 -0.065780 0.092043 0.012445 0.068684 0.017338 0.079001 0.024308 -0.127018 -0.006302
如何 0.061915 -0.036708 -0.109766 0.135201 0.011147 0.074787 0.120022 -0.054257 -0.002144 -0.036765 0.014325 0.037099 -0.076723 -0.116409 -0.037997 0.153015 0.089844 -0.062376 -0.038586 0.136494 0.070192 0.101447 0.080581 -0.145173 -0.007225 0.003361 -0.113036 -0.058246 -0.096108 0.118757 0.020556 -0.093396 -0.025642 -0.106952 0.004770 -0.019658 -0.129774 0.039911 -0.001147 -0.045711 -0.020920 -0.010892 0.032133 -0.078236 0.074472 0.070660 0.052373 -0.056145 0.026669 0.166850 0.089402 -0.066264 -0.047446 -0.014094 -0.034782 0.009387 -0.025933 -0.021473 -0.115825 0.200413 0.059463 0.061971 0.085852 0.079681 -0.037931 0.009121 0.141390 -0.034089 0.054521 0.056001 -0.093641 -0.084544 -0.135848 0.086525 -0.148952 -0.017952 0.142214 -0.088671 0.093901 -0.085088 -0.073462 0.134480 0.002260 0.146572 -0.008466 -0.063225 0.096275 -0.116682 0.053983 -0.059016 -0.038088 0.107185 0.168400 -0.146033 0.011505 0.109545 -0.215644 -0.005021 -0.023829 0.010421 0.102155 -0.119270 -0.016082 -0.029028 0.012864 -0.015927 -0.025610 -0.000889 -0.093316 -0.017013 -0.013567 -0.094196 0.023790 -0.110305 -0.073020 0.024500 0.026652 -0.027197 -0.079016 -0.019521 0.075763 0.007557 0.027933 0.021025 0.070558 0.068218 -0.087955 -0.014770
做 0.006908 -0.086372 -0.062440 0.254393 -0.037807 -0.000257 0.214989 -0.007316 0.072555 -0.054472 0.022912 0.063608 -0.048914 -0.133895 -0.162749 0.231123 0.052838 -0.228572 -0.046686 0.001364 0.162452 0.127407 0.103020 -0.229605 0.079501 0.005204 -0.101300 -0.111440 0.035754 0.111589 0.077959 -0.188788 -0.075144 0.036213 0.042051 0.053578 -0.092718 -0.020860 -0.046515 -0.112956 -0.162939 -0.061664 -0.091519 -0.036878 0.097456 0.184691 0.125576 -0.058626 -0.042798 0.136421 0.074253 -0.131014 0.022045 0.029520 -0.123706 0.010436 0.033558 0.055879 -0.156406 0.343570 0.135382 0.101192 0.185791 0.077900 0.006013 -0.017371 0.097854 -0.041702 0.073879 0.038657 -0.081113 -0.102147 -0.175088 0.073772 -0.096313 -0.091446 0.203726 -0.125869 -0.016986 -0.012408 -0.005990 0.155364 -0.051179 0.250089 -0.053961 -0.098285 -0.027210 -0.089768 -0.018618 -0.131311 0.072215 0.090958 0.063468 -0.060790 0.032521 0.080533 -0.294863 0.094766 -0.087660 -0.092706 0.157450 -0.229468 -0.015161 -0.089260 -0.010552 0.054078 0.169648 -0.027560 -0.168584 0.139963 0.087853 -0.054107 0.231327 -0.175937 -0.204750 0.002684 0.086210 -0.016122 -0.107105 -0.028715 0.026482 0.038862 -0.109516 0.107327 0.064845 -0.020474 -0.106880 0.005053
症状 0.134803 -0.041229 -0.147372 0.011097 0.159579 0.037052 0.046283 0.094172 -0.109017 0.043861 0.024130 0.002646 -0.094507 -0.113061 0.167236 0.101002 -0.007941 -0.018341 0.137054 0.262672 0.068476 0.056888 0.148793 -0.238499 -0.057876 0.009061 -0.055974 -0.100488 -0.087565 0.040764 -0.158185 -0.019762 -0.031237 -0.045642 0.064846 -0.041488 -0.028519 0.016678 -0.022361 0.061249 -0.107310 0.100152 0.259853 -0.169794 0.111825 0.123559 -0.044400 -0.090155 0.003556 0.072866 0.016540 0.031582 -0.008475 0.009461 -0.046783 -0.027758 -0.124218 0.011749 -0.008999 0.354560 0.100939 -0.060664 0.029655 -0.052565 -0.060928 0.123764 0.220282 -0.007416 0.179028 -0.036329 -0.189628 0.007666 -0.052631 -0.078376 -0.226187 0.079376 0.020451 0.014997 0.151043 -0.061582 -0.162600 0.185332 -0.076730 0.075015 0.034578 -0.078926 0.059579 -0.211589 0.203208 0.135003 0.108703 0.162397 0.163821 -0.162711 -0.024792 0.055761 -0.105944 -0.029553 0.035175 0.173955 0.188531 -0.159236 0.101997 -0.052371 -0.115204 -0.130424 -0.223280 -0.212171 0.139410 -0.106341 -0.227176 -0.175455 -0.072606 -0.218926 0.013551 -0.066232 0.168837 -0.119805 -0.053665 0.041739 0.180633 -0.034991 0.135503 0.023485 0.122133 0.159914 -0.214008 0.020298
哪些 0.078232 0.079347 -0.096811 0.089685 0.061070 0.016247 0.035051 0.022045 -0.032617 0.080504 -0.001023 0.007256 -0.110888 -0.167647 0.163297 0.116663 0.075381 -0.007247 0.058268 0.214404 0.048223 0.073956 0.162640 -0.198254 -0.016494 0.074023 -0.034276 -0.059669 -0.164785 0.043624 -0.101745 -0.100641 -0.025626 -0.112029 0.068175 -0.063174 -0.084467 0.067958 0.003054 -0.010713 -0.081237 0.029130 0.200293 -0.150763 0.103547 0.066289 -0.003838 -0.141698 0.016936 0.072192 0.094398 -0.017491 -0.009692 -0.026231 -0.033843 -0.006704 -0.097012 0.008029 -0.065718 0.315286 0.041337 -0.002906 0.048113 -0.017310 -0.037265 0.091759 0.157804 -0.017912 0.076874 -0.001573 -0.184999 -0.010163 -0.060893 -0.009136 -0.170450 0.006241 0.111627 0.030015 0.089080 -0.075283 -0.101923 0.152055 -0.031316 0.086293 0.007897 -0.044318 0.137221 -0.200152 0.147946 0.035204 0.030382 0.141109 0.152780 -0.222558 -0.073991 0.122712 -0.200979 0.031515 -0.013473 0.120136 0.122126 -0.113583 0.083070 0.003590 -0.066657 -0.051500 -0.158094 -0.126708 0.037433 -0.120604 -0.111369 -0.155114 -0.123506 -0.148610 0.014764 -0.019036 0.153584 -0.130263 -0.016936 -0.011416 0.196967 -0.031070 0.050637 -0.028085 0.097864 0.179793 -0.157058 -0.033253
化疗 0.023219 -0.130047 -0.049889 0.196948 -0.008551 0.080701 0.226896 -0.076801 -0.045176 -0.080253 -0.036705 0.150796 -0.057982 -0.149705 -0.088316 0.148816 0.094597 -0.090592 -0.083003 0.089391 0.071410 0.084241 -0.009183 -0.148917 0.056310 0.006440 -0.149899 -0.030485 -0.077402 0.126939 0.032164 -0.103750 -0.021487 -0.145235 -0.060322 -0.013598 -0.137242 0.024037 0.034944 -0.074698 -0.073217 -0.068097 -0.022286 -0.052416 0.085488 0.039752 0.088965 -0.084872 -0.049671 0.149405 0.064015 -0.087417 -0.088279 0.016004 -0.012715 0.002348 0.061273 0.006610 -0.190615 0.182543 0.091132 0.114571 0.104551 0.079557 0.006824 -0.018210 0.086885 -0.100164 0.018918 0.054891 -0.095686 -0.068945 -0.102522 0.102844 -0.110359 -0.034340 0.192607 -0.033946 0.051000 -0.057496 -0.031380 0.100878 0.006345 0.125185 -0.037626 -0.055087 0.035120 -0.104514 0.014710 -0.102511 -0.093712 0.120903 0.143882 -0.110918 0.069452 0.102586 -0.285720 0.012554 -0.098177 -0.049681 0.117630 -0.153589 -0.011629 -0.050277 0.062831 -0.011730 -0.038113 0.045465 -0.160927 -0.001795 0.051547 -0.056397 0.075413 -0.062882 -0.123881 0.055496 -0.013687 0.004430 -0.128649 -0.050812 0.049991 0.029665 -0.023069 -0.016010 0.074412 0.036692 -0.043199 -0.020796
怎么办 0.015391 -0.006746 -0.079324 0.187760 -0.067166 -0.067104 0.175691 -0.014832 0.084523 -0.083831 0.041599 0.047748 -0.036123 -0.083430 -0.142464 0.135445 0.043924 -0.083895 -0.067775 0.056362 0.139116 0.157611 0.113404 -0.217926 0.103679 0.007354 -0.075509 -0.066187 0.041657 0.091591 0.020137 -0.152184 -0.063282 -0.015956 0.017198 0.018263 -0.119561 0.009464 -0.005930 -0.075135 -0.109063 -0.093177 0.016206 -0.082611 0.077811 0.084407 0.077227 -0.020965 0.033980 0.152108 0.199732 -0.111178 -0.044684 0.040906 -0.124229 -0.001034 0.007946 -0.011860 -0.133596 0.326490 0.103101 0.095127 0.209819 0.105828 0.020224 0.025713 0.070678 0.009914 0.085193 0.036514 -0.089568 -0.079262 -0.126005 0.111662 -0.155154 -0.065896 0.203981 -0.136447 -0.014232 -0.080397 -0.119858 0.157909 -0.026011 0.240743 -0.021293 -0.128000 0.006611 -0.146231 0.022402 -0.072385 0.041924 0.102190 0.127139 -0.090172 0.053952 0.038893 -0.310789 0.107179 -0.037170 -0.049875 0.181956 -0.222413 -0.020350 -0.036092 0.024856 0.049614 0.064876 -0.053845 -0.149983 0.035465 0.080738 -0.136519 0.153321 -0.090516 -0.196222 0.016318 0.072672 -0.021603 -0.078697 0.026408 0.068102 -0.012211 -0.010185 0.047166 0.076158 -0.018730 -0.035729 0.002010
请问 0.064858 -0.134046 -0.075401 0.155583 -0.003187 0.068097 0.201437 -0.044915 -0.029634 -0.123043 0.021891 0.099400 -0.040962 -0.114605 -0.146496 0.092268 0.058467 -0.078587 -0.040843 0.128832 0.089794 0.106521 0.086431 -0.156101 0.052107 -0.005250 -0.115298 -0.066942 -0.046729 0.135251 0.016759 -0.067831 -0.012570 -0.060810 -0.059651 -0.005416 -0.089711 -0.023471 0.026471 -0.053651 -0.066257 -0.056460 0.024903 -0.086826 0.047537 0.094658 0.064876 -0.062562 -0.019740 0.173908 0.054597 -0.076030 -0.061317 0.036300 -0.040675 0.017961 0.005581 0.018785 -0.118691 0.214178 0.143689 0.139102 0.147433 0.082792 0.006726 -0.022843 0.144233 -0.072994 0.061441 0.017740 -0.091900 -0.083198 -0.096721 0.074581 -0.126826 -0.021316 0.175997 -0.075485 0.083479 -0.053056 -0.097021 0.140461 -0.032475 0.144830 -0.028061 -0.083574 0.033132 -0.089352 0.024296 -0.081681 -0.056349 0.105232 0.120275 -0.077395 0.090435 0.063578 -0.255991 0.009536 -0.047568 -0.002778 0.167116 -0.184822 -0.043849 -0.040643 0.052053 -0.003483 0.003174 0.018579 -0.132153 0.014451 0.045737 -0.091755 0.142147 -0.090223 -0.152469 0.060329 -0.010867 0.005349 -0.127222 -0.014385 0.028452 0.023842 -0.024199 0.050712 0.061926 0.044102 -0.056657 -0.001556
！ -0.010801 -0.086102 -0.058181 -0.116839 -0.017864 -0.449994 0.525148 0.053083 0.182574 -0.577470 0.128463 0.435919 -0.016855 0.164993 -0.265297 -0.495879 -0.172364 0.233571 -0.100079 0.180002 0.184761 0.265404 0.200130 -0.336494 0.332166 -0.015528 -0.010864 0.123178 0.356075 -0.073787 -0.012940 0.067860 -0.016120 0.077767 0.093276 -0.119941 0.022599 0.083716 0.239608 0.103676 -0.009240 -0.467034 0.063111 -0.235537 -0.118751 -0.098322 0.159171 0.048856 -0.019461 0.171349 0.451020 0.069170 -0.388786 0.348389 -0.197548 -0.008196 -0.060223 0.033831 -0.027137 0.256836 0.449315 0.411857 0.475255 0.249938 -0.001332 0.257786 -0.176811 -0.000418 0.075521 -0.232875 -0.280602 0.026235 0.193738 -0.013461 -0.252911 0.097334 0.274298 -0.089623 0.090970 -0.224408 -0.686412 0.405007 0.091848 0.030718 0.122185 -0.334125 0.015569 -0.293272 0.100282 0.072249 0.006086 -0.024360 0.071491 0.225285 0.615628 -0.358188 -0.458593 0.079194 0.126868 0.099574 0.474905 -0.352584 -0.043949 0.020175 0.389276 0.091670 0.075825 -0.161611 -0.130870 -0.176687 0.166236 -0.296152 0.257293 0.588479 -0.403553 0.193268 -0.120803 0.084021 -0.302864 0.113090 0.083103 0.003218 0.369756 0.101543 -0.041707 -0.086485 0.190030 0.084614
转移 0.166499 -0.172707 -0.136084 0.097474 0.026192 0.078550 0.188780 -0.049887 0.007188 -0.133513 -0.015383 0.147262 -0.081847 -0.085698 -0.004989 0.039149 0.024730 -0.050296 -0.036542 0.196760 0.113733 0.091586 0.073302 -0.220259 0.015662 -0.041367 -0.099711 -0.012451 -0.033748 0.159556 0.095370 -0.078048 0.019475 -0.141514 0.004247 0.045633 -0.081568 -0.021201 0.068951 -0.040206 -0.011490 -0.030040 -0.059207 -0.025879 0.084189 0.126254 0.047316 -0.113561 -0.043933 0.228039 0.132971 -0.109644 -0.105785 0.130290 -0.056810 0.009580 0.034001 0.014089 -0.081006 0.216618 0.170005 0.128105 0.212726 0.134561 -0.126073 0.065124 0.137108 -0.050085 0.145122 0.013395 0.018598 -0.139174 -0.021298 -0.015696 -0.197060 -0.009947 0.132530 -0.099362 0.143422 -0.052180 -0.130496 0.195481 0.029268 0.169114 -0.017261 -0.110229 0.025303 -0.116994 -0.058506 0.000888 -0.000615 0.020255 0.092153 -0.059045 0.175971 0.017880 -0.249221 -0.089143 -0.002759 0.052216 0.159000 -0.131920 0.049256 -0.022460 0.098005 -0.049324 0.107409 0.009335 -0.090013 -0.009579 0.053384 -0.092344 0.093175 -0.019034 -0.156507 -0.011293 0.010945 0.032602 -0.175601 -0.061101 0.023250 0.081283 0.083780 0.124949 0.083121 0.038837 -0.136217 0.012983
和 0.108316 -0.144895 -0.137868 0.181778 0.011044 0.110676 0.161014 -0.055959 0.069010 -0.008304 0.028129 0.049319 -0.064227 -0.131012 -0.111910 0.154871 0.053166 -0.110668 -0.024334 0.122282 0.071588 0.148188 0.092121 -0.155027 0.022453 -0.039010 -0.149260 -0.051882 -0.027500 0.133729 0.062404 -0.088369 0.021437 -0.098236 -0.067000 0.036869 -0.090733 0.004168 0.021945 -0.061574 -0.062224 -0.020113 0.010855 -0.019391 0.061803 0.095929 0.069398 -0.087786 0.038551 0.201037 0.092386 -0.131158 -0.020672 0.009663 -0.084902 0.017757 -0.000078 0.001634 -0.158524 0.252337 0.087872 0.045687 0.089820 0.133590 -0.044154 -0.034555 0.170248 -0.030423 0.061565 0.047465 -0.051739 -0.124835 -0.158777 0.113258 -0.144576 -0.019765 0.182121 -0.167530 0.051836 -0.061374 -0.036952 0.163942 -0.046188 0.206262 -0.047992 -0.096414 0.078810 -0.080093 0.018168 -0.051727 -0.008947 0.093527 0.173355 -0.106924 0.073516 0.114583 -0.257610 0.055051 -0.035309 -0.042421 0.132215 -0.181297 -0.051649 -0.066371 0.033379 0.033158 0.032408 0.028187 -0.110472 0.049789 0.079414 -0.107746 0.188761 -0.125143 -0.110445 0.036593 0.061784 0.020873 -0.076362 0.031319 0.041724 0.015348 0.014451 0.063951 0.092459 -0.009679 -0.045858 -0.007682
在 0.072625 -0.110777 -0.116154 0.178396 -0.032563 0.031483 0.183127 -0.044113 0.083587 -0.098897 0.047259 0.058127 -0.040832 -0.117859 -0.187845 0.141781 0.084163 -0.130403 -0.065727 0.047761 0.117686 0.163507 0.139212 -0.187252 0.067959 -0.039270 -0.079611 -0.061547 -0.000045 0.107769 0.076331 -0.092065 -0.043938 -0.014328 -0.025878 0.040212 -0.108287 0.011791 0.018964 -0.120786 -0.076091 -0.067924 -0.003748 -0.035195 0.043069 0.055833 0.096308 -0.039122 0.004112 0.187858 0.111085 -0.119270 -0.014780 0.039032 -0.076801 -0.027669 0.037141 0.010480 -0.143108 0.236384 0.133982 0.090499 0.157370 0.158627 0.049121 -0.034604 0.155235 -0.048173 0.050121 0.001631 -0.040871 -0.114321 -0.122140 0.133978 -0.112565 -0.075222 0.262683 -0.137375 -0.026321 -0.036810 -0.011064 0.144154 -0.038417 0.232826 -0.062338 -0.093194 0.082255 -0.076633 -0.006670 -0.136438 -0.026086 0.103726 0.129367 -0.071439 0.111251 0.133185 -0.272016 0.042217 -0.075457 -0.072468 0.149533 -0.222666 -0.071209 -0.054249 0.070456 0.055704 0.089929 0.025346 -0.171582 0.070620 0.098146 -0.090459 0.275063 -0.124871 -0.179131 0.031784 0.006593 0.022374 -0.062699 -0.020411 0.004661 0.027602 -0.054679 0.059097 0.092063 -0.017666 -0.030308 0.018933
癌 0.084884 -0.136247 -0.146792 0.160492 0.005904 0.179456 0.210395 -0.086766 0.050866 0.014277 -0.009267 0.054600 -0.028917 -0.140550 -0.089006 0.121338 0.132053 -0.181266 0.016246 0.178197 0.094043 0.168818 0.103601 -0.149770 -0.029924 -0.010930 -0.128068 -0.057367 -0.077197 0.252644 0.079156 -0.154640 0.058699 -0.162626 -0.096604 -0.000298 -0.115278 -0.028160 0.061862 -0.106397 -0.066970 -0.046241 -0.024963 -0.088476 0.023785 0.158053 0.036088 -0.124863 0.027294 0.279169 0.071776 -0.134626 -0.020208 -0.024447 -0.093828 0.102800 -0.089131 0.062791 -0.152052 0.221736 0.134010 0.079437 0.122227 0.084305 -0.134375 -0.062124 0.194911 -0.080315 0.015324 0.020644 -0.053095 -0.185894 -0.198858 0.028633 -0.146313 -0.000216 0.123361 -0.156403 0.055200 -0.019655 -0.106310 0.210737 -0.072557 0.228214 -0.007613 -0.023908 0.073298 -0.111184 -0.019600 -0.053142 -0.050809 0.075001 0.170293 -0.141287 0.019544 0.077752 -0.267158 0.046341 -0.027291 -0.054302 0.129552 -0.135248 -0.041185 0.014107 0.040043 0.027567 0.065688 0.040440 -0.114543 0.097325 0.061804 -0.093088 0.178385 -0.098382 -0.112856 0.020939 0.016590 0.013562 -0.117542 -0.048034 0.014845 -0.003589 -0.062865 0.087800 0.039904 0.073891 -0.070584 -0.045822
早期 0.174230 0.004688 -0.109063 0.093662 0.157571 0.049118 0.052338 0.077858 -0.171872 0.040962 -0.052113 0.040562 -0.213183 -0.198956 0.230122 0.207398 0.048387 0.039795 0.079152 0.323787 0.110224 -0.033993 0.071992 -0.304354 -0.044101 0.087559 -0.145941 -0.134759 -0.192685 0.060512 -0.166455 -0.109681 -0.028029 -0.172166 0.143483 0.017712 -0.007208 0.084625 0.010230 0.072097 -0.097975 0.125024 0.215572 -0.202962 0.230017 0.232450 0.014666 -0.161728 -0.010407 0.090936 -0.015748 -0.033825 -0.065255 -0.019488 -0.054015 0.037387 -0.117253 -0.065090 -0.028925 0.435962 0.101266 -0.019721 0.091599 -0.085893 -0.128568 0.139369 0.180887 -0.042923 0.163453 0.041245 -0.197714 -0.010522 -0.029917 -0.081011 -0.264611 0.067736 0.058426 0.066969 0.271771 -0.123878 -0.179845 0.249874 0.009451 0.066130 -0.035718 -0.126781 0.104955 -0.289013 0.203399 0.102472 0.110112 0.133412 0.141524 -0.274108 -0.059758 0.050116 -0.236741 0.014761 -0.007134 0.231410 0.146520 -0.094944 0.151747 -0.061084 -0.131370 -0.148510 -0.203872 -0.111858 0.180507 -0.194238 -0.251470 -0.200933 -0.298431 -0.205980 0.024570 -0.030328 0.154728 -0.153149 -0.144796 0.026886 0.238909 -0.038333 0.149791 0.028229 0.156014 0.213226 -0.252307 -0.068783
复发 0.019245 -0.002251 -0.055249 0.127031 -0.045363 -0.024262 0.123221 -0.006929 0.054686 -0.054911 0.001696 0.012639 -0.043437 -0.058318 -0.114596 0.137061 0.041706 -0.083100 -0.059144 0.020105 0.104784 0.105435 0.067532 -0.178499 0.101777 -0.010144 -0.078566 -0.042660 0.020831 0.076255 -0.003878 -0.093592 -0.068567 -0.038640 0.015741 -0.000441 -0.091066 -0.007168 -0.036546 -0.054376 -0.118595 -0.064620 0.005609 -0.042125 0.052304 0.045254 0.032698 -0.033838 -0.012198 0.119184 0.149866 -0.091508 -0.020604 0.036800 -0.086111 -0.012810 0.050334 0.023441 -0.136261 0.239834 0.061611 0.063859 0.155876 0.082241 0.049808 0.024020 0.053502 -0.000161 0.085802 -0.010480 -0.080672 -0.029257 -0.133129 0.072562 -0.140447 -0.067119 0.178044 -0.083943 -0.026625 -0.030738 -0.032632 0.115080 -0.016455 0.208136 -0.017866 -0.063972 -0.013965 -0.094432 0.041579 -0.093292 0.047972 0.100927 0.079360 -0.079985 -0.009269 0.100011 -0.214516 0.076105 -0.060767 -0.047752 0.137299 -0.192661 -0.000490 -0.025474 0.021139 0.038064 0.035303 -0.075837 -0.132009 0.062429 0.057318 -0.056403 0.123133 -0.095725 -0.135329 -0.030588 0.056306 -0.024462 -0.014413 -0.024226 0.024878 -0.023993 -0.019025 0.016568 0.104743 -0.004422 -0.053075 0.018396
检查 0.062114 -0.176171 -0.071807 0.155096 0.012231 0.109608 0.255728 -0.012377 0.011980 -0.023081 0.016486 0.065146 -0.072035 -0.127031 -0.041334 0.122273 0.077852 -0.179760 0.019589 0.099091 0.129097 0.136818 0.136316 -0.252586 -0.018779 -0.001205 -0.039902 -0.071787 0.012232 0.136528 0.093790 -0.134650 -0.001699 -0.010075 -0.037245 0.051055 -0.078763 0.015574 0.037995 -0.068578 -0.125770 -0.035106 -0.000296 -0.052458 0.054939 0.146344 0.075748 -0.083367 -0.033081 0.223846 0.031989 -0.084357 -0.030978 0.026169 -0.051208 -0.043124 0.064093 -0.010820 -0.098769 0.318221 0.213352 0.102933 0.171289 0.099927 -0.036775 -0.032758 0.165056 -0.063777 0.078482 -0.020883 -0.013591 -0.116670 -0.072179 0.034689 -0.058907 -0.045170 0.115944 -0.070392 0.053809 -0.012772 -0.083008 0.200751 -0.039942 0.194094 -0.052021 -0.054054 0.072483 -0.137966 0.008913 -0.038512 0.004085 0.078586 0.086328 -0.077925 0.150646 0.038458 -0.263558 -0.015930 -0.051592 -0.015377 0.163412 -0.183842 0.004860 -0.068310 0.021322 0.002000 0.137191 0.036002 -0.072694 0.017661 0.014432 -0.096117 0.191235 -0.134883 -0.170668 0.002458 0.042410 0.030498 -0.135365 0.003141 0.072883 0.077388 -0.037919 0.094924 -0.002034 0.037090 -0.087705 -0.013581
要 0.070238 0.018210 -0.096985 0.159289 -0.014949 -0.068394 0.105850 0.019753 0.025715 -0.053031 0.015010 0.037950 -0.130030 -0.103050 -0.105625 0.220498 0.023600 -0.038541 -0.085824 0.036552 0.124714 0.078455 0.059117 -0.212824 0.114855 -0.011554 -0.122531 -0.071685 -0.036408 0.018275 -0.077323 -0.092224 -0.089202 -0.063648 0.073899 -0.006539 -0.126875 0.049502 -0.084723 -0.035518 -0.113276 -0.023150 0.052606 -0.082612 0.115236 0.044647 0.063056 -0.018653 -0.002584 0.090862 0.131324 -0.100167 -0.012702 0.028633 -0.085931 -0.062411 0.040647 0.005199 -0.172338 0.307392 0.045503 0.034275 0.147932 0.120674 0.071221 0.092962 0.102558 -0.004285 0.131726 0.042077 -0.175538 -0.008539 -0.137825 0.134891 -0.199734 -0.080712 0.224171 -0.054693 0.015931 -0.080786 -0.007677 0.126013 0.000458 0.192456 -0.055144 -0.136391 0.051081 -0.103492 0.114638 -0.112947 0.030261 0.169322 0.160022 -0.140626 -0.027675 0.165282 -0.255161 0.082134 -0.097777 -0.018650 0.154440 -0.216598 -0.003988 -0.059747 -0.014868 0.010316 -0.075367 -0.075843 -0.132665 0.002258 -0.013499 -0.109269 0.045860 -0.152847 -0.112347 -0.013539 0.082529 -0.109384 -0.016383 -0.032071 0.103254 -0.036516 0.024451 -0.026764 0.159235 0.023166 -0.111715 0.028669
患者 0.034120 0.075116 -0.075039 0.185033 -0.029492 -0.076223 0.099343 -0.011335 0.012870 -0.040711 -0.020449 0.089902 -0.096489 -0.149774 -0.039858 0.191974 0.067439 -0.026686 -0.049948 0.098121 0.103359 0.107677 0.050248 -0.222754 0.119621 0.024781 -0.113352 -0.038716 -0.049881 0.048059 -0.062685 -0.139094 -0.069844 -0.113341 0.095589 -0.002423 -0.121369 0.021583 -0.055828 -0.036102 -0.110073 -0.046430 0.055731 -0.083291 0.131830 0.083576 0.063193 -0.089495 0.001649 0.038903 0.163903 -0.095096 -0.042502 0.009086 -0.090642 0.016009 -0.047406 0.030098 -0.165903 0.312045 0.016066 0.032673 0.084332 0.006276 -0.019116 0.082065 0.065622 0.003013 0.090075 0.047059 -0.173681 -0.020816 -0.107515 0.049861 -0.207882 -0.023279 0.200544 -0.064632 0.030312 -0.098554 -0.068975 0.136122 -0.000589 0.168580 -0.010787 -0.109140 0.025628 -0.157085 0.083356 -0.058948 0.022590 0.137525 0.151416 -0.175010 -0.103266 0.115776 -0.282756 0.129252 -0.078928 -0.000248 0.116983 -0.187042 0.039314 -0.075542 -0.040191 0.014133 -0.080582 -0.101978 -0.109122 -0.000382 -0.002805 -0.093264 -0.005955 -0.111930 -0.085122 -0.022442 0.105501 -0.134536 -0.044565 -0.040156 0.125261 -0.001175 0.022314 -0.022837 0.136135 0.037719 -0.128119 0.011973
还 -0.039673 0.042223 -0.096860 0.095701 -0.126103 -0.165909 0.180335 -0.026528 0.157437 -0.104291 -0.032435 0.100383 -0.064871 -0.026594 -0.129137 0.074943 -0.032069 -0.104841 -0.080488 -0.017964 0.166797 0.162525 -0.031474 -0.223987 0.121137 -0.041006 -0.060786 0.023701 0.140761 0.068153 0.010180 -0.102041 -0.075800 0.004179 0.117383 0.040946 -0.109922 0.017202 -0.013211 -0.043943 -0.104249 -0.171001 -0.101396 -0.019118 0.055142 0.078496 0.083221 -0.015066 -0.029368 0.080263 0.205721 -0.061107 -0.032737 0.068770 -0.153103 -0.000771 0.006151 0.048157 -0.144655 0.251394 0.080437 -0.000237 0.135216 0.084290 -0.031481 0.087256 -0.040206 0.023303 0.026604 -0.033430 -0.135031 -0.005780 -0.053772 0.004489 -0.154790 -0.052339 0.176656 -0.152991 -0.075939 -0.071108 -0.130646 0.152282 0.031124 0.166198 -0.021802 -0.120577 -0.026918 -0.143518 0.010248 -0.079009 0.058152 0.055652 0.085064 -0.012159 0.070960 -0.017876 -0.236989 0.134490 -0.085663 -0.059586 0.179052 -0.217256 0.034830 -0.068538 0.039341 0.070768 0.071007 -0.055956 -0.123185 0.085468 0.068135 -0.033029 0.171135 -0.002425 -0.208522 -0.051027 0.034498 -0.090946 -0.076563 -0.069101 0.024619 0.011376 0.040870 -0.009024 0.055124 -0.139611 -0.041991 0.023381
恶性 0.038258 -0.095330 -0.092640 0.198589 -0.051326 0.143589 0.165084 -0.086161 -0.014987 0.018159 -0.011323 0.007623 -0.093355 -0.164600 -0.153477 0.184538 0.121742 -0.109900 -0.051763 0.095986 0.033694 0.143990 0.052908 -0.091723 -0.004229 0.059608 -0.157904 -0.071701 -0.163343 0.149846 -0.013000 -0.098113 -0.003178 -0.096380 -0.099375 -0.073693 -0.156896 0.004450 -0.002267 -0.091671 -0.073368 -0.008496 0.050784 -0.101526 0.045105 0.071589 0.054130 -0.085322 0.054795 0.192047 0.021329 -0.100727 0.003032 -0.096598 -0.043444 0.000097 -0.020110 -0.000306 -0.192152 0.189221 0.075408 0.059757 0.073307 0.089705 0.052232 -0.089843 0.163024 -0.113344 -0.034893 0.019358 -0.171649 -0.082276 -0.196061 0.147697 -0.098440 -0.044691 0.178614 -0.080541 0.046087 -0.053257 -0.024338 0.092035 -0.032274 0.121832 -0.058429 -0.018879 0.121623 -0.081641 0.118658 -0.165714 -0.145851 0.174703 0.191320 -0.173158 0.011993 0.189846 -0.232781 0.057692 -0.088452 -0.051573 0.114367 -0.133346 -0.064399 0.018571 0.045562 0.051992 -0.073910 0.075025 -0.150183 0.009562 0.058565 -0.093233 0.097626 -0.120019 -0.095705 0.081860 0.016804 -0.015037 -0.030689 -0.033764 0.047777 -0.015387 -0.076951 -0.037176 0.061390 0.100833 -0.023657 -0.064518
切除 0.008513 -0.014507 -0.052980 0.210711 -0.095684 -0.042682 0.180210 -0.023192 0.076404 -0.091437 -0.012504 0.070032 -0.073833 -0.091165 -0.131516 0.173844 0.054668 -0.133631 -0.107823 -0.007420 0.160534 0.102276 0.011073 -0.229933 0.124480 0.011632 -0.092061 -0.053791 0.032723 0.105274 0.037816 -0.181556 -0.059492 -0.047754 0.068184 0.052141 -0.132228 0.019586 -0.031924 -0.086693 -0.134551 -0.090312 -0.117811 -0.033164 0.100230 0.142001 0.090856 -0.027676 -0.028019 0.132811 0.136471 -0.146006 -0.027264 0.047851 -0.124145 -0.003395 0.038811 0.002840 -0.149861 0.292668 0.126773 0.090064 0.234175 0.120876 -0.007796 0.035811 0.020105 -0.029209 0.075660 0.043412 -0.097861 -0.070942 -0.119824 0.063657 -0.132909 -0.091496 0.204765 -0.115596 -0.012230 -0.042561 -0.055863 0.141298 0.037917 0.240733 -0.069917 -0.109642 -0.035328 -0.097150 -0.005236 -0.129262 0.033048 0.068075 0.078459 -0.094036 0.038274 0.046833 -0.306224 0.093631 -0.110267 -0.078794 0.143484 -0.189343 0.022700 -0.042117 0.030303 0.053314 0.093203 -0.000629 -0.163856 0.079861 0.072897 -0.054466 0.131307 -0.081937 -0.212006 -0.017045 0.034906 -0.048429 -0.075686 -0.062108 0.023352 -0.006955 -0.039501 0.037477 0.084007 -0.021639 -0.089964 -0.022739
医院 0.111062 -0.036871 -0.130266 0.203267 -0.128715 0.028917 0.140102 -0.109654 0.018118 -0.117413 0.031895 0.034649 -0.094925 -0.146903 -0.075713 0.067042 0.134299 -0.007518 -0.158249 0.050247 -0.024989 0.102511 0.146122 -0.127181 0.026333 0.061055 -0.026086 -0.029076 -0.180369 0.030604 0.083266 -0.057524 -0.024970 -0.051967 -0.027194 -0.027422 -0.279305 0.089441 0.013599 -0.097815 0.057882 -0.043183 0.020321 -0.083343 0.094844 -0.122395 0.111379 -0.028211 -0.018055 0.250300 0.150243 -0.129479 -0.063018 0.022601 0.018532 -0.176702 0.057296 -0.087231 -0.192570 0.110412 0.058250 0.161703 0.143352 0.239122 0.177291 0.044827 0.139043 -0.132167 0.023650 0.008385 -0.180326 -0.083832 -0.107043 0.299001 -0.124064 -0.086324 0.316280 -0.075099 0.064455 -0.122611 0.016480 0.011311 0.084158 0.093833 -0.035969 -0.016204 0.202759 -0.104441 0.079850 -0.233088 -0.240995 0.161031 0.302714 -0.145006 0.180246 0.270942 -0.246991 -0.132649 -0.094196 -0.061958 0.083566 -0.139756 0.008976 0.048072 0.150687 0.030596 -0.078856 0.084928 -0.238366 -0.128417 0.039600 -0.126424 0.055555 0.018139 -0.087680 0.126030 -0.029732 -0.027918 -0.013436 -0.102481 0.072940 0.055864 0.032598 -0.050604 0.046596 0.141663 -0.075787 -0.046981
淋巴瘤 0.068711 -0.041623 -0.135046 0.120834 -0.028395 0.047595 0.124150 -0.038754 0.069225 -0.027662 0.004058 0.005819 -0.074801 -0.100464 -0.097600 0.109288 0.072209 -0.074698 -0.040398 0.090224 0.071822 0.129164 0.079005 -0.122196 0.014401 -0.002049 -0.099056 -0.037195 -0.052542 0.093932 0.014124 -0.081136 -0.003662 -0.077929 -0.002708 -0.025938 -0.113058 0.026657 0.014313 -0.064238 -0.038555 -0.049368 0.026460 -0.076398 0.035980 0.046466 0.050140 -0.060667 0.040816 0.168348 0.092069 -0.082583 0.000623 -0.014639 -0.068943 -0.005659 -0.039084 0.025777 -0.132077 0.174870 0.064071 0.020793 0.082898 0.098477 -0.014693 0.006421 0.124938 -0.032957 0.011435 0.005965 -0.143207 -0.075800 -0.137530 0.106201 -0.145317 -0.015384 0.160565 -0.101775 0.019306 -0.074120 -0.055492 0.151438 -0.016146 0.143736 -0.019869 -0.048721 0.101906 -0.094998 0.064441 -0.086861 -0.037238 0.090808 0.157921 -0.107880 0.041249 0.127995 -0.181928 0.053697 -0.039821 -0.037871 0.111438 -0.144566 -0.036123 -0.006475 0.031203 0.040209 -0.023316 -0.000822 -0.108565 0.025367 0.016494 -0.092670 0.107930 -0.074174 -0.075209 0.035595 0.030314 -0.035173 -0.043472 -0.017519 0.046289 -0.014290 0.013228 0.004290 0.062721 0.028577 -0.044117 -0.013780
血管瘤 0.097800 -0.038203 -0.152019 0.188581 -0.072662 -0.000870 0.102366 -0.034913 0.125257 -0.052742 0.042028 -0.010876 -0.075991 -0.127295 -0.109006 0.134325 0.083985 -0.088993 -0.076429 0.073011 0.101880 0.149129 0.154868 -0.170797 0.037024 -0.011314 -0.081014 -0.068018 -0.048078 0.083841 0.030350 -0.118667 -0.031799 -0.041410 0.028028 0.024105 -0.162353 0.062308 0.012626 -0.097848 -0.037279 -0.047066 -0.001637 -0.079376 0.078300 0.050800 0.108876 -0.037178 0.059488 0.190401 0.142700 -0.127940 0.009719 0.009519 -0.103403 -0.036408 -0.019307 -0.029660 -0.123410 0.237067 0.078685 0.032113 0.143913 0.175548 0.014348 0.004602 0.155917 -0.032859 0.032376 0.043326 -0.120397 -0.114647 -0.122439 0.164498 -0.160541 -0.069037 0.255882 -0.147772 -0.021689 -0.072233 -0.023372 0.144720 -0.000092 0.210720 -0.075739 -0.092687 0.140122 -0.104116 0.028362 -0.124172 -0.048584 0.090583 0.189746 -0.136076 0.082147 0.168117 -0.251357 0.062686 -0.066616 -0.071560 0.112933 -0.188616 -0.050122 -0.014768 0.039959 0.061106 0.025583 0.014866 -0.141406 0.008234 0.051124 -0.131708 0.150110 -0.114249 -0.120982 0.044845 0.041258 -0.043662 -0.035140 -0.019208 0.050665 0.005417 -0.011860 0.035433 0.084433 0.015591 -0.069080 -0.015963
长 -0.040266 -0.260802 -0.002373 0.077881 -0.038053 0.064278 0.336864 -0.027021 0.140178 -0.085601 0.091080 0.119128 0.045165 0.017450 -0.242450 0.024333 -0.014159 -0.208763 0.020895 -0.009917 0.125761 0.225234 0.196877 -0.187790 0.098687 -0.089341 -0.021425 0.007103 0.222674 0.144668 0.197974 -0.054881 0.003929 0.077120 -0.167492 0.069727 0.063747 -0.092327 0.039588 -0.103092 -0.192043 -0.190848 -0.042390 0.041510 -0.078020 0.109115 0.052439 -0.082386 -0.064136 0.208323 0.104019 -0.071633 -0.040940 0.114373 -0.093264 0.011273 0.190312 0.074361 -0.171541 0.331049 0.229555 0.139393 0.182413 0.097623 -0.011218 -0.062122 0.090869 0.014938 0.073517 -0.089503 0.179488 -0.074255 -0.068626 0.033947 0.009886 -0.088557 0.104268 -0.162333 -0.110972 0.081151 -0.089254 0.170544 -0.128097 0.305304 -0.009757 -0.101331 -0.027676 -0.083498 -0.073381 -0.028148 0.116134 0.048270 -0.013116 0.131176 0.206815 -0.038039 -0.265257 0.062569 -0.000874 -0.101705 0.248074 -0.282987 -0.063109 -0.114142 0.100410 0.094216 0.315722 0.010124 -0.135088 0.203056 0.257640 -0.063162 0.541646 -0.070324 -0.294564 0.012687 0.100386 0.172636 -0.111019 0.063156 -0.008226 0.069132 -0.097610 0.164493 -0.003261 -0.131194 0.093339 0.062413
呢 0.077353 0.011707 -0.091858 0.119683 0.012011 -0.001227 0.026679 0.018246 -0.056346 0.006766 0.027319 0.019513 -0.112885 -0.163377 0.083416 0.126620 0.039522 0.020839 -0.003603 0.155666 0.069441 0.054053 0.104137 -0.174213 -0.020274 0.043134 -0.055139 -0.070381 -0.126330 0.032641 -0.096567 -0.082302 -0.046495 -0.060445 0.040498 -0.041933 -0.120912 0.063755 -0.014993 0.004428 -0.043349 0.054593 0.137665 -0.142381 0.121294 0.056744 0.038474 -0.070173 0.030862 0.100242 0.065445 -0.037403 -0.019885 -0.003314 -0.026895 -0.051453 -0.047350 -0.048554 -0.080876 0.267998 0.033240 0.011071 0.074554 0.046451 0.017073 0.069498 0.149215 -0.041562 0.085689 0.038061 -0.164960 -0.024911 -0.055178 0.065741 -0.175666 -0.011106 0.115061 0.005227 0.104662 -0.101184 -0.067955 0.097787 0.017629 0.072751 -0.026308 -0.070260 0.123162 -0.187056 0.141244 -0.004839 -0.020145 0.141107 0.184915 -0.188367 -0.012541 0.104116 -0.185000 -0.013638 -0.006398 0.090878 0.109895 -0.117772 0.049668 -0.017595 -0.038889 -0.046129 -0.146197 -0.087897 -0.004663 -0.130867 -0.109954 -0.134709 -0.089000 -0.143468 -0.019354 0.015041 0.098928 -0.120342 -0.041420 0.015700 0.167943 -0.011094 0.057105 -0.023504 0.089824 0.141119 -0.150019 -0.033872
不 0.023327 -0.061927 -0.080268 0.224778 -0.116385 0.047559 0.223238 -0.090250 0.088270 -0.070153 0.020517 0.069232 -0.059574 -0.116089 -0.170161 0.142997 0.113312 -0.150976 -0.095040 0.047421 0.096748 0.187522 0.114270 -0.177880 0.083858 0.011706 -0.108494 -0.018033 -0.025800 0.176864 0.075870 -0.149715 -0.013997 -0.085096 -0.052225 -0.004686 -0.178339 -0.001302 0.021701 -0.122981 -0.075995 -0.114580 -0.073215 -0.071366 0.027341 0.060017 0.105034 -0.052664 0.018348 0.212116 0.134588 -0.121804 -0.046894 -0.001779 -0.081206 0.005889 0.021168 0.000870 -0.181456 0.232014 0.122053 0.137238 0.176749 0.142879 0.015832 -0.042000 0.103390 -0.060889 0.001719 0.036304 -0.107611 -0.106611 -0.168888 0.135387 -0.128661 -0.083829 0.222703 -0.144127 -0.002897 -0.056704 -0.069683 0.130459 -0.000159 0.218352 -0.039907 -0.065143 0.062551 -0.100604 0.015796 -0.147234 -0.068781 0.097859 0.161497 -0.114770 0.057916 0.127349 -0.314566 0.075701 -0.083580 -0.108782 0.142285 -0.182902 -0.055962 -0.030360 0.077216 0.077782 0.092070 0.045099 -0.233231 0.059309 0.133166 -0.086577 0.214961 -0.057145 -0.190420 0.037764 0.003106 -0.007368 -0.079675 -0.048050 0.027309 0.016311 -0.072045 0.026382 0.034171 0.013004 -0.007818 -0.015881
癌症 0.021865 -0.032002 -0.094265 0.187093 -0.035767 0.021601 0.085702 -0.032649 0.045143 0.025445 0.040731 0.021589 -0.062057 -0.136404 -0.052309 0.148537 0.053878 -0.115245 0.010837 0.097851 0.091251 0.130521 0.122488 -0.178261 0.008601 0.039592 -0.053043 -0.051441 -0.043233 0.099607 0.010003 -0.135103 -0.032347 0.000243 -0.014767 -0.002566 -0.091898 -0.008541 -0.048014 -0.057810 -0.093746 0.001820 0.017785 -0.063787 0.063937 0.110568 0.042945 -0.059994 0.032808 0.128360 0.091559 -0.109607 0.020388 -0.019550 -0.069883 -0.010922 -0.034255 0.004671 -0.114483 0.265187 0.071152 0.047012 0.090926 0.054207 -0.017594 0.005438 0.140209 -0.045743 0.051985 0.049981 -0.074703 -0.096067 -0.115141 0.046032 -0.100749 -0.065457 0.103749 -0.108364 0.037224 -0.029432 -0.032656 0.106041 -0.042552 0.170076 -0.033552 -0.054589 0.042555 -0.126444 0.047993 -0.047736 -0.003063 0.102831 0.130173 -0.099000 -0.006007 0.074858 -0.211772 0.034639 -0.027992 -0.007289 0.115311 -0.160453 0.000476 -0.053269 -0.014968 0.028262 0.042167 -0.045466 -0.081694 0.034315 0.015984 -0.095274 0.102664 -0.148148 -0.103562 -0.001772 0.092483 -0.062075 -0.047828 -0.017202 0.082685 0.004279 -0.041349 0.050388 0.044465 0.050448 -0.086386 -0.021394
月 -0.133177 -0.239483 -0.023335 0.210787 -0.136589 -0.000644 0.399119 0.016288 0.213067 -0.076651 0.074152 0.110589 0.131769 -0.074920 -0.235816 0.099071 0.055326 -0.371000 0.038303 -0.059600 0.202054 0.297345 0.189543 -0.256585 0.062077 -0.051842 0.042313 -0.040182 0.235210 0.231218 0.174724 -0.222009 -0.036255 0.215535 -0.153217 0.069948 -0.047921 -0.115636 0.022860 -0.170009 -0.262861 -0.224222 -0.131316 0.010490 -0.010214 0.186321 0.121566 -0.046506 -0.079601 0.213917 0.109623 -0.122254 0.005964 0.058323 -0.164545 -0.012174 0.114704 0.073815 -0.183873 0.420529 0.289892 0.126078 0.221684 0.069941 0.012098 -0.112194 0.110498 -0.002340 0.043405 -0.084056 0.117198 -0.120928 -0.102770 0.005676 0.063227 -0.144129 0.181021 -0.236759 -0.227368 0.094309 -0.125810 0.168818 -0.165563 0.374679 -0.058183 -0.094021 -0.105757 -0.140911 -0.166366 -0.102945 0.112367 0.054921 0.004683 0.125388 0.135998 -0.071033 -0.350125 0.078751 -0.036008 -0.133676 0.272512 -0.368998 -0.043089 -0.119073 0.031358 0.117907 0.376869 0.006554 -0.190137 0.279163 0.267683 -0.053320 0.615087 -0.176084 -0.366761 -0.050858 0.106695 0.095822 -0.164412 -0.010968 -0.023653 0.108765 -0.253456 0.155955 -0.063619 -0.173952 0.034749 0.061140
细胞 0.037647 -0.271185 -0.102765 0.079045 0.012843 0.264808 0.354821 -0.142229 0.065188 -0.052670 -0.020035 0.102896 -0.000228 -0.073503 -0.207643 0.046969 0.131958 -0.200435 0.012493 0.159692 0.060843 0.237577 0.131519 -0.112405 -0.021971 -0.038353 -0.128554 -0.004778 -0.013772 0.295457 0.177414 -0.071847 0.086438 -0.148468 -0.226409 -0.013597 -0.068130 -0.059517 0.132912 -0.100770 -0.047514 -0.154975 -0.009692 -0.045339 -0.072924 0.078542 0.019123 -0.150045 -0.009929 0.350361 0.048425 -0.071367 -0.083615 0.010635 -0.034956 0.094868 0.029747 0.063468 -0.192340 0.187787 0.195427 0.129847 0.111182 0.143131 -0.095997 -0.108927 0.187814 -0.089840 -0.010469 -0.037612 0.031793 -0.165860 -0.174486 0.088419 -0.071368 0.005167 0.107669 -0.152646 0.053072 0.005557 -0.156134 0.204289 -0.095559 0.235994 0.037075 0.008712 0.097073 -0.111971 -0.028236 -0.053012 -0.074379 0.058419 0.155132 -0.060420 0.155852 0.084182 -0.277102 0.007485 -0.010046 -0.090615 0.207113 -0.185585 -0.070805 -0.017046 0.133332 0.043790 0.112086 0.089411 -0.144660 0.114784 0.166614 -0.084519 0.342504 -0.003904 -0.137192 0.071349 -0.054728 0.145527 -0.144961 -0.001767 0.002152 0.017331 -0.030956 0.099503 -0.018350 -0.007486 0.085776 -0.005820
现在 -0.039663 -0.120202 -0.066766 0.210084 -0.111647 0.018416 0.257779 -0.082121 0.113566 -0.047426 0.044408 0.079694 0.006955 -0.076370 -0.211676 0.120017 0.035671 -0.221381 -0.044308 0.000768 0.106760 0.205625 0.097311 -0.203791 0.086904 -0.021838 -0.088688 -0.027712 0.093510 0.159818 0.122666 -0.133320 -0.043551 0.040661 -0.108865 0.031734 -0.095679 -0.057281 -0.045097 -0.104498 -0.137354 -0.109456 -0.100874 0.019439 0.010253 0.108677 0.078968 -0.035027 -0.014541 0.179427 0.128115 -0.114765 -0.024659 0.009563 -0.075109 -0.021287 0.089147 0.024659 -0.192481 0.265262 0.148465 0.133693 0.151184 0.119647 0.012139 -0.039773 0.079622 -0.023467 0.053484 0.030888 0.015143 -0.124669 -0.166011 0.090942 -0.030479 -0.112061 0.142249 -0.174336 -0.048566 0.002701 -0.051326 0.115896 -0.065650 0.259559 -0.028023 -0.071534 -0.035219 -0.079971 -0.049428 -0.106818 -0.007362 0.081601 0.091431 0.013462 0.082224 0.042516 -0.275714 0.062002 -0.042779 -0.117370 0.171127 -0.237987 -0.049567 -0.101314 0.077651 0.089122 0.221032 0.011596 -0.207586 0.165104 0.172523 -0.032703 0.338519 -0.098099 -0.224484 -0.014788 0.059563 0.060284 -0.080349 -0.035493 -0.006339 0.042265 -0.087489 0.100153 0.005700 -0.081101 -0.009399 0.029742
该 0.029643 -0.087506 -0.080384 0.013724 -0.011808 0.042269 0.133651 -0.012711 0.010906 -0.049448 0.060386 -0.010477 0.000803 -0.037279 -0.078466 0.003855 0.041508 -0.064365 0.015312 0.098526 0.021423 0.133984 0.128480 -0.165434 0.036274 -0.027788 -0.027516 -0.046983 0.012144 0.094190 0.022349 -0.026502 -0.008586 0.030809 -0.058926 0.000595 -0.062125 -0.025544 -0.007917 -0.038354 -0.031167 -0.044477 0.085374 -0.083948 -0.001993 0.029596 -0.020988 -0.012094 -0.009063 0.181103 0.091233 -0.008303 -0.033860 0.042371 -0.013068 -0.034421 0.036979 -0.025608 -0.078662 0.200482 0.097582 0.077601 0.102238 0.065447 0.045277 -0.007619 0.115026 -0.001271 0.082462 -0.056270 0.009804 -0.050779 -0.079503 0.068369 -0.100570 -0.013238 0.103855 -0.046701 0.019278 -0.003966 -0.098109 0.102163 -0.068121 0.133924 0.023542 -0.031550 0.058376 -0.117603 0.035544 -0.036267 -0.026623 0.068083 0.100175 -0.037858 0.054330 0.064643 -0.103982 -0.053508 0.006013 0.022496 0.167008 -0.159254 -0.009841 -0.009627 0.067231 -0.017502 0.017285 -0.061432 -0.057319 -0.002164 0.018541 -0.074251 0.143563 -0.083791 -0.071239 -0.023628 0.024292 0.032553 -0.030709 -0.002384 0.011258 0.014247 0.004171 0.024206 0.034898 0.011579 -0.047014 0.018058
卵巢癌 0.139490 -0.135109 -0.164494 0.110972 0.056983 0.091621 0.119956 -0.021048 -0.015576 -0.028744 0.019565 0.060544 -0.096406 -0.160732 -0.000169 0.119158 0.047048 -0.048955 0.007846 0.187757 0.095567 0.090273 0.103357 -0.192637 -0.033616 -0.036205 -0.104135 -0.066586 -0.075707 0.092729 -0.004570 -0.055637 -0.009064 -0.098379 -0.010680 0.001198 -0.108990 0.042556 0.030066 -0.028906 -0.031156 0.024622 0.091896 -0.091349 0.093722 0.083972 0.050499 -0.087854 -0.003127 0.178654 0.056501 -0.065703 -0.038892 0.029407 -0.041929 -0.020203 -0.026084 -0.005509 -0.099494 0.247085 0.110511 0.030766 0.090510 0.099591 -0.033730 0.020842 0.203479 -0.057486 0.077602 0.017937 -0.096645 -0.088633 -0.062787 0.054582 -0.178262 0.006038 0.160646 -0.082701 0.103676 -0.075312 -0.067180 0.176206 -0.025435 0.121749 -0.041625 -0.088142 0.124730 -0.136899 0.066724 -0.021930 -0.021532 0.113849 0.184776 -0.134651 0.092796 0.103703 -0.206804 -0.034661 -0.023473 0.056418 0.138339 -0.173088 0.002320 -0.042553 0.021232 -0.043576 -0.072219 -0.015722 -0.039404 -0.051848 -0.056256 -0.125233 0.076330 -0.158580 -0.070118 0.017036 0.040133 -0.044435 -0.104487 -0.003242 0.089933 0.027948 0.064940 0.038762 0.097199 0.065880 -0.124450 -0.003776
甲状腺 0.093524 -0.129097 -0.108475 0.066692 -0.058875 0.103502 0.234151 -0.089526 0.070856 -0.232142 -0.071244 0.086449 -0.100616 -0.055583 -0.178715 0.004932 0.125245 -0.042685 -0.088013 0.137170 0.154606 0.146503 0.134203 -0.148821 0.067087 -0.002033 -0.097632 -0.051924 -0.090819 0.204198 0.107264 -0.067298 0.004683 -0.206001 0.012737 -0.021883 -0.194189 0.056772 0.090445 -0.134798 -0.015484 -0.202981 -0.016782 -0.108841 -0.001686 0.024703 0.091364 -0.129834 -0.004864 0.341773 0.189978 -0.129811 -0.087504 0.119733 -0.122943 0.066852 0.048370 0.053424 -0.147512 0.136041 0.206510 0.143138 0.296831 0.261232 -0.039434 -0.007713 0.130411 -0.093797 0.063185 -0.090219 -0.147720 -0.091292 -0.080251 0.109650 -0.246597 -0.006336 0.319319 -0.091459 0.034614 -0.045114 -0.197746 0.257358 0.057891 0.241265 -0.053899 -0.043912 0.121241 -0.099743 -0.031791 -0.173862 -0.101704 0.067618 0.160851 -0.153160 0.242523 0.133478 -0.320198 -0.012867 -0.143363 -0.069970 0.206887 -0.199042 -0.039165 0.122358 0.174150 0.039380 -0.026863 0.067694 -0.213576 -0.017662 0.141948 -0.099982 0.156482 0.076043 -0.215246 0.079273 -0.122547 0.065108 -0.125712 -0.117874 -0.063392 0.017687 -0.013673 0.053021 0.107494 0.038813 -0.043333 -0.034755
怎样 0.080727 -0.088992 -0.107322 0.151063 0.033876 0.174554 0.068111 -0.092687 -0.050824 0.014993 -0.013798 0.025628 -0.084845 -0.169681 -0.049455 0.179561 0.107789 -0.051239 -0.019412 0.169450 0.047805 0.071823 0.053568 -0.056956 -0.071903 0.017474 -0.154299 -0.066715 -0.190937 0.154754 -0.031582 -0.070768 0.005831 -0.162035 -0.081172 -0.054105 -0.154561 0.043172 0.013686 -0.049945 -0.006550 0.041615 0.058761 -0.087918 0.072464 0.049679 0.053180 -0.081650 0.047558 0.182203 0.001020 -0.069066 -0.007309 -0.075627 -0.013849 0.031127 -0.058937 -0.008339 -0.133559 0.140754 0.029862 0.020549 0.024181 0.090840 -0.031811 -0.035761 0.208433 -0.100331 0.006335 0.085885 -0.126917 -0.105866 -0.167848 0.116053 -0.145552 0.004377 0.131270 -0.058996 0.119246 -0.087909 -0.013477 0.091649 -0.014293 0.091547 -0.040180 -0.006470 0.136860 -0.086693 0.092100 -0.056962 -0.090912 0.135335 0.225714 -0.194798 -0.018331 0.160866 -0.210509 0.000198 -0.034575 -0.005760 0.066718 -0.091469 -0.038694 0.000413 -0.004996 -0.037814 -0.151947 0.035933 -0.097028 -0.034877 -0.041700 -0.097384 -0.007097 -0.136107 -0.004278 0.073381 -0.001978 -0.032368 -0.068349 -0.005871 0.091771 -0.023045 0.002913 0.000106 0.070145 0.110966 -0.060565 -0.052442
治 0.121486 0.018928 -0.199145 0.076514 -0.049485 -0.068186 0.040802 0.002645 0.113722 -0.013692 0.038075 -0.029552 -0.090470 -0.063107 -0.057072 0.095018 -0.024252 0.003173 -0.053292 0.055202 0.061131 0.121786 0.082011 -0.193464 0.069867 -0.028928 -0.054394 -0.040316 -0.031120 -0.007981 -0.047680 -0.035688 -0.057605 -0.035720 0.059475 0.006112 -0.130597 0.046796 -0.054050 -0.006751 -0.017447 -0.011746 0.066465 -0.074805 0.085311 -0.006156 0.015643 0.006711 0.036497 0.117161 0.212006 -0.080253 0.011667 0.059524 -0.090500 -0.084590 -0.021413 -0.012273 -0.130489 0.214355 -0.004660 -0.048973 0.065820 0.144253 0.061268 0.105954 0.119738 0.014590 0.096502 -0.001964 -0.149947 -0.031485 -0.080327 0.124625 -0.212729 -0.055791 0.193150 -0.111664 0.009480 -0.121690 -0.017765 0.118144 -0.000932 0.146549 -0.038114 -0.108865 0.102668 -0.117430 0.099164 -0.071582 -0.022936 0.109386 0.217095 -0.108296 0.048930 0.164604 -0.132261 0.034406 -0.031781 -0.009720 0.153596 -0.177849 0.019422 -0.027116 0.034087 0.022610 -0.097714 -0.108256 -0.098866 -0.042411 -0.034785 -0.112205 0.063587 -0.098785 -0.053260 -0.022771 0.080418 -0.105064 0.020650 -0.025423 0.088218 -0.045547 0.101928 -0.018584 0.157184 0.001291 -0.117702 0.041785
子宫 0.083501 -0.141063 -0.135675 0.161889 -0.048484 0.067340 0.238813 -0.064437 0.063595 -0.081626 -0.000133 0.047431 -0.045587 -0.101933 -0.181589 0.127155 0.079028 -0.168822 -0.062740 0.088991 0.103766 0.158549 0.091088 -0.200507 0.061094 -0.025707 -0.130998 -0.070559 -0.010258 0.175741 0.093546 -0.111485 -0.008474 -0.069169 -0.049084 0.035659 -0.118622 -0.002941 0.016560 -0.100599 -0.067361 -0.082798 -0.036565 -0.040020 0.039583 0.095742 0.075290 -0.057395 -0.015257 0.243774 0.098202 -0.122868 -0.030714 0.023679 -0.090253 0.009989 0.037333 0.008277 -0.162841 0.252797 0.145149 0.106642 0.190012 0.167008 0.001342 -0.033876 0.145809 -0.057594 0.061684 0.011680 -0.069712 -0.122394 -0.163766 0.106805 -0.145612 -0.052374 0.210348 -0.157054 0.034970 -0.026739 -0.060552 0.181207 -0.034293 0.225736 -0.046164 -0.076719 0.054579 -0.073452 -0.009018 -0.128981 -0.031299 0.071400 0.149827 -0.080486 0.117002 0.118338 -0.262644 0.021187 -0.082469 -0.079150 0.176767 -0.202873 -0.043798 -0.031071 0.071332 0.031183 0.079250 0.049740 -0.171069 0.077698 0.089709 -0.077994 0.216310 -0.088293 -0.173359 0.011685 -0.008586 0.020739 -0.090123 -0.057414 -0.008350 0.022452 -0.025111 0.059322 0.061431 -0.008556 -0.046709 -0.007098
乳腺 0.146380 -0.148717 -0.152981 0.186560 0.021998 0.147657 0.173322 -0.053797 0.149900 -0.060162 0.056419 0.027368 -0.049139 -0.058167 -0.198022 0.210416 0.092926 -0.106974 -0.063866 0.083635 0.073016 0.147390 0.087141 -0.081954 0.111788 -0.095688 -0.216211 -0.074916 -0.048871 0.133554 0.094584 -0.098262 0.054081 -0.180329 -0.055304 0.085111 -0.089546 0.003275 0.057861 -0.106247 -0.061649 -0.071142 -0.008616 0.029452 0.048342 0.055604 0.083193 -0.077347 0.070019 0.214739 0.140765 -0.207935 -0.020273 0.023603 -0.135331 0.095190 -0.013374 0.020712 -0.192785 0.220764 0.038615 0.032807 0.105844 0.187915 -0.064591 -0.086256 0.164268 -0.004532 0.040003 0.070509 -0.042913 -0.169499 -0.184480 0.212390 -0.164113 -0.016599 0.298731 -0.234105 -0.019718 -0.099997 0.018840 0.164843 -0.064610 0.268961 -0.103585 -0.112601 0.082198 -0.000210 -0.025614 -0.085226 0.006484 0.043217 0.175321 -0.123320 0.072498 0.187296 -0.268891 0.114761 -0.082555 -0.145977 0.091986 -0.204257 -0.103218 -0.029645 0.032709 0.068798 0.027608 0.036020 -0.158178 0.092643 0.181047 -0.115833 0.235131 -0.072044 -0.134393 0.095832 0.019106 0.084950 -0.039886 0.052425 -0.029221 -0.024840 -0.004006 0.034525 0.176424 -0.072707 0.040209 -0.010581
是否 0.042332 -0.080796 -0.081483 0.126941 -0.017260 0.042897 0.235147 -0.026708 0.026692 -0.102864 -0.043887 0.104085 -0.087214 -0.094710 -0.081950 0.110515 0.051100 -0.097021 -0.042333 0.099289 0.140411 0.118476 0.039788 -0.200827 0.071400 -0.012161 -0.116710 -0.033561 -0.020737 0.147600 0.030583 -0.111450 -0.022869 -0.122684 0.028371 -0.003253 -0.102278 0.011309 0.027583 -0.067879 -0.107982 -0.123805 -0.009446 -0.069971 0.065287 0.103327 0.069791 -0.095978 -0.044307 0.169268 0.111728 -0.090923 -0.066137 0.039295 -0.100996 0.034283 0.018921 0.053562 -0.154873 0.237955 0.150925 0.095647 0.167511 0.073438 -0.054458 0.021417 0.078663 -0.048403 0.050192 -0.024393 -0.134345 -0.047927 -0.090043 0.018466 -0.169151 -0.007156 0.198323 -0.073642 0.036461 -0.048134 -0.121974 0.196077 0.010818 0.176426 -0.017695 -0.071048 0.015622 -0.133471 0.022758 -0.085546 -0.005441 0.086287 0.100654 -0.105979 0.087840 0.058490 -0.272287 0.051720 -0.103037 -0.012184 0.175189 -0.183043 0.014094 -0.033387 0.041951 0.008813 0.011999 0.003418 -0.124765 0.034691 0.060857 -0.061134 0.107951 -0.042365 -0.172284 0.006014 0.003941 -0.012810 -0.125771 -0.070461 0.024965 0.024557 0.001757 0.011223 0.094624 0.002035 -0.064296 -0.004663
治疗方法 0.056016 -0.074346 -0.086377 0.088513 0.009425 0.050052 0.155193 -0.032434 -0.042710 -0.035051 0.016116 0.084852 -0.055504 -0.113596 0.023993 0.031268 0.063889 -0.033165 0.008792 0.168846 0.018934 0.101193 0.110413 -0.148945 -0.008333 0.033824 -0.056678 -0.033857 -0.096131 0.088465 -0.016238 -0.047193 0.004289 -0.067164 -0.045693 -0.045050 -0.096376 0.029443 0.034482 -0.010046 -0.033773 -0.019345 0.093928 -0.114209 0.032894 0.033365 0.039245 -0.072200 -0.003743 0.147883 0.072568 -0.019756 -0.058455 0.002277 0.000236 -0.020634 -0.035697 -0.016974 -0.092559 0.179705 0.105845 0.090991 0.082750 0.044363 -0.005329 0.020560 0.138343 -0.080225 0.038704 -0.008603 -0.126249 -0.058305 -0.044993 0.033862 -0.109112 -0.004751 0.096382 -0.018137 0.092618 -0.064311 -0.114298 0.110453 -0.017245 0.067737 0.008197 -0.034515 0.097940 -0.139063 0.085770 -0.021528 -0.078118 0.109388 0.165040 -0.103414 0.082049 0.061941 -0.188745 -0.048011 -0.006865 0.058086 0.125132 -0.122890 0.018662 -0.018239 0.046393 -0.029027 -0.064163 -0.015504 -0.040152 -0.092961 -0.029305 -0.112420 0.020703 -0.050515 -0.062024 0.038954 0.022727 -0.035448 -0.086094 -0.021362 0.098281 0.020350 0.029727 0.001223 0.032359 0.114778 -0.070743 -0.017936
喉癌 0.096633 -0.042400 -0.139996 0.129316 0.046427 0.082127 0.058618 -0.003313 0.003528 0.043618 0.008011 -0.020768 -0.095460 -0.137610 0.007060 0.194303 0.044541 -0.110526 0.044091 0.138089 0.097876 0.075194 0.095848 -0.182325 -0.039564 0.003954 -0.105783 -0.090604 -0.081841 0.095796 -0.029748 -0.101381 -0.037177 -0.050479 0.034903 0.002033 -0.072050 0.022561 -0.037711 -0.034481 -0.084438 0.049666 0.069135 -0.079439 0.111946 0.140668 0.021592 -0.077745 0.030655 0.124701 0.026111 -0.081804 0.031979 -0.032131 -0.069538 0.010470 -0.062598 0.021044 -0.077997 0.266415 0.062367 -0.030988 0.053387 0.029490 -0.055346 0.025320 0.176776 -0.034786 0.080066 0.040386 -0.109399 -0.066926 -0.126731 0.024712 -0.162833 -0.007862 0.112585 -0.074310 0.076320 -0.029783 -0.019690 0.141844 -0.037191 0.156624 -0.029611 -0.059788 0.064922 -0.113272 0.081847 -0.009763 0.050023 0.117942 0.131563 -0.152054 -0.019408 0.116578 -0.156458 0.020905 -0.033270 0.045737 0.106393 -0.144749 0.021338 -0.055372 -0.056879 -0.026257 -0.040951 -0.065600 -0.009838 0.014244 -0.074032 -0.092396 0.040203 -0.213217 -0.039196 -0.039956 0.101747 -0.080130 -0.049298 -0.021624 0.072696 -0.016274 0.013846 0.041019 0.114838 0.074210 -0.149788 -0.008501
乳房 0.083260 -0.126999 -0.137566 0.089810 -0.018018 0.036973 0.144936 0.009293 0.217147 -0.023242 0.072754 -0.021150 -0.005805 -0.046815 -0.214319 0.111032 0.000428 -0.145354 -0.007580 0.013478 0.121462 0.183565 0.114324 -0.132307 0.052594 -0.116531 -0.086311 -0.041037 0.122024 0.075750 0.080181 -0.060768 0.017755 0.019244 -0.029221 0.077345 -0.035250 -0.014155 0.020062 -0.105058 -0.087019 -0.081570 0.001896 0.039266 0.022448 0.086063 0.049762 -0.047174 0.053074 0.170711 0.111800 -0.106354 0.043599 0.036720 -0.141249 0.012533 0.023408 0.050250 -0.117690 0.265692 0.087802 -0.043850 0.082128 0.154743 -0.025617 -0.049070 0.122964 0.053707 0.054541 -0.054664 0.020967 -0.099329 -0.121311 0.105591 -0.110584 -0.024243 0.206171 -0.236974 -0.105878 -0.008027 -0.016289 0.181492 -0.099731 0.258393 -0.071492 -0.129597 0.066112 -0.019513 -0.031506 -0.044732 0.093536 0.042063 0.083836 -0.002768 0.087650 0.092396 -0.182859 0.136787 -0.035713 -0.087421 0.153013 -0.247678 -0.096700 -0.067122 0.029891 0.098603 0.108566 -0.014707 -0.105405 0.147715 0.144991 -0.091547 0.365425 -0.141444 -0.161212 -0.017718 0.078202 0.060891 -0.023173 0.064240 -0.034341 -0.001975 -0.023631 0.074764 0.103162 -0.157065 0.030280 0.036357
需要 0.142819 -0.016109 -0.132927 0.161911 0.011466 -0.037011 0.123337 0.031789 0.026387 -0.103653 -0.000411 0.018778 -0.170182 -0.151269 -0.038098 0.204271 0.046210 -0.035678 -0.092286 0.100241 0.156666 0.025615 0.044497 -0.221218 0.061327 0.000794 -0.156549 -0.066696 -0.044090 0.043920 -0.031640 -0.125757 -0.025415 -0.086450 0.142275 0.007114 -0.126829 0.076937 0.009635 -0.051391 -0.045556 -0.039911 -0.017018 -0.086396 0.156357 0.113938 0.126762 -0.068894 -0.011232 0.134980 0.062659 -0.115610 -0.028979 0.023068 -0.097929 -0.050872 -0.010835 -0.006109 -0.101160 0.296099 0.093561 0.042333 0.171999 0.135996 -0.031958 0.100152 0.096829 -0.037536 0.072613 0.038519 -0.220494 -0.042663 -0.116656 0.101374 -0.218830 -0.023883 0.236735 -0.073011 0.102337 -0.093923 -0.040649 0.206846 0.055371 0.156031 -0.061158 -0.149335 0.098776 -0.127436 0.122144 -0.082816 0.039211 0.091700 0.126349 -0.155941 0.029990 0.143456 -0.244358 0.065374 -0.076002 0.018879 0.114780 -0.157466 0.020031 -0.055187 -0.017916 0.003804 -0.033169 -0.027172 -0.094274 -0.032471 -0.052967 -0.133853 0.004992 -0.119901 -0.099581 0.009892 0.048158 -0.105277 -0.089996 -0.007042 0.084840 0.007795 0.098195 0.017008 0.135067 0.050013 -0.129482 -0.025692
小孩 -0.030160 -0.057528 -0.073862 0.175779 -0.098260 -0.047380 0.180903 -0.008772 0.182002 -0.023208 0.043313 0.025847 0.008617 -0.047848 -0.199484 0.112999 -0.005610 -0.194572 -0.015464 -0.032448 0.138762 0.188802 0.117658 -0.179011 0.073792 -0.026007 -0.037467 -0.027326 0.120315 0.084594 0.080831 -0.127343 -0.066516 0.105194 -0.020716 0.051483 -0.047842 -0.034552 -0.055541 -0.083504 -0.141588 -0.098098 -0.061514 0.015770 0.012277 0.115160 0.084121 -0.011854 0.021658 0.097131 0.139923 -0.112729 0.025363 -0.002929 -0.119888 -0.024872 0.040783 0.045823 -0.128645 0.248252 0.114811 0.049857 0.104407 0.088383 0.005990 -0.031368 0.064080 0.019014 0.043232 -0.008215 -0.019804 -0.074329 -0.106300 0.075270 -0.032158 -0.095641 0.148607 -0.183381 -0.108957 0.009054 -0.030914 0.122202 -0.077074 0.226500 -0.032163 -0.096819 -0.028263 -0.068554 -0.030949 -0.087970 0.044253 0.071800 0.042978 0.027816 0.057458 0.021951 -0.209118 0.110484 -0.043096 -0.095260 0.146463 -0.241254 -0.047035 -0.108277 0.018538 0.111663 0.209764 -0.025669 -0.151170 0.148873 0.151357 -0.043389 0.329765 -0.129861 -0.202373 -0.028945 0.089686 0.007440 -0.044175 -0.014066 -0.005978 0.031661 -0.085325 0.068897 0.019086 -0.110205 -0.007818 0.055901
大 -0.067902 -0.145569 -0.084482 0.226862 -0.062943 0.087317 0.224378 -0.073367 0.107239 0.005112 0.029861 0.091173 0.030740 -0.140175 -0.278476 0.162681 0.067038 -0.209297 -0.017892 0.026102 0.070625 0.237464 0.073400 -0.103914 0.011223 0.003431 -0.128404 -0.059991 -0.018414 0.176905 0.031739 -0.086293 -0.041077 0.051228 -0.169121 -0.040340 -0.134726 -0.035511 -0.019294 -0.127354 -0.118307 -0.076577 0.005248 -0.019983 0.009181 0.063537 0.086019 -0.036436 0.069287 0.161121 0.064461 -0.080365 0.027429 -0.099909 -0.069215 0.032894 -0.019212 0.075659 -0.226303 0.193610 0.106280 0.037469 0.027648 0.100096 0.070920 -0.144287 0.148776 -0.072299 -0.038659 -0.001964 -0.085933 -0.119279 -0.199941 0.139946 0.003713 -0.065117 0.204610 -0.180532 -0.093533 -0.007655 -0.025027 0.080036 -0.125091 0.169490 -0.062482 -0.029879 0.062620 -0.028363 -0.015610 -0.139989 -0.086172 0.175157 0.158975 -0.039590 0.057033 0.087712 -0.268671 0.122170 -0.069347 -0.110296 0.159161 -0.281775 -0.142919 -0.076462 0.054445 0.113673 0.040932 0.067413 -0.186303 0.144953 0.156873 -0.055745 0.336077 -0.159796 -0.160296 0.061012 0.027465 0.035893 -0.067663 -0.031708 0.005021 -0.002205 -0.154772 -0.001543 0.003437 -0.082011 0.059762 0.016697
宝宝 -0.104047 -0.091615 -0.026794 0.231489 -0.106873 -0.011114 0.233382 -0.034468 0.143317 -0.024772 0.064036 0.081231 0.067843 -0.098574 -0.199268 0.112520 0.052092 -0.246135 0.001910 -0.005385 0.102895 0.243569 0.175488 -0.174321 0.077595 0.012981 -0.007987 -0.037417 0.084989 0.145285 0.090485 -0.166841 -0.075594 0.125185 -0.105170 0.018610 -0.090544 -0.076191 -0.036444 -0.112218 -0.189707 -0.111126 -0.034041 -0.012868 -0.014364 0.092192 0.075487 -0.037967 0.004122 0.136238 0.142791 -0.101103 0.016939 -0.015151 -0.099786 0.007961 0.047220 0.054883 -0.176512 0.286510 0.142498 0.120069 0.137151 0.064621 0.059065 -0.081316 0.087055 -0.023363 0.020945 -0.010234 0.003553 -0.106151 -0.132767 0.078133 0.022124 -0.116469 0.167303 -0.165219 -0.131254 0.028961 -0.059546 0.080420 -0.118789 0.255841 -0.026769 -0.044217 -0.037253 -0.091597 -0.068027 -0.102941 0.004014 0.111357 0.072517 0.026345 0.045485 0.010323 -0.297362 0.082803 -0.030388 -0.103743 0.178981 -0.281789 -0.063128 -0.093152 0.037260 0.109140 0.227766 -0.033111 -0.183979 0.159751 0.193469 -0.047526 0.383601 -0.137355 -0.236063 -0.000400 0.099210 0.043794 -0.065339 -0.022352 0.017760 0.031537 -0.182200 0.075803 -0.013492 -0.064625 0.012034 0.037882
甲状腺癌 0.067006 -0.138251 -0.126676 0.091299 0.040679 0.099885 0.157321 -0.046268 0.008064 -0.009497 -0.008523 0.071067 -0.075931 -0.116904 -0.024301 0.107454 0.047656 -0.117317 0.029558 0.115293 0.099865 0.102207 0.077150 -0.184998 -0.055204 -0.037523 -0.083097 -0.050673 -0.037979 0.106570 0.036509 -0.058282 -0.000649 -0.063874 -0.031297 0.009538 -0.065864 0.036118 0.023021 -0.035904 -0.060871 -0.016557 0.026949 -0.058170 0.062394 0.123769 0.046768 -0.068608 0.007609 0.168280 0.038106 -0.055054 -0.033893 0.021290 -0.049197 -0.011124 -0.004743 0.027648 -0.082541 0.209623 0.130983 0.015701 0.093818 0.065400 -0.057613 -0.004800 0.143173 -0.062604 0.055948 0.012401 -0.054585 -0.084897 -0.075855 0.005351 -0.115439 -0.001898 0.093990 -0.073440 0.072834 -0.023675 -0.061032 0.171612 -0.035130 0.147168 -0.018700 -0.054305 0.077443 -0.116969 0.023971 -0.016002 -0.000738 0.081768 0.120664 -0.094659 0.099139 0.047142 -0.175705 -0.025314 -0.025712 0.029909 0.134894 -0.139107 0.001335 -0.044762 0.040908 -0.027559 0.031336 0.014716 -0.049367 0.014989 -0.030867 -0.075656 0.116223 -0.127199 -0.089429 -0.007706 0.016160 -0.004035 -0.101413 -0.027917 0.048013 0.015915 0.016692 0.053082 0.065111 0.031120 -0.093657 0.002072
肝癌 0.031422 -0.008414 -0.104921 0.144051 -0.032172 0.011513 0.069083 -0.024799 0.062496 0.037498 0.003967 -0.004289 -0.047433 -0.107688 -0.032445 0.138303 0.032998 -0.110527 0.010326 0.065618 0.078694 0.106457 0.083877 -0.164080 0.013187 0.007971 -0.066552 -0.044092 -0.022992 0.073028 -0.014850 -0.103640 -0.035590 -0.015255 0.015617 0.012270 -0.080425 0.002056 -0.057636 -0.034523 -0.094378 -0.004167 0.030048 -0.045439 0.065542 0.090283 0.021489 -0.033920 0.029326 0.094600 0.089699 -0.071939 0.022959 -0.022996 -0.062607 -0.008497 -0.021756 0.019116 -0.109995 0.230544 0.043317 -0.014826 0.049867 0.031745 -0.019066 0.016134 0.107938 -0.015352 0.064496 0.048643 -0.087752 -0.059016 -0.112476 0.042150 -0.111497 -0.043653 0.092991 -0.096835 0.007945 -0.023295 -0.020081 0.093724 -0.032851 0.146588 -0.017311 -0.054863 0.030498 -0.092575 0.045714 -0.027086 0.017637 0.097748 0.123838 -0.098671 -0.028233 0.074708 -0.155152 0.051899 -0.037511 -0.004528 0.101228 -0.150725 0.016859 -0.059304 -0.019681 0.008038 0.007888 -0.052114 -0.065295 0.046391 -0.012753 -0.065088 0.077744 -0.148635 -0.063789 -0.039791 0.093736 -0.071952 -0.019419 -0.023088 0.065851 -0.015134 -0.011966 0.018063 0.067391 0.019308 -0.090365 -0.003744
胃癌 0.007436 -0.031136 -0.099638 0.105394 -0.045761 -0.024992 0.164158 -0.034344 0.096522 -0.049769 -0.007974 0.062237 -0.055371 -0.076108 -0.082101 0.101965 0.027511 -0.107428 -0.015514 0.046792 0.119265 0.135821 0.053707 -0.206616 0.047530 -0.022371 -0.062702 -0.021216 0.039334 0.085236 0.043262 -0.085890 -0.049052 -0.014644 0.044584 0.020303 -0.093186 0.034085 0.001768 -0.061073 -0.083972 -0.097996 -0.007932 -0.033103 0.063632 0.081482 0.055700 -0.038092 -0.012104 0.127107 0.122223 -0.058882 -0.016910 0.021957 -0.083771 -0.001841 0.001930 0.021323 -0.128418 0.232362 0.103451 0.012971 0.092338 0.064860 -0.018909 0.017262 0.059035 -0.018741 0.023011 -0.010586 -0.084996 -0.049608 -0.069999 0.038175 -0.117758 -0.027557 0.152620 -0.112731 -0.023534 -0.049358 -0.072201 0.146429 -0.004663 0.146658 -0.023416 -0.083100 0.051069 -0.135680 0.024405 -0.073785 0.008162 0.074217 0.100741 -0.059915 0.072242 0.042624 -0.203010 0.071685 -0.065598 -0.032501 0.133051 -0.185776 0.012307 -0.070858 0.036919 0.040750 0.050306 -0.013244 -0.092573 0.045481 0.033887 -0.056536 0.152235 -0.080610 -0.135201 -0.018531 0.026981 -0.032450 -0.067103 -0.038793 0.043012 0.026331 0.013423 0.021654 0.043071 -0.047076 -0.045715 0.005491
发现 0.064526 -0.229659 -0.099847 0.104227 0.029285 0.138678 0.287698 -0.047413 0.065399 -0.051869 0.030140 0.078392 -0.026903 -0.059655 -0.136442 0.102350 0.037731 -0.197272 0.030612 0.116324 0.121217 0.176488 0.140068 -0.229189 0.013657 -0.068005 -0.092581 -0.051035 0.054562 0.185466 0.120466 -0.084538 0.002491 -0.022258 -0.110735 0.048100 -0.016205 -0.041187 0.016695 -0.072431 -0.127287 -0.086395 -0.008005 -0.017703 0.011940 0.160226 0.031380 -0.092475 -0.035527 0.249656 0.062570 -0.083187 -0.040499 0.050481 -0.077323 0.015646 0.075769 0.037552 -0.123132 0.290749 0.221776 0.098686 0.145433 0.099689 -0.072001 -0.044634 0.172595 -0.029870 0.102398 -0.026384 0.052030 -0.119675 -0.128531 0.018303 -0.079508 -0.041785 0.113492 -0.151020 0.019757 0.017767 -0.092007 0.224980 -0.078632 0.256412 -0.015125 -0.078423 0.023434 -0.108037 -0.033333 -0.030214 0.053089 0.075811 0.070326 -0.016236 0.157532 0.037996 -0.257007 0.002817 -0.027924 -0.032619 0.203821 -0.225350 -0.035996 -0.088623 0.066662 0.023078 0.173912 0.032477 -0.092468 0.124125 0.105213 -0.077271 0.329058 -0.144475 -0.196476 -0.031327 0.051506 0.103485 -0.127978 -0.000641 0.001058 0.052891 -0.030397 0.142840 0.038818 -0.036841 -0.044420 0.024957
多少 0.092522 -0.048165 -0.175982 0.213134 -0.046364 -0.083019 0.071981 -0.012547 0.074655 -0.099073 -0.046800 0.023980 -0.142355 -0.130519 -0.183899 0.171337 -0.045664 -0.043495 -0.146016 0.012315 0.159819 0.081701 -0.050883 -0.130893 0.026389 0.018002 -0.184282 -0.069454 -0.044997 0.003580 -0.101600 -0.070305 -0.089458 0.000016 0.088855 -0.042691 -0.213961 0.117349 -0.040431 -0.044577 -0.035130 -0.043402 -0.007633 -0.070554 0.148647 -0.030245 0.179412 0.009230 0.043482 0.086997 0.057788 -0.096415 0.040805 -0.005809 -0.101158 -0.116330 0.026475 -0.004586 -0.163141 0.149424 0.047974 -0.035072 0.112408 0.265538 0.123514 0.064156 0.049127 -0.088320 -0.019087 0.059414 -0.332191 -0.025367 -0.091351 0.240624 -0.188776 -0.049259 0.336087 -0.070540 -0.000461 -0.132274 0.023184 0.103005 0.069365 0.049397 -0.123594 -0.125599 0.137874 -0.044459 0.128503 -0.139771 -0.076425 0.166830 0.229998 -0.127843 0.157685 0.157061 -0.244031 0.082228 -0.098437 -0.033986 0.129543 -0.193831 -0.082275 -0.028389 0.058980 0.068241 -0.129238 -0.008215 -0.120239 -0.075881 -0.020051 -0.094285 0.091082 -0.100359 -0.132798 0.102011 -0.018198 -0.106647 -0.036847 -0.006939 0.036457 -0.036680 0.114682 -0.074206 0.107494 -0.046881 -0.060834 -0.009098
宫颈癌 0.082027 -0.019712 -0.105304 0.140435 0.048474 0.045758 0.058959 0.025614 -0.030906 0.059507 0.008712 -0.025091 -0.111189 -0.157273 0.049374 0.201867 0.040581 -0.093474 0.048951 0.155168 0.120535 0.060117 0.107026 -0.207848 -0.035079 0.037339 -0.085781 -0.106944 -0.076924 0.085967 -0.077635 -0.138177 -0.037537 -0.036580 0.063895 -0.000085 -0.068013 0.014526 -0.050228 -0.013794 -0.117010 0.069164 0.088079 -0.124093 0.122158 0.182804 0.024293 -0.078439 0.018259 0.099284 0.004592 -0.073376 0.035675 -0.042084 -0.075253 0.009071 -0.079008 0.005556 -0.060434 0.323608 0.075995 -0.021288 0.073059 -0.007835 -0.059922 0.045611 0.173062 -0.035630 0.095518 0.044824 -0.146702 -0.057460 -0.112485 -0.003795 -0.159277 -0.015530 0.072329 -0.037310 0.101711 -0.045406 -0.058205 0.164661 -0.037995 0.136888 -0.030013 -0.072402 0.047681 -0.152445 0.119493 0.008286 0.062424 0.121361 0.112329 -0.173817 -0.061293 0.075595 -0.174919 0.042265 -0.020371 0.070888 0.123021 -0.126559 0.041257 -0.062710 -0.097959 -0.031214 -0.054560 -0.081685 0.017312 -0.011284 -0.118547 -0.110942 -0.024424 -0.222630 -0.043725 -0.047265 0.133867 -0.110639 -0.061861 0.007713 0.132812 -0.021608 -0.000950 0.045107 0.083330 0.111952 -0.167216 -0.018500
大肠癌 0.126916 -0.072581 -0.125864 0.172234 0.019985 0.102202 0.085836 -0.041494 -0.031483 0.004335 0.014825 0.022756 -0.076677 -0.176357 0.001284 0.152280 0.091129 -0.083993 -0.008313 0.167191 0.069035 0.064290 0.082988 -0.158184 -0.035418 0.014908 -0.111653 -0.072360 -0.126194 0.122154 0.008640 -0.107354 0.010405 -0.090678 -0.005572 -0.002667 -0.115103 0.008626 -0.014190 -0.061658 -0.040514 0.044334 0.028388 -0.075062 0.098014 0.107479 0.041135 -0.084187 0.009292 0.155266 0.022547 -0.105888 -0.005501 -0.014119 -0.026600 -0.014668 -0.044131 0.000994 -0.093289 0.214421 0.060713 0.042364 0.063706 0.064378 -0.046960 0.006781 0.185365 -0.070073 0.055652 0.067739 -0.097481 -0.108336 -0.114347 0.054753 -0.147366 -0.017867 0.125718 -0.070200 0.117366 -0.042653 -0.012294 0.126567 -0.012760 0.128939 -0.023399 -0.052973 0.080025 -0.100022 0.054618 -0.034547 -0.038844 0.105351 0.155297 -0.146708 -0.009297 0.131354 -0.184926 -0.023530 -0.031118 0.034525 0.077811 -0.104749 0.009857 -0.042798 -0.026634 -0.029085 -0.043853 -0.009437 -0.077307 -0.014508 -0.048316 -0.091286 0.024292 -0.175023 -0.045228 0.004151 0.070237 -0.064137 -0.073836 -0.028920 0.078882 0.030722 -0.002460 0.044921 0.071938 0.105607 -0.145117 -0.029604
医生 -0.039774 -0.089173 -0.065563 0.283178 -0.117268 -0.046817 0.246374 -0.076401 0.109723 -0.099982 0.056288 0.118683 0.007758 -0.108895 -0.259572 0.075195 0.036070 -0.152827 -0.091260 0.021813 0.099212 0.227208 0.120101 -0.156008 0.103798 0.032138 -0.101251 -0.017590 0.025287 0.131791 0.065482 -0.163453 -0.028071 0.064091 -0.088117 -0.025839 -0.159026 -0.036278 -0.019340 -0.096961 -0.109922 -0.125157 -0.067152 -0.056430 0.033629 0.033425 0.143819 -0.032872 0.047741 0.147315 0.166668 -0.143900 -0.052170 0.009487 -0.093598 -0.020877 0.022150 0.026923 -0.179267 0.228289 0.145691 0.174117 0.171847 0.167189 0.056924 -0.027164 0.052640 -0.062042 0.005376 0.031729 -0.140811 -0.138776 -0.147328 0.155884 -0.047148 -0.098950 0.238980 -0.160802 -0.039120 -0.048926 -0.095562 0.091104 -0.047067 0.193607 -0.023541 -0.116077 -0.003859 -0.080447 -0.022491 -0.125842 -0.095607 0.112226 0.144987 -0.024138 0.099143 0.024123 -0.365305 0.117242 -0.037007 -0.112045 0.185522 -0.254441 -0.099560 -0.057874 0.111391 0.121687 0.146287 -0.019142 -0.251725 0.071692 0.185580 -0.103086 0.283507 -0.018033 -0.248314 0.110447 0.041254 0.024384 -0.106504 -0.008545 0.007361 0.007299 -0.066829 0.061099 -0.001244 -0.037400 0.018501 0.009390
淋巴 0.162281 -0.189012 -0.166593 0.123293 0.012399 0.145152 0.231990 -0.095421 -0.004562 -0.140839 -0.011375 0.110379 -0.084872 -0.138185 -0.081921 0.067527 0.077457 -0.109003 -0.048702 0.197911 0.113609 0.103994 0.054918 -0.191580 -0.012014 -0.038380 -0.138145 -0.035750 -0.062713 0.212122 0.092823 -0.091143 0.047647 -0.147085 -0.038585 0.018277 -0.114263 0.007165 0.061554 -0.086869 -0.011196 -0.067257 -0.062146 -0.062528 0.059932 0.134345 0.057097 -0.116432 -0.030240 0.279082 0.064084 -0.130688 -0.096678 0.077897 -0.052774 0.029850 0.003792 0.026206 -0.103318 0.186904 0.194803 0.127410 0.190274 0.163243 -0.113225 0.002831 0.173502 -0.093389 0.062719 0.021343 -0.051473 -0.160800 -0.079183 0.025265 -0.187555 0.000451 0.166799 -0.111472 0.155383 -0.037251 -0.122697 0.210380 0.017499 0.176033 -0.030889 -0.080422 0.068227 -0.102258 -0.031192 -0.057168 -0.063246 0.049540 0.136499 -0.091034 0.184673 0.059379 -0.271165 -0.084711 -0.054343 0.027547 0.170424 -0.146949 0.005619 -0.004864 0.102737 -0.035474 0.061566 0.072840 -0.127821 0.002032 0.034809 -0.087923 0.134674 -0.062018 -0.160211 0.017761 -0.057045 0.030675 -0.177194 -0.085888 -0.010544 0.062332 0.033545 0.102835 0.067061 0.049924 -0.097012 -0.028409
