1131 128
瘤 0.025181 0.009070 0.156512 -0.205699 -0.322580 -0.169713 -0.198244 -0.051052 0.055458 -0.201203 0.107478 -0.207636 0.088091 0.090383 -0.129819 0.135180 0.039476 0.042884 -0.137310 0.237739 0.060818 0.232400 -0.094890 -0.172611 0.389357 -0.414583 -0.033611 0.117297 0.172285 0.072314 0.164439 0.109103 -0.133243 -0.334045 0.094862 -0.163594 -0.437802 -0.460243 0.089911 0.097803 0.087382 -0.312811 0.093254 0.056678 -0.097026 0.086608 0.028292 0.269325 0.151927 -0.108327 0.229189 -0.549434 -0.178533 -0.328175 -0.017547 -0.189557 0.178977 -0.092687 -0.346522 -0.429355 -0.086100 -0.219812 -0.279574 0.145334 -0.101410 -0.286647 -0.444159 0.324899 -0.335278 0.212449 -0.273516 -0.314537 0.347810 0.165324 -0.021259 -0.034702 0.236947 0.218960 -0.394803 -0.077172 0.131028 0.302725 0.300535 0.313565 -0.255540 -0.414369 0.023649 -0.166507 0.150336 -0.035569 -0.424039 0.026528 -0.299753 0.226525 -0.149361 -0.083479 0.020924 0.302145 -0.376993 0.201493 0.068121 0.274607 0.020308 0.118624 0.157396 0.154097 0.083825 0.019478 0.145210 -0.081221 -0.050863 0.099849 0.116059 -0.268976 -0.106460 0.026031 0.050129 0.140765 -0.606885 0.073249 -0.251306 -0.271391 -0.074891 0.096817 0.302368 0.045840 -0.311917 0.383819
癌 0.064672 -0.112029 0.320050 -0.341471 -0.306113 0.093727 -0.063228 -0.319600 0.339436 -0.216580 -0.217321 0.017373 -0.315172 0.099892 0.293780 0.249166 -0.300757 -0.098620 0.032895 0.057378 -0.046109 0.178499 -0.173604 -0.562345 -0.066947 0.018896 -0.221763 -0.073194 0.219992 0.100767 0.215037 -0.249708 -0.129529 0.117677 -0.069308 -0.131898 -0.186389 -0.009562 0.072516 -0.251529 0.157986 0.119596 -0.167005 -0.037683 -0.426091 0.324149 0.116043 0.061134 -0.073307 -0.224348 0.038695 -0.456291 -0.460813 0.163599 0.039457 -0.101948 0.086596 -0.139918 -0.077629 0.075009 0.063777 0.074379 -0.648567 -0.049931 0.123773 -0.283912 -0.122705 -0.227407 0.359474 0.034685 -0.008243 -0.392106 0.284360 0.256571 -0.080337 -0.067636 -0.038866 -0.374730 0.145399 0.071027 0.251818 0.237845 -0.147998 0.260233 -0.371628 0.261138 -0.187569 0.013208 0.165088 -0.250165 -0.026791 -0.039945 -0.073504 0.405601 -0.008054 0.014157 -0.087563 -0.245726 0.119181 -0.143292 0.040968 0.180850 -0.083733 0.109254 0.111441 0.409090 0.263358 -0.036489 0.381370 -0.278528 -0.043145 0.476008 -0.303562 0.064522 0.233601 -0.019694 0.141620 0.109446 -0.149186 -0.086184 -0.186818 -0.196204 0.005204 0.038841 0.627919 0.236931 -0.049985 0.294038
？ 0.054796 0.034209 -0.095709 0.120402 -0.275010 -0.043075 -0.187820 -0.001956 0.271085 -0.066128 -0.036448 -0.121110 -0.512595 0.054040 0.025159 0.110683 0.154588 0.211917 0.027283 -0.025667 -0.079592 0.292132 0.393246 -0.407180 0.265578 0.162831 0.070427 0.130319 -0.201163 0.021822 0.097004 -0.075239 0.003497 -0.371249 -0.232721 -0.007042 0.040742 -0.295722 -0.134821 0.135542 0.077581 0.081368 0.131916 -0.043041 -0.072755 0.233519 -0.201155 0.070918 -0.200081 -0.224308 -0.063503 -0.171440 0.022821 0.061478 -0.221481 -0.304450 0.094324 -0.215181 0.095432 0.133817 0.267753 -0.110176 -0.048597 0.061861 0.074039 -0.058302 -0.069119 -0.017370 0.066908 0.132570 -0.245476 -0.228599 0.412167 0.113916 0.081332 -0.308021 0.009064 0.147093 0.063247 -0.054603 0.315318 -0.043643 -0.110121 0.123829 -0.390958 -0.470173 -0.045468 0.119287 0.196153 -0.271211 -0.325972 -0.320212 0.195412 0.468056 0.138665 -0.012662 -0.101598 0.302479 -0.395904 -0.017400 -0.174245 -0.019479 0.120452 -0.055730 -0.103647 0.146080 0.407607 -0.082108 0.116066 -0.462521 0.149954 0.172458 -0.112466 -0.176541 0.097998 -0.574614 -0.028194 -0.050549 -0.242645 0.010113 -0.117816 -0.024118 -0.071146 0.191316 0.292127 0.057269 0.035104 -0.225840
， 0.029749 0.092610 0.258111 -0.188406 -0.081900 0.084151 -0.243377 0.017840 -0.086284 -0.072134 -0.229545 -0.015222 -0.053182 0.092068 -0.081377 0.019022 0.060488 0.158580 -0.026350 0.030817 0.055244 -0.087335 0.004884 0.066903 0.100669 0.076339 0.000382 0.174032 0.030436 -0.095778 0.067312 0.097324 0.080155 -0.128535 0.093579 0.122138 -0.162569 -0.161393 0.137552 0.004126 0.177545 -0.225016 -0.028897 -0.112451 -0.094580 -0.028743 0.026295 0.082092 -0.020751 -0.134448 0.137645 -0.046782 0.071364 -0.117953 0.171850 0.062606 0.034790 0.078962 0.115279 -0.111692 -0.109384 -0.150798 -0.103841 -0.057020 0.038920 0.020235 0.059923 -0.056391 0.036778 -0.005937 0.001477 -0.191205 0.242140 0.059801 0.095693 -0.269700 0.013097 -0.026045 -0.221739 0.149275 0.129722 -0.045555 0.037726 0.146459 -0.176238 0.006278 -0.295855 -0.031663 0.111949 0.038335 0.069546 -0.176931 0.080083 0.220445 0.019421 0.120779 -0.034192 -0.002161 -0.035124 -0.058424 -0.027828 0.252888 -0.060071 -0.014408 -0.070034 0.085174 -0.132362 -0.025000 -0.063886 0.002007 -0.080189 0.229668 -0.131423 -0.178533 0.092667 0.041616 0.191975 0.053673 -0.047719 0.112051 -0.083780 0.145118 -0.035261 -0.062812 0.161208 0.105970 0.059655 0.140399
么 -0.207969 -0.078696 -0.076139 0.057412 -0.370016 0.047855 -0.079052 -0.210119 -0.000232 -0.334426 -0.221991 -0.093688 -0.565644 -0.297376 0.175857 0.260514 0.192805 0.277031 -0.076487 -0.181326 0.309834 0.496797 0.380136 -0.347893 0.156103 0.150970 -0.004109 -0.128024 -0.023495 0.449732 0.075177 0.043593 -0.021755 -0.094685 -0.053581 0.006743 -0.234276 -0.434785 0.074883 0.075187 0.238438 -0.023037 -0.052225 -0.058118 0.109559 0.357167 0.002721 0.066013 0.068700 -0.463668 -0.091695 -0.247635 -0.047826 0.043778 -0.259821 -0.343289 -0.015750 -0.393093 -0.039174 0.007066 0.203859 -0.228136 -0.128931 -0.088526 -0.159830 -0.161128 -0.298414 0.117604 0.101027 0.017045 -0.314923 -0.215841 0.557274 0.200131 0.241617 -0.018556 0.114651 0.333828 -0.081766 -0.125142 0.283528 -0.019618 -0.378067 0.247816 -0.690763 -0.494804 0.008662 0.040499 0.223539 -0.147500 -0.184586 -0.130732 -0.006200 0.536118 0.186161 -0.136970 0.057175 0.228163 -0.474720 0.065517 0.110071 -0.139797 0.003504 -0.049295 0.077919 0.485700 0.029526 -0.087116 0.116002 -0.342036 0.298154 0.494732 0.044667 -0.226619 0.264471 -0.394693 -0.198601 0.044932 -0.317270 -0.016218 -0.370442 0.080755 -0.056673 -0.023771 0.433464 0.146411 -0.044014 -0.181949
的 0.210846 0.167287 0.151459 0.004071 -0.236297 0.082816 -0.006488 0.112145 0.187040 -0.113568 -0.138144 0.055323 -0.228990 -0.018783 -0.030347 0.111531 -0.055944 0.043516 0.018892 -0.020021 -0.033678 0.178582 0.073063 -0.281818 0.162504 -0.036929 -0.051363 0.029727 0.055248 0.042034 0.052069 -0.068633 -0.077257 -0.157296 -0.086901 0.073347 -0.082812 -0.131184 0.116889 0.027147 -0.001548 -0.061803 0.016251 -0.052396 -0.210204 0.059514 0.105024 0.103019 0.076022 -0.139539 0.158550 -0.226686 0.000337 0.152120 -0.085959 -0.143398 0.025882 -0.103359 0.144190 -0.011880 0.143536 -0.099364 -0.249149 -0.026369 0.056775 -0.032880 -0.038066 -0.118969 -0.021519 -0.339307 -0.114037 -0.063404 0.172065 -0.162502 -0.047475 0.027116 0.112800 -0.101662 0.058272 0.076627 0.128715 0.075186 -0.135641 0.112724 -0.158063 -0.171142 -0.074106 -0.076779 0.298315 0.062656 -0.038873 -0.245623 0.093098 0.368933 0.102860 0.031798 -0.095272 0.034696 -0.366913 0.014287 -0.007663 0.179116 0.133187 0.125317 -0.039399 0.163668 0.189000 0.069813 -0.059475 -0.312601 0.154369 0.165443 -0.187688 -0.252118 0.111310 -0.278889 0.098847 -0.048881 -0.066656 0.128433 0.022048 -0.058034 -0.032111 0.117588 0.412614 0.109432 -0.106044 -0.037671
是 0.121246 0.086572 -0.029221 -0.029566 -0.157316 0.145462 -0.033025 -0.053024 0.004821 -0.195049 -0.332797 0.016023 -0.201546 0.207241 -0.144700 0.258273 0.128726 0.092735 -0.087320 -0.045484 -0.037212 0.115131 0.233788 -0.294142 0.417261 0.189109 -0.158350 0.039865 0.031534 -0.172006 0.173388 -0.059967 0.115472 -0.419775 -0.146583 0.068783 0.023003 -0.297448 0.208866 -0.022016 0.295207 -0.056599 -0.002620 0.181799 -0.150140 0.092596 -0.154389 0.150885 -0.139559 -0.327390 -0.084969 -0.309683 0.083002 0.052761 -0.022071 -0.265272 0.033726 -0.120758 0.172112 0.094157 -0.030515 -0.309932 -0.225810 0.146983 0.048978 -0.002368 -0.241677 -0.066035 -0.180419 0.111569 -0.036511 -0.300391 0.344459 0.081511 0.317599 -0.060341 -0.083878 0.193455 -0.080364 -0.065927 0.168107 -0.133381 0.010330 0.341408 -0.248876 -0.179285 -0.182245 0.108649 0.101531 -0.096057 -0.043501 -0.123801 0.283948 0.146103 0.152868 0.021008 0.043048 -0.050020 -0.108424 -0.238535 -0.095362 0.104682 -0.009020 -0.031615 0.078136 0.293668 0.275340 -0.110934 -0.162216 -0.119326 0.028127 0.106522 -0.031172 -0.111093 -0.036967 -0.020253 0.098234 0.102901 -0.145193 0.164982 -0.050153 0.175878 0.044030 -0.048376 0.242281 0.103950 0.025134 0.056544
腺 0.320528 0.156604 0.147878 0.178435 -0.578623 0.330363 0.087014 -0.209529 0.338014 -0.477382 0.285418 -0.038262 0.220964 -0.004790 0.060874 0.248973 -0.218815 -0.345362 0.006960 -0.040653 0.140113 0.153563 -0.290758 -0.230207 0.117808 0.016559 -0.423348 0.025499 0.265891 -0.164975 0.109570 -0.078757 -0.244010 -0.105480 -0.066644 0.082177 -0.346504 -0.201634 0.087351 -0.331599 0.165466 0.211908 -0.265917 -0.305014 -0.098732 0.121823 -0.033159 -0.024247 0.320515 -0.352116 0.298776 -0.005762 -0.144982 -0.050108 0.151792 -0.087064 0.383646 -0.108435 0.200225 0.089430 -0.177984 -0.389494 -0.342758 0.015823 0.077837 -0.124232 -0.416075 0.077135 0.382248 -0.140799 -0.420020 -0.567353 0.193115 0.222746 0.101167 0.107510 -0.181565 -0.130396 0.146370 -0.001529 -0.016466 -0.226645 -0.069440 0.429510 -0.169031 0.093710 -0.329429 -0.023991 0.229000 -0.030409 -0.107927 -0.070772 0.134590 0.427024 0.001050 -0.033046 0.137456 -0.178445 0.056395 -0.201894 -0.190408 0.223756 0.312368 0.331846 0.170446 -0.028167 0.465007 -0.062588 0.156646 -0.149620 0.070249 0.739853 0.158278 -0.490755 -0.004450 -0.308535 -0.133077 0.108042 -0.517428 -0.002239 -0.144060 0.369866 -0.006173 0.273928 0.200687 0.557972 0.077767 0.507837
治 0.087034 -0.047531 -0.001907 0.095912 -0.471842 -0.071024 -0.013063 0.157983 0.185006 0.027125 0.204181 -0.469375 -0.246585 0.023508 0.057838 -0.148364 -0.057906 0.248237 0.223221 0.042802 -0.103504 0.105858 0.381448 -0.605327 0.077802 0.049290 0.080985 0.130792 -0.125450 0.259566 0.297106 0.046931 -0.056551 -0.282512 -0.139005 0.076155 -0.161003 -0.426880 -0.049622 -0.083583 -0.046257 -0.186864 0.153119 -0.354546 -0.146867 0.229367 0.323387 -0.136071 0.007983 -0.036288 0.142162 -0.078545 -0.135478 0.031092 -0.215905 -0.288775 0.121980 -0.014992 0.210385 -0.174960 0.295396 0.235082 -0.448984 -0.021023 0.166291 -0.198306 -0.119748 -0.018279 -0.051803 -0.250047 -0.149876 -0.103352 0.261667 0.214892 -0.057805 -0.417604 0.048330 -0.259872 -0.058918 -0.092507 0.069336 0.238135 -0.175778 -0.014738 -0.755298 -0.427853 0.219159 -0.061845 0.309714 -0.011305 -0.214676 -0.458376 -0.126712 0.635500 -0.112249 -0.126597 -0.264913 0.570388 -0.783110 -0.150046 -0.078248 0.070814 0.175443 0.083184 0.047855 0.034604 0.232142 0.174145 0.442020 -0.449270 -0.095829 0.433229 -0.309514 -0.165142 0.132075 -0.479546 0.201854 -0.178572 -0.313834 -0.036348 -0.346437 -0.220851 0.109104 0.234414 0.491318 0.085405 0.099338 0.268104
疗 0.195791 -0.037583 0.414399 0.107637 -0.367405 -0.308432 -0.165880 0.135029 0.178272 -0.139708 0.111568 -0.253045 -0.163400 -0.121708 0.095193 -0.263132 -0.260910 0.169048 0.024667 0.117522 -0.121396 -0.060767 0.207935 -0.520192 0.115511 0.148457 0.007520 0.021490 -0.039170 0.093872 0.113267 -0.052941 0.063949 -0.254748 -0.170257 -0.009356 0.260436 -0.404617 0.122645 0.144533 0.124093 -0.106714 0.043252 -0.528514 0.017140 0.338249 0.069425 0.171008 0.323174 0.078437 0.230172 -0.033070 -0.084856 -0.071617 -0.245279 -0.199454 -0.128843 -0.018578 -0.004608 -0.164452 0.243006 0.194986 -0.202958 -0.322762 0.264042 0.236546 0.110108 0.178942 -0.078729 -0.146775 -0.084595 -0.331402 0.495247 0.067934 -0.239704 -0.486711 -0.333845 -0.020204 -0.167895 -0.072248 0.049073 0.364127 -0.281196 0.138766 -0.186195 -0.291957 0.072871 0.167654 0.200805 -0.003051 -0.121945 -0.396782 0.075076 0.367407 0.120410 -0.111243 -0.313664 0.341843 -0.336565 0.139020 -0.068423 0.145273 -0.018872 0.350392 -0.144734 0.072793 0.204116 0.008003 0.138203 -0.560306 -0.097113 0.684076 -0.457069 -0.097642 0.434131 -0.272449 0.141718 -0.064165 -0.250707 -0.036516 -0.339580 -0.222134 0.147321 0.359944 0.517318 0.296210 0.006834 0.227511
有 0.445472 0.079107 -0.062432 0.041025 -0.369880 -0.011259 -0.048242 0.017703 0.007742 -0.125035 -0.213350 0.175333 -0.375711 0.033099 0.049814 0.434223 -0.000095 -0.232915 -0.004668 -0.077035 -0.077711 0.162493 0.290450 -0.146702 0.069319 0.072067 -0.066343 0.255605 0.066220 -0.013352 0.269191 -0.213639 0.025356 -0.394860 -0.220874 -0.037002 -0.026577 -0.241091 -0.059815 0.222276 -0.110361 -0.110943 -0.040071 0.038613 0.144735 0.194615 0.234655 0.295257 -0.257435 -0.081753 0.104563 -0.210565 0.043920 -0.155588 -0.050544 -0.185621 -0.431181 -0.192650 0.258823 -0.136118 0.083314 -0.061033 -0.057775 0.304284 0.089686 -0.170129 -0.083661 -0.203446 0.009229 0.002625 -0.037369 -0.058922 0.280138 -0.007112 0.303249 -0.064056 0.168203 -0.062060 0.185932 0.138804 0.409441 0.107744 -0.250261 0.075596 -0.224973 0.036774 -0.183905 -0.058549 0.245572 -0.162274 0.016093 -0.200097 0.082987 0.148867 0.270042 -0.062268 -0.069160 0.124705 -0.310739 0.030376 0.053959 0.103427 0.234340 -0.048420 -0.000206 0.050260 0.029288 0.066652 -0.370700 -0.295079 0.084148 0.099153 -0.202132 0.003136 -0.120027 -0.212562 -0.117206 0.021506 -0.136133 -0.206402 0.027206 -0.163778 -0.044930 0.235847 0.507893 0.222328 0.304998 -0.184446
吗 -0.026123 0.189791 -0.070620 -0.099430 -0.353008 -0.040521 -0.093675 0.014632 0.248134 0.234778 -0.204495 -0.127987 -0.308718 0.280069 0.046867 0.246049 0.176793 0.192787 0.108058 0.260269 -0.203718 0.177233 0.008320 -0.428464 -0.004918 0.234854 0.105607 0.358926 0.056252 0.025488 -0.112703 -0.028173 -0.281195 -0.449563 -0.092819 -0.016977 -0.024570 -0.220362 -0.118759 0.125965 0.165101 0.043867 0.217046 0.212778 -0.094353 0.034638 0.005434 -0.020107 -0.271429 -0.260762 -0.076880 -0.116128 -0.103091 -0.158060 -0.089283 -0.101300 0.121496 0.058785 0.172637 0.313072 0.186700 -0.182140 -0.184984 -0.076665 0.008623 0.137016 0.120181 -0.176804 0.036431 0.288945 -0.172109 -0.338866 0.292670 0.335687 0.071613 -0.136791 0.230086 -0.031375 0.105569 0.176917 0.212341 -0.006620 -0.266188 0.080210 -0.364288 -0.555348 0.088019 0.115599 0.282933 -0.202588 -0.391752 -0.157900 -0.035943 0.292655 -0.059781 0.007282 0.192515 0.154925 -0.214254 0.081898 -0.198582 0.115150 0.109789 -0.002401 0.058842 -0.029287 0.351939 0.261151 -0.000122 -0.446020 0.044167 0.019056 -0.155976 -0.126956 0.195312 -0.400778 0.027499 0.206005 -0.329569 -0.145578 -0.089744 -0.052953 -0.335042 0.074139 0.500034 -0.147763 0.060002 -0.013977
乳 0.203928 -0.013577 0.394154 -0.271701 -0.436129 0.311069 0.034646 -0.609121 0.352598 -0.580169 0.300863 -0.061384 0.044144 -0.044442 -0.116716 0.283603 -0.167444 -0.248195 -0.025191 0.341508 0.022414 -0.017646 -0.355405 -0.312875 -0.002883 -0.187285 -0.420576 -0.182278 0.235567 0.110234 -0.140118 -0.097056 -0.382414 -0.097418 -0.191182 -0.211302 -0.136730 -0.322669 0.096491 -0.196408 0.078992 0.136109 -0.164933 -0.273647 -0.073033 0.057323 0.096850 0.122256 0.151114 -0.187559 0.448206 -0.274371 -0.046453 -0.190502 0.256297 -0.144211 0.185655 0.059753 0.205372 -0.121988 -0.170347 -0.420197 -0.303452 -0.070084 -0.046194 -0.292480 -0.039519 -0.174681 0.249097 0.038677 -0.463067 -0.491937 0.389680 0.129873 0.616355 -0.124354 -0.165423 0.119798 -0.070201 0.052912 0.168429 -0.358045 0.142362 0.250515 -0.112090 -0.077798 -0.532624 -0.143711 0.479152 -0.121935 -0.150819 0.011067 0.195505 0.254606 0.078653 0.161131 -0.042590 -0.466509 -0.215146 -0.093959 -0.075981 0.304633 0.224199 0.299225 0.111873 0.047362 0.262531 -0.099878 -0.135211 -0.228752 0.150814 0.767503 0.168044 -0.347439 -0.343242 -0.164100 -0.194672 0.224652 -0.691810 0.037033 0.091340 0.427357 -0.140279 0.334636 0.266867 0.457505 -0.149273 0.314381
什 0.252342 -0.066207 0.033143 0.145995 -0.131127 0.054410 0.032508 -0.064895 0.375262 -0.156310 0.079306 0.283973 -0.477757 0.012735 0.086832 0.297385 0.098399 -0.136048 -0.132509 -0.207036 0.149398 0.650678 0.004545 -0.484104 0.250576 0.129332 -0.214574 -0.166531 -0.271060 0.096133 0.018563 -0.129982 -0.214917 -0.401782 -0.195697 -0.009583 -0.020474 -0.376338 -0.372776 -0.232045 0.390316 -0.054684 -0.106281 0.345259 0.225893 0.325595 0.183937 -0.009515 -0.111150 -0.380725 -0.020818 -0.305132 0.115933 0.101833 -0.358344 -0.469034 0.057498 -0.379029 0.235904 -0.087904 0.145660 -0.109818 -0.278073 0.020653 -0.331699 -0.075998 -0.765115 -0.161810 0.320983 -0.243873 -0.134640 -0.244032 0.650096 0.313786 -0.025766 0.043427 0.054793 0.171449 0.181011 -0.052433 0.259415 -0.145042 -0.310910 0.402629 -0.259735 -0.220717 0.064165 -0.174990 0.361998 -0.046170 -0.314000 -0.063435 0.122986 0.447656 0.341910 -0.116527 -0.019915 -0.045133 -0.218919 -0.017378 0.026620 -0.024498 0.287411 0.116765 0.164543 0.331081 0.027360 0.067078 -0.259972 -0.349945 0.210636 0.427452 -0.080353 -0.156401 0.289086 -0.187545 -0.161223 -0.150080 -0.278015 0.000192 -0.372783 0.130671 -0.242832 0.097441 0.417394 -0.105570 0.020663 -0.060135
性 -0.279328 0.040184 0.055297 0.213529 -0.222621 0.285632 -0.116450 0.092781 -0.217434 -0.193931 -0.120773 -0.170865 0.479006 0.041517 -0.319095 0.181571 0.021757 -0.109843 -0.041460 0.148138 0.035036 -0.016375 -0.152445 -0.001673 0.460149 -0.174466 -0.519941 0.320589 0.477296 -0.111119 -0.073860 0.223634 -0.225567 -0.362283 0.030495 -0.152337 -0.041803 -0.182286 0.209618 0.134947 0.434127 0.011014 0.052179 0.127461 -0.114045 -0.219989 0.025114 0.440475 0.205591 -0.294882 0.272783 -0.575597 0.054158 -0.416225 0.098573 -0.202091 0.292395 -0.064289 0.108040 -0.143142 0.000017 -0.485511 -0.466838 -0.403555 0.216134 -0.002952 -0.324757 0.137833 0.027178 0.293994 -0.063142 -0.407050 0.110582 0.285598 0.076786 0.084231 0.203417 0.019753 -0.395057 0.208145 -0.054633 0.013463 0.115540 0.248460 -0.018800 -0.487461 0.062365 0.207634 0.232113 -0.123290 -0.331805 0.031415 0.195073 0.165730 0.015455 0.136114 0.283972 -0.048478 -0.011049 -0.044278 -0.183280 0.291793 0.026535 0.194968 -0.240468 -0.028011 0.279355 -0.019729 -0.088934 -0.300759 -0.164833 0.306453 -0.279123 -0.323335 0.017748 -0.255137 -0.070859 0.307724 -0.368783 0.115733 0.296929 -0.029466 0.073198 -0.103953 0.249723 -0.049120 -0.103591 0.784174
术 0.207544 0.141738 0.415388 -0.361193 -0.240528 -0.115763 -0.184855 -0.101897 0.368039 -0.177668 -0.013621 -0.141091 0.128031 0.110288 0.306679 -0.090177 0.054899 -0.141768 0.245944 0.277062 -0.056966 -0.006935 -0.133473 0.007542 0.045386 0.333439 0.077066 0.248436 0.154618 -0.221574 0.228226 0.040342 0.077689 -0.347187 0.258060 0.173667 -0.163402 -0.445195 -0.006572 -0.248837 0.284233 -0.073670 -0.046518 -0.169435 0.075823 0.042097 0.070350 -0.028173 0.102042 -0.209450 0.087997 0.224342 -0.275309 -0.191377 0.031804 -0.042935 0.193389 0.263569 -0.304692 -0.128021 -0.004714 -0.103472 -0.017891 -0.133641 0.046635 -0.163930 0.519992 -0.141908 0.434364 0.325940 -0.398735 -0.340223 0.389498 0.048487 -0.048320 -0.592368 -0.213610 -0.174479 0.051574 0.086016 0.307441 0.016974 0.161990 0.082453 -0.430001 0.262481 -0.364729 -0.039573 0.172721 -0.014252 -0.083856 -0.250089 0.155407 0.437654 -0.163247 0.023411 -0.319471 0.117846 0.038430 0.056865 -0.162887 0.402021 -0.017759 0.315589 -0.032580 0.002035 -0.343238 -0.029713 0.081423 -0.033295 -0.229575 0.440130 -0.086553 -0.179314 0.055945 -0.151656 0.123433 0.074763 -0.312009 -0.016173 -0.180842 0.031792 -0.398860 0.194875 0.341293 0.298025 0.064063 0.384829
状 0.253414 0.062329 0.113538 -0.078458 -0.380688 0.254614 0.141021 -0.629285 0.259141 -0.677566 -0.046990 0.175766 -0.190448 0.011548 -0.089669 0.306107 -0.150593 -0.331902 0.066331 -0.182423 0.169111 0.285516 -0.080389 -0.277009 0.022611 0.086968 -0.510634 -0.188145 0.329251 0.322575 0.386490 -0.511617 0.145664 0.004849 -0.066438 -0.171100 -0.181406 -0.214166 0.187209 -0.503378 -0.183238 -0.098682 -0.151542 -0.233103 0.032839 -0.014541 0.086488 0.171394 0.000257 -0.292596 0.027001 -0.245463 -0.181862 0.197199 0.135311 -0.078222 0.058616 -0.154204 -0.191382 -0.181871 -0.168227 -0.190054 -0.637704 -0.077193 -0.202375 -0.564130 -0.360388 0.014377 -0.091667 0.140393 -0.335072 -0.390542 0.351679 0.303164 0.488234 0.020641 -0.083739 -0.207618 0.240351 -0.233862 0.242646 -0.033108 -0.027767 0.352134 -0.100165 0.066687 -0.263038 -0.046760 0.291250 -0.198979 0.007767 -0.018130 -0.256433 0.594082 -0.033755 -0.094491 -0.138126 -0.387416 -0.064797 -0.039340 0.148441 0.147624 0.197125 0.136696 0.345723 0.363863 0.217148 -0.070637 0.147386 -0.204798 0.158355 0.851834 0.003105 -0.140784 -0.069388 -0.262865 -0.398966 0.351119 -0.393414 -0.123108 0.006454 0.109063 0.300893 0.167329 0.782563 0.838921 0.046925 0.113227
后 0.246505 0.198147 0.261169 -0.076068 0.121231 0.028958 -0.039006 -0.129803 0.197108 -0.250655 -0.019186 -0.199591 -0.098517 -0.256550 0.051563 -0.100489 -0.025745 0.045289 -0.003678 0.140459 -0.046591 0.040903 -0.079737 -0.091522 0.141981 0.247991 0.075506 0.239185 0.376937 -0.249367 -0.027621 -0.056831 0.026130 -0.092338 0.041656 0.157902 -0.145422 -0.433165 0.021866 -0.100200 0.427013 -0.089665 -0.012248 -0.205793 -0.132189 0.256860 0.048250 0.070360 0.296377 -0.118594 0.246757 0.097297 -0.108849 -0.359453 0.001467 -0.096675 0.084367 0.119903 -0.211292 -0.226119 -0.245883 0.015386 0.039459 -0.154066 0.170900 -0.123093 0.222721 -0.140509 0.269057 0.159248 -0.169425 -0.297167 0.383968 0.173073 0.109798 -0.306129 -0.082320 -0.118652 -0.166542 0.211140 0.341430 0.086387 -0.121672 0.148558 -0.244912 0.161013 -0.455794 -0.059225 0.159218 0.159554 -0.076841 -0.267714 0.263446 0.365772 0.006806 -0.082042 -0.100769 0.209438 0.067974 0.108434 -0.046148 0.226125 -0.103542 0.202202 0.064840 -0.132177 -0.194338 -0.053808 -0.010504 -0.098775 0.047818 0.425189 -0.096625 -0.217993 0.081474 -0.022108 0.048051 0.009785 -0.108245 -0.119351 -0.406495 0.067236 -0.233436 0.096723 0.230685 0.520620 -0.227674 0.295598
怎 -0.012811 -0.076363 0.353976 0.324803 -0.074029 0.230653 -0.126939 0.201289 -0.058586 -0.151924 0.107875 -0.424090 -0.436468 -0.043365 0.033555 0.078942 0.258700 0.247248 -0.216296 -0.132340 0.207943 0.422018 0.246083 -0.084348 0.354534 0.195931 -0.060252 0.028473 -0.253190 0.213058 0.179640 0.096801 -0.000739 -0.361549 0.016001 0.048921 0.139337 -0.311759 -0.071126 -0.107815 0.140065 0.018771 -0.036945 -0.156623 -0.225397 0.292420 0.013550 -0.023352 0.038570 -0.201055 0.030330 -0.148866 0.011171 0.099469 -0.195154 -0.195833 0.458319 -0.532444 -0.088071 -0.031079 -0.024566 -0.109767 -0.173137 -0.291363 -0.007601 -0.274191 -0.641974 0.341557 0.177375 -0.062096 -0.318581 -0.384458 0.413211 -0.008871 0.060365 -0.223385 0.096292 0.040170 -0.231258 0.109122 0.090830 0.019181 -0.135953 0.396448 0.004693 -0.475990 -0.177007 0.141797 0.158582 -0.191268 0.000663 -0.144240 0.162524 0.682580 0.518694 -0.120837 -0.200008 0.226409 -0.593697 0.023640 -0.193595 -0.086033 -0.027807 0.045747 -0.082339 0.432792 0.045884 -0.143150 0.382861 -0.326220 0.271899 0.654410 0.143950 -0.275276 0.300895 -0.294125 -0.188140 -0.039981 -0.305331 0.024116 -0.174023 0.150809 0.207089 0.289325 0.415282 -0.134758 -0.166204 0.080379
了 -0.003401 0.108179 0.438561 -0.413993 -0.176973 0.000958 -0.312077 0.155813 0.030842 -0.262948 -0.076457 0.179019 -0.144896 0.175662 -0.004931 0.130593 0.099792 0.203293 -0.053426 0.108453 0.115399 -0.064806 -0.403182 -0.120107 0.251796 0.228654 -0.024096 0.140956 0.119022 -0.119383 -0.059575 0.035230 -0.117611 0.012224 0.062276 0.212157 -0.009109 -0.214782 -0.018782 -0.201671 -0.010669 -0.257721 -0.031807 0.147790 -0.126674 -0.000931 0.225584 -0.185942 0.183657 -0.375801 0.212555 -0.048649 0.044607 0.001540 0.129413 0.345332 -0.084979 0.043575 0.178527 0.170172 -0.051914 -0.006701 -0.230166 -0.020402 -0.426768 -0.075082 0.162335 0.034944 0.424031 0.139731 -0.043738 -0.190263 0.223718 -0.199855 0.040479 -0.308618 0.034140 -0.161471 -0.317387 0.068240 0.277116 0.022182 0.052265 0.019082 -0.112520 0.250608 -0.421867 -0.226179 0.281226 -0.220663 -0.053733 -0.297532 0.069331 0.219942 -0.056439 0.041979 0.058451 -0.032320 -0.089971 -0.194991 0.051458 0.470953 -0.171695 0.056236 0.154350 0.043984 -0.208575 0.338021 0.080049 -0.024036 -0.307505 0.040644 -0.085031 -0.097741 0.069584 -0.019743 0.162947 0.023465 -0.287770 -0.154373 -0.125744 0.181500 -0.272525 -0.109862 -0.003791 -0.280804 -0.199703 -0.064824
肿 0.132386 0.073613 0.199193 0.309006 -0.180405 0.152141 -0.218879 0.258547 -0.186128 -0.404250 0.110556 -0.089919 0.032386 0.062375 -0.063481 0.028278 -0.013938 -0.029534 0.035962 -0.057803 0.106162 -0.010637 -0.037112 0.110328 0.414989 0.072050 -0.275214 0.323840 0.218035 -0.084977 0.167954 -0.049807 -0.049610 -0.309913 -0.054876 0.133299 -0.220475 -0.260511 0.113854 -0.190156 0.094242 0.093387 -0.089020 -0.087454 0.002360 -0.034041 0.015443 0.161031 0.136250 -0.135318 0.162248 -0.335294 0.117597 -0.090727 0.053287 -0.162160 0.118093 -0.150654 0.220509 -0.332592 -0.050075 -0.512487 -0.352654 -0.059474 0.018651 -0.102009 -0.239425 -0.132937 -0.021428 0.023197 -0.134571 -0.074203 -0.085612 0.196116 0.272704 -0.039369 0.251416 -0.193454 0.021828 0.046444 0.107256 0.090287 0.242268 -0.089774 -0.311373 -0.220499 -0.220709 0.280439 0.203031 -0.044944 -0.195035 -0.393482 0.244014 0.169471 0.213944 0.038809 0.087998 0.058232 -0.290055 -0.120719 -0.041982 0.325712 0.150829 -0.069338 -0.151368 0.231760 0.166102 -0.052494 -0.162965 -0.246090 -0.000639 0.237866 -0.149533 -0.036452 -0.225445 -0.304390 -0.064673 0.081271 -0.008408 0.062381 0.008523 0.039615 0.046225 0.010198 0.163182 0.343424 0.091695 0.445283
能 0.231952 0.097688 -0.087255 -0.325004 -0.166896 0.206063 -0.157240 0.100354 0.179709 0.155785 -0.444986 -0.321496 -0.133478 0.290414 -0.046323 0.143593 -0.067106 0.280486 0.071734 0.233253 -0.303841 -0.082027 0.268038 -0.353748 0.398970 0.351945 -0.156444 0.314539 0.271804 -0.310876 0.024000 0.118488 0.044504 -0.494641 -0.157308 0.021522 0.009636 -0.241197 0.048795 0.084297 0.356763 -0.029469 0.097674 -0.144028 -0.133715 -0.120244 -0.007348 0.167369 -0.079612 -0.236811 0.212569 -0.214631 0.021814 -0.240470 0.004723 -0.175422 0.171472 0.251160 0.189193 0.105141 0.056358 0.004694 -0.321367 -0.094980 -0.012031 0.014968 0.139449 -0.319612 0.252316 0.190870 -0.063545 -0.467656 0.261068 0.226161 0.041243 -0.441644 -0.047579 0.143948 -0.087095 -0.053860 -0.067505 -0.040789 -0.143278 0.037937 -0.504361 -0.331341 0.038958 -0.014037 0.277503 -0.237490 0.062966 -0.382637 0.461140 0.335942 -0.201477 0.100888 0.017792 0.081169 -0.200690 -0.046422 -0.181951 0.137860 -0.030953 0.076786 -0.084929 0.170232 0.203208 -0.146599 0.142209 -0.328455 -0.105066 0.250194 -0.337011 -0.060630 0.100044 -0.392305 0.284142 0.142780 -0.195879 -0.160797 -0.172619 -0.135024 0.201351 -0.001768 0.173714 0.263251 0.195789 0.093281
好 -0.008775 0.140933 0.046776 0.086697 -0.401455 -0.136123 -0.183969 0.019985 0.119706 0.082933 0.120429 0.003643 -0.558635 0.366987 0.015792 0.079096 0.024999 0.464719 0.191173 -0.093009 -0.076488 -0.035711 0.283034 -0.193514 0.050764 0.070545 0.028632 0.162763 -0.054623 0.232794 -0.004766 0.042945 0.170814 0.027198 -0.072942 -0.086311 0.231732 -0.208642 0.072294 0.266243 -0.182445 -0.279368 0.216841 -0.187785 0.114468 0.203657 0.040486 -0.046296 -0.068562 -0.152217 -0.086560 -0.175363 0.149351 0.160200 -0.145838 -0.220759 -0.334863 0.018023 0.321606 0.303637 0.351226 0.066263 -0.101194 0.078802 -0.169625 -0.081922 0.048226 0.183979 0.004334 0.031650 -0.096777 -0.189006 0.282811 0.103883 -0.331567 -0.520813 -0.012705 -0.092418 -0.150680 -0.074367 0.307354 0.207555 -0.155496 0.143537 -0.551497 -0.593073 -0.076309 0.053437 0.365005 -0.183627 -0.212382 -0.278075 0.197327 0.262126 -0.019766 0.081979 -0.077586 0.373204 -0.314543 -0.228006 -0.017642 0.040785 0.101714 -0.046095 0.028299 -0.005595 0.219770 0.324031 0.114895 -0.352425 0.066679 0.316958 -0.291110 -0.018078 0.187596 -0.618222 0.172568 -0.228589 -0.294939 -0.158438 -0.364384 0.211042 -0.038703 0.043913 0.199610 -0.191367 0.046613 -0.069705
期 0.406442 -0.275157 -0.095832 -0.145830 -0.220621 0.183339 -0.108668 -0.010563 0.153997 -0.191335 -0.409753 0.075180 -0.408565 0.172242 0.415867 0.303123 -0.385383 0.116628 -0.185996 -0.198878 -0.091482 0.094574 0.043685 -0.450964 0.264667 0.300170 -0.254603 -0.049377 0.409395 -0.032752 0.046955 -0.102572 0.235948 0.020508 -0.220068 -0.081148 -0.080547 -0.375396 0.272549 -0.157746 -0.242900 0.077316 -0.108007 -0.432924 -0.120796 0.185580 0.256302 -0.045558 0.260098 -0.083274 0.071529 -0.396070 -0.274092 0.015980 0.009483 0.107709 -0.026927 -0.130022 0.260889 0.231728 0.065901 0.029132 -0.559620 -0.170104 0.033666 -0.082780 -0.364578 -0.360768 0.205944 -0.375136 0.260962 -0.236562 0.254322 -0.085474 -0.083438 -0.230391 0.064630 -0.374125 0.280801 0.205983 0.061583 0.167023 -0.227814 0.404544 -0.066171 0.298077 0.056339 0.045885 0.108335 -0.155189 0.328237 -0.237968 0.016135 0.416714 -0.180911 -0.016170 -0.219123 -0.264047 -0.119907 -0.055403 0.139857 0.280473 -0.322676 0.103185 -0.115493 0.204704 0.183511 -0.256301 0.305646 -0.407174 -0.099962 0.534298 -0.526864 0.001347 -0.135931 -0.095998 0.250946 0.161710 -0.159811 -0.091223 -0.355651 -0.106755 0.492953 0.006664 0.729964 0.172850 0.128480 0.004975
手 0.237434 0.162079 0.142150 -0.400022 -0.159832 -0.049770 -0.100284 -0.162031 0.313992 -0.192415 -0.033260 -0.146157 -0.058486 0.118148 0.094807 -0.062679 -0.125939 0.107832 -0.033987 0.317985 -0.196835 -0.044018 -0.271405 -0.111384 0.144339 0.364125 0.040542 0.317698 0.447690 -0.328556 0.083414 -0.076976 -0.054371 -0.235320 -0.073298 0.258162 -0.101958 -0.439166 -0.095388 -0.082805 0.281759 -0.184836 0.066576 -0.155183 0.008077 0.066934 0.033856 0.148728 0.171890 -0.018587 0.222426 0.101181 -0.085643 -0.473234 0.082680 -0.150788 0.101019 0.261680 -0.348825 -0.160698 -0.355239 0.031317 0.032711 0.050468 0.215501 -0.074099 0.267796 -0.201569 0.282270 0.398021 -0.265370 -0.214619 0.390490 0.274773 0.176078 -0.314652 -0.163925 -0.169000 -0.226552 0.122243 0.448123 0.076358 0.050631 0.104776 -0.143416 0.271614 -0.431754 -0.064753 0.108017 -0.043660 -0.141785 -0.332175 0.192743 0.489851 -0.231595 -0.072800 0.031362 0.320344 0.028476 0.059538 -0.039974 0.442841 -0.011098 0.137234 0.207719 -0.387101 -0.160077 0.115797 0.067419 -0.024578 -0.139871 0.271062 -0.046509 -0.151935 0.070623 0.048993 0.074649 0.137033 -0.305762 -0.209312 -0.398749 0.004057 -0.288021 0.341694 0.370036 0.388696 -0.034352 0.393755
不 -0.051168 0.129098 0.342900 -0.104560 -0.135591 0.003691 -0.128862 -0.086860 0.069988 0.176401 -0.150921 -0.040318 -0.205729 0.222422 -0.125790 0.310882 0.262701 0.302612 -0.090340 0.270819 0.112145 -0.015376 -0.006298 -0.361703 0.052017 0.137466 0.202078 0.327454 -0.136971 -0.090739 -0.126622 0.114262 -0.020293 -0.376423 -0.205901 0.141114 0.034950 -0.288391 -0.046204 -0.005435 0.226208 -0.084492 -0.003883 0.238094 -0.264295 0.177601 0.114805 -0.075508 -0.326202 -0.370292 0.122156 0.001955 0.050172 -0.084731 0.173280 0.164289 -0.013239 -0.093426 0.318502 0.350513 -0.133604 -0.248999 0.035862 0.298686 0.112334 0.003619 0.156096 -0.085235 0.033637 0.239221 -0.007592 -0.263041 0.308856 0.095921 0.159212 -0.202792 0.134998 -0.059860 -0.102363 0.323522 0.255089 -0.038594 -0.005771 0.262984 -0.162175 -0.237302 -0.567009 -0.236042 0.280497 -0.102725 -0.213908 -0.148108 0.134941 0.201467 0.110641 0.037440 0.218825 0.005419 -0.029007 -0.224093 -0.122197 0.127464 0.005149 -0.093256 -0.081318 0.029956 -0.218770 0.100933 -0.033938 -0.052144 0.035124 0.105506 -0.021408 -0.089252 0.042263 0.012250 0.129401 0.135495 -0.203006 0.027499 -0.043063 0.187545 -0.265002 0.003513 0.267362 -0.365427 -0.114641 -0.069867
细 -0.135798 0.437216 0.391668 -0.187748 -0.337657 0.035820 0.007315 -0.205287 0.061228 -0.074032 -0.149751 0.202783 0.199896 0.218609 -0.555373 -0.090559 -0.065888 0.426107 -0.228796 -0.197520 -0.148259 0.387727 -0.010277 0.177305 0.280909 0.142975 -0.208005 -0.356621 0.319152 0.407515 0.672436 -0.021270 0.076494 -0.432844 0.116440 0.096221 0.153312 0.089031 0.096165 -0.382993 0.254513 -0.334746 -0.194469 0.175345 -0.005814 0.059277 0.084806 0.044866 0.267497 0.029762 0.311125 -0.124739 -0.047702 -0.393106 0.174339 -0.310923 -0.130862 -0.265696 0.420296 0.032665 -0.257351 0.406233 -0.557239 -0.137001 -0.402838 0.004967 -0.603875 0.143515 0.000598 0.417837 0.262812 0.081075 0.252947 0.586321 0.335646 -0.075618 0.309151 -0.119892 -0.140433 -0.022761 0.379494 0.066990 0.162963 -0.054958 0.178049 -0.213362 0.102634 0.069279 0.230152 0.105102 0.092858 0.183312 -0.515416 0.764424 -0.629892 0.217519 -0.023432 -0.052804 -0.055443 0.456262 -0.060934 0.499287 -0.179862 0.072302 0.418245 0.353679 -0.027402 0.116994 0.087519 -0.374774 -0.497624 0.639376 0.063018 -0.393390 0.200355 -0.066761 -0.090668 0.448829 -0.253531 -0.059551 -0.073286 -0.299462 0.308075 0.074311 0.417488 0.115324 0.083889 0.038201
胞 0.202399 0.407094 0.169241 0.089361 -0.140871 0.042852 0.018404 -0.175057 0.047143 0.123546 -0.119661 -0.199124 0.214267 0.310975 -0.626109 -0.075815 0.151219 0.231320 -0.191369 -0.545191 -0.009867 0.309197 0.299264 0.140167 0.194050 -0.060784 -0.212709 -0.255373 0.229479 0.409857 0.529514 0.142335 0.265993 -0.482714 0.231686 0.046967 -0.057637 -0.170354 0.094709 -0.242235 0.298904 -0.354921 -0.250694 0.119276 0.028544 0.324304 0.165285 0.201208 0.307785 -0.071775 0.212019 0.001311 0.005005 -0.149804 0.016331 -0.154373 0.149322 -0.258199 0.410131 0.122141 -0.059905 0.301190 -0.173493 -0.081175 0.011668 -0.114592 -0.536645 -0.025811 0.037819 -0.098435 0.272614 -0.071065 0.366505 0.416351 0.329344 -0.259375 0.219174 -0.087748 -0.328078 0.223654 0.264785 -0.124202 0.401036 -0.055976 -0.201464 -0.072114 -0.007886 0.027573 0.115961 0.165112 -0.006268 0.011992 -0.588470 0.727086 -0.355018 0.186480 -0.181636 -0.071912 0.026345 0.344560 -0.236022 0.084898 -0.063765 0.038678 0.156143 0.306334 0.227921 -0.096295 0.017406 -0.208720 -0.440698 0.738201 0.001874 -0.229556 0.121034 -0.113918 -0.119635 0.424913 -0.351978 -0.024190 -0.071240 -0.363039 0.201232 0.029010 0.358438 0.290866 0.134609 0.113009
巴 -0.032933 0.408936 0.470031 0.213963 -0.129044 0.383684 -0.058928 0.205048 -0.403365 0.197520 0.203932 -0.346947 -0.407718 0.149737 -0.250110 -0.095789 -0.030903 0.140678 0.032826 -0.317096 -0.077675 0.226090 0.112493 -0.256832 0.526426 0.311991 0.251803 0.526818 0.402047 -0.163604 0.407142 -0.194261 0.332166 -0.222239 -0.044029 -0.222038 -0.328270 0.004851 0.325033 -0.007468 -0.012663 -0.116339 -0.215762 -0.088275 -0.120017 0.370290 0.299240 0.069394 -0.114918 -0.023835 0.372298 -0.591629 -0.204693 -0.125003 -0.133594 -0.037355 0.329354 -0.066706 0.449753 -0.407565 0.180660 0.008780 -0.016559 -0.320471 0.182666 -0.148287 -0.146036 0.036580 0.065616 0.384535 0.333674 0.136777 -0.090323 0.629322 0.202357 0.013777 0.115395 -0.117277 -0.401506 0.444019 0.184280 0.222247 0.464213 0.013868 -0.555381 -0.276342 -0.205294 -0.143531 0.479899 -0.229106 -0.333058 -0.021826 -0.051551 0.186385 0.085733 0.139023 -0.179466 0.011884 -0.369380 0.275260 -0.317700 0.231900 -0.011232 -0.035851 0.000646 0.336156 0.058105 0.137747 0.492536 -0.298774 -0.345271 0.564617 0.420308 0.261264 -0.252922 -0.243347 0.026193 0.221132 -0.055733 0.034769 0.095921 -0.226235 0.321083 0.151294 -0.091104 0.405228 -0.007067 0.184176
淋 0.179282 0.382690 0.535883 -0.215183 -0.008886 -0.042319 -0.100292 0.181368 -0.355512 0.018918 0.280138 -0.347394 -0.229212 0.040724 -0.318850 -0.171707 0.096221 0.069885 -0.055949 -0.256914 -0.100413 0.150522 0.227189 0.035191 0.470447 -0.024458 0.043775 0.438177 0.306158 0.033247 0.325368 -0.255196 0.067117 -0.065168 0.193768 0.140584 -0.168922 -0.234713 0.207752 0.366240 -0.060434 -0.047408 0.079505 -0.284833 -0.431619 0.082615 0.026899 0.029171 -0.039414 -0.001498 0.322881 -0.699226 0.045436 -0.401171 0.071517 -0.067400 -0.011661 -0.310542 0.347082 -0.251866 0.192092 0.065221 -0.141325 0.034454 0.351707 -0.362651 -0.475610 -0.089057 0.142680 0.167833 0.426683 0.028985 0.225457 0.604587 0.252180 0.047735 -0.019892 -0.084968 0.166692 0.239390 0.662020 0.257006 0.419299 -0.236308 -0.081517 -0.269116 -0.228813 0.102253 0.368318 -0.096406 -0.334774 0.096900 -0.123528 0.032351 -0.086312 0.069860 0.002558 -0.200236 -0.476645 0.263498 -0.228860 0.356882 -0.114911 0.122258 0.034171 0.427023 0.269217 0.233142 0.447893 -0.374381 -0.019023 0.778738 0.257590 0.377227 -0.191659 -0.306449 0.022642 -0.024792 0.035053 -0.045159 -0.212994 -0.041569 0.368959 0.235731 -0.126410 0.535512 0.192872 0.117447
会 0.293472 0.014453 -0.012147 0.131529 -0.045296 0.127761 -0.013206 0.185893 -0.104110 -0.078262 0.046586 -0.068291 -0.168842 0.254248 -0.125820 0.635474 0.229920 -0.094646 0.044524 0.246458 -0.160765 0.375492 -0.035946 -0.414845 0.154969 0.025157 -0.149441 0.178207 -0.075029 -0.195312 -0.095599 -0.142535 -0.165499 -0.190770 -0.056371 0.022070 0.098042 -0.216854 -0.115585 0.161044 0.377338 -0.147490 -0.039011 0.493409 -0.404670 0.287570 0.080090 0.207251 -0.107483 -0.472086 0.159732 -0.332026 0.039053 0.014863 0.016501 -0.275017 -0.066278 -0.108491 0.219402 0.506324 -0.102053 -0.201179 -0.120762 0.363831 0.052689 -0.042127 -0.216481 -0.102660 0.060734 0.393965 -0.008860 -0.445813 0.197192 0.270457 0.196601 -0.191103 0.160686 0.072631 -0.080346 -0.007241 0.279558 -0.131164 -0.063537 0.281958 0.010790 -0.077635 -0.572737 -0.002928 0.292346 -0.484769 -0.109447 -0.273001 0.294999 0.418964 -0.005426 0.041695 0.203429 -0.287381 -0.017976 -0.237508 -0.161016 -0.007950 0.026747 0.107276 0.288601 0.244368 0.276351 -0.134646 -0.255930 -0.027522 -0.052871 0.017697 -0.103716 -0.103887 0.048314 -0.358751 0.245717 -0.102478 -0.283256 -0.040171 0.012774 -0.041688 -0.329887 0.016238 0.023256 -0.064433 -0.119446 0.022273
发 -0.079895 -0.043803 -0.276152 -0.009323 0.109078 0.010533 0.068164 -0.037114 -0.334367 -0.327048 -0.018131 0.007128 0.173325 -0.096430 -0.007957 0.316154 0.242843 -0.514509 -0.138972 0.127825 0.014639 0.314088 0.160627 -0.199934 0.104993 0.155104 0.118948 0.527936 0.096862 -0.103624 0.248793 0.172954 -0.193395 -0.044979 -0.134460 0.243523 -0.383031 -0.336393 -0.091531 0.213764 0.180560 -0.045261 0.146723 -0.011882 -0.534636 -0.228955 0.280297 0.037007 0.000969 -0.421123 0.244832 -0.078332 -0.056104 -0.151480 -0.128746 0.052064 0.377704 -0.026589 -0.138173 0.112909 -0.506656 0.073259 -0.044978 -0.227274 0.372889 -0.275738 -0.092014 0.081500 0.149238 0.263245 -0.004441 -0.227703 0.384725 -0.145855 0.217725 -0.440106 -0.034839 -0.175044 -0.074868 0.195041 0.178681 -0.414207 0.128920 0.418539 -0.352774 -0.047945 -0.346399 0.031286 0.268190 -0.283189 -0.129922 -0.322593 0.127894 0.466835 -0.157042 -0.032667 -0.386562 0.085288 -0.116309 -0.670915 0.101082 0.131489 0.071320 0.032628 0.047225 -0.150543 0.097719 -0.172176 0.179594 0.172427 0.117325 0.449505 -0.026596 -0.514273 0.092178 0.047058 0.100246 0.248789 -0.283645 0.155347 0.053755 -0.235267 0.051149 -0.134499 0.239796 0.226879 -0.242880 0.043833
大 0.156180 0.292694 -0.041320 -0.216380 -0.176355 0.141217 -0.143802 0.063600 -0.170294 -0.003282 -0.237676 0.366324 -0.348011 0.256262 -0.105190 -0.022956 -0.028278 -0.221274 -0.115752 -0.098847 -0.101544 -0.033620 0.111371 -0.111150 0.297636 0.164384 0.203895 0.337461 0.167477 -0.048473 0.215067 -0.199058 0.097636 0.094570 0.025248 -0.082050 -0.033590 0.080863 0.135839 0.240120 -0.068349 -0.220221 -0.001527 -0.227933 -0.205936 0.002031 0.155881 0.136492 -0.058745 -0.291096 -0.181184 -0.477607 -0.023256 -0.004608 -0.044621 -0.219606 -0.146570 0.027642 0.120142 -0.071187 0.261674 -0.012768 -0.047339 0.020614 -0.025581 -0.025660 0.100633 -0.132311 0.082297 -0.146320 0.140673 0.038729 0.122810 0.102747 -0.223768 -0.021304 -0.155544 -0.036375 -0.056125 0.028444 0.315509 0.185983 0.211576 -0.156977 -0.476940 -0.107863 -0.000607 0.144316 0.207714 -0.056608 0.041171 -0.178897 0.290094 0.125475 -0.249627 0.415931 -0.039219 0.151322 -0.212744 -0.349415 0.158888 0.168893 0.132995 -0.264704 -0.101471 0.041770 0.197741 0.389814 0.131217 -0.169711 -0.042883 -0.149474 -0.129664 -0.091472 0.125242 -0.268114 0.237589 -0.006731 0.113607 0.020030 0.026702 -0.093054 0.044073 -0.163847 0.108446 0.268039 0.077448 -0.299751
症 0.061351 -0.229734 0.046032 0.314245 -0.280571 0.157052 0.049697 -0.386872 0.569870 -0.192904 0.034148 0.262428 -0.257306 -0.064413 0.201006 0.223556 0.040790 0.024797 -0.085390 -0.443878 0.077172 0.533655 0.278539 -0.403223 0.129481 0.229874 -0.435721 0.223378 0.138476 0.050452 0.146472 -0.307467 0.240076 -0.171531 -0.147611 -0.041483 0.007514 -0.499417 0.353778 -0.038932 -0.069968 -0.038889 -0.005999 -0.043632 0.068801 0.204561 0.083629 -0.088173 -0.172983 -0.150946 -0.132048 -0.001653 0.144011 0.100811 -0.145899 -0.225681 -0.045782 -0.288406 0.385087 0.069171 0.248711 -0.026351 -0.480883 0.159118 -0.014525 -0.421607 -0.499276 -0.071722 0.099297 -0.107445 -0.056617 -0.148751 0.260091 -0.062126 0.162640 -0.009123 0.247460 -0.258567 0.368251 0.130097 0.437010 0.254086 0.050799 0.343103 -0.082114 0.023466 -0.011869 0.121185 0.402785 0.081775 0.049457 -0.131102 -0.087912 0.372522 0.215788 -0.012348 -0.210908 -0.386307 -0.146253 -0.116745 -0.100915 0.335391 -0.017946 -0.022128 -0.213660 0.123491 0.323254 -0.009900 0.063973 -0.453060 0.094670 0.580418 -0.083705 -0.337893 -0.133333 -0.324611 -0.317822 0.053087 -0.244997 -0.066086 0.070651 0.148322 0.038982 -0.019468 0.612505 -0.095185 0.250654 0.129423
病 0.182846 0.464644 0.324318 -0.010254 -0.005689 0.058062 0.204884 -0.229453 0.107107 -0.121062 0.074527 0.086470 -0.224743 0.255860 -0.123670 0.379167 -0.034810 0.000814 0.064514 0.220804 0.269459 0.299092 0.086386 -0.328888 0.085684 0.157839 -0.242971 -0.327439 -0.034140 -0.043951 0.221959 -0.021712 -0.126171 -0.290279 -0.079170 -0.031721 0.089029 -0.218028 -0.032742 0.057217 0.183594 -0.280313 0.139714 0.304526 0.129132 0.207214 -0.032927 0.273162 -0.126854 -0.421837 0.088492 -0.354309 0.355746 0.117700 -0.083606 -0.059767 0.099465 -0.054211 0.072667 0.136093 -0.049648 -0.246931 -0.096947 0.029556 -0.028801 0.012089 -0.175553 -0.177902 -0.152458 -0.017734 -0.124678 -0.233518 0.494741 -0.017337 0.258287 -0.182025 0.114370 0.163739 0.015059 0.145097 0.398530 -0.382753 -0.221725 0.331009 -0.073390 -0.358629 -0.246889 -0.112790 -0.014655 -0.188249 -0.120527 0.075680 0.106721 0.120937 0.045506 0.209057 -0.055874 -0.052440 -0.288581 -0.279413 -0.063125 -0.196845 0.123025 -0.031700 -0.017743 0.239591 0.215690 0.120864 -0.104365 -0.327946 0.117948 0.381209 0.049876 -0.142208 -0.005285 -0.028613 -0.388201 -0.171907 -0.393531 0.161243 -0.191232 0.102686 0.014498 0.050588 0.460610 0.163761 -0.235470 0.070631
多 0.371118 0.276945 0.129018 -0.397488 -0.026433 0.006784 -0.279680 0.649854 -0.209047 -0.048540 -0.629719 -0.036455 -0.055922 0.357746 0.180046 0.492100 -0.077298 0.144463 -0.435068 0.345290 0.115327 0.027584 -0.090899 0.010616 0.657438 0.451923 0.001847 0.616051 0.585114 -0.175569 -0.090063 0.289775 0.103995 -0.316492 -0.219879 0.123617 -0.069825 -0.299675 0.000245 0.538108 0.235747 0.104126 0.187003 -0.313099 -0.336502 -0.470348 0.216426 0.101426 -0.106324 -0.654332 0.241210 -0.266862 0.008777 -0.289948 -0.096126 0.255917 0.510960 -0.074397 0.125923 0.190453 0.113535 -0.020039 -0.098464 -0.356362 0.203724 0.041370 0.093713 -0.253109 0.491286 0.054846 -0.116726 -0.532600 0.165469 -0.131624 -0.031398 0.078449 -0.177191 0.180490 -0.024725 0.300893 -0.010866 -0.192096 0.037421 0.112880 -0.459788 -0.329093 -0.076392 -0.030443 0.133760 -0.359234 0.316082 -0.382649 0.690877 -0.022822 0.091865 0.242585 -0.033847 0.073791 -0.542930 -0.045934 -0.224412 0.135601 -0.153339 0.043875 -0.254993 -0.057640 -0.103370 -0.085627 0.138074 -0.341790 0.188930 0.366002 -0.076628 -0.474980 0.227672 -0.415238 -0.167761 0.200267 -0.218188 0.003367 0.125122 -0.374019 0.549239 0.127769 0.237670 0.293419 -0.120287 -0.409383
子 0.266580 0.012733 0.141091 -0.190217 -0.217193 0.197893 -0.474381 0.225162 0.480849 -0.223446 -0.346059 0.193360 -0.288641 0.229975 0.496194 0.093703 0.220722 0.298046 0.132886 0.128160 0.173974 0.193784 -0.008745 0.015553 0.072036 0.062045 -0.072585 0.278672 0.264249 0.041105 -0.021212 -0.107070 0.063346 0.016459 -0.182119 0.128398 -0.040590 -0.389232 0.067132 -0.062496 -0.173590 -0.030906 0.277070 0.307307 -0.225765 -0.166115 -0.019017 -0.335922 0.001434 -0.263416 0.048921 0.142542 -0.215906 0.050561 -0.324667 0.072439 -0.195555 0.311187 0.393942 0.214699 0.181535 0.182676 0.078918 -0.037026 0.182671 -0.308443 -0.166946 0.233358 0.211656 -0.156813 0.025748 0.103158 0.022484 -0.375689 0.031913 0.366865 0.075162 0.046964 -0.401865 0.114113 0.257652 0.152871 0.231801 0.325742 0.096826 0.203550 -0.154292 -0.045948 0.308323 0.224222 -0.170149 -0.330436 0.332177 0.210876 0.031094 0.292542 -0.135321 -0.225411 -0.171293 0.068260 0.175752 0.504818 -0.139733 0.254412 0.003853 0.144398 -0.159346 0.360789 -0.313189 -0.260451 0.231171 0.117114 -0.367767 -0.392364 0.203268 -0.051335 0.070091 0.214995 -0.466345 0.322640 0.225152 0.164957 -0.162232 0.057315 0.145705 -0.433521 -0.083176 0.223766
我 -0.085893 0.329425 0.195620 -0.171235 -0.291126 0.040060 -0.317690 0.174341 0.287674 0.012956 -0.258098 0.341267 -0.382848 0.359196 -0.246225 0.086993 -0.061168 0.391576 0.032544 0.037477 -0.007469 -0.182941 -0.143800 0.246124 -0.110178 0.142089 0.048932 0.150442 -0.194072 -0.014197 -0.163816 0.135359 0.296355 0.066863 0.039645 0.044661 0.045674 0.050163 0.111463 -0.105426 -0.150103 -0.381839 0.082916 -0.080964 0.054956 0.083230 0.011721 -0.080393 -0.178731 -0.293559 0.090241 -0.006931 0.218665 0.248969 0.054548 0.293803 -0.222974 -0.118660 0.439122 0.201781 -0.051307 -0.027198 -0.068948 0.244815 -0.018898 0.069348 -0.066705 0.271103 -0.000648 -0.146168 0.026175 -0.185715 0.141432 -0.126848 -0.218206 -0.287619 -0.000911 -0.045407 -0.143991 0.120820 0.360309 -0.146154 -0.013523 0.290803 -0.034897 -0.097786 -0.279369 -0.263710 0.084044 -0.149208 0.090525 -0.173133 0.130091 0.095275 -0.056301 0.279772 -0.130300 0.131666 -0.052841 -0.213915 0.035105 0.090949 -0.018667 -0.030771 -0.072002 -0.135364 -0.053160 0.360055 -0.285855 0.074234 -0.315926 0.040789 -0.042268 -0.135472 0.041750 -0.163579 0.130452 -0.082556 -0.052744 -0.024924 -0.244892 0.451532 -0.028934 -0.169081 0.163281 -0.440386 0.044077 -0.355661
一 0.199576 0.118077 0.457758 -0.180165 -0.213250 0.039985 -0.086167 0.083654 -0.179508 -0.294255 -0.020239 0.093247 -0.225057 -0.038315 -0.078046 0.059267 0.025713 -0.088549 -0.271463 -0.116705 -0.139516 0.050715 -0.200903 0.124310 0.142312 -0.016581 0.155872 0.080002 0.106913 -0.120549 0.079112 -0.240414 0.068071 0.006360 0.132345 0.250936 0.011764 -0.261904 0.128023 0.023320 0.118977 -0.185858 -0.044659 -0.114509 0.017840 0.083501 0.183497 0.016058 -0.109083 -0.205858 0.237317 -0.175402 0.063878 0.044050 0.150279 0.121629 0.059536 -0.143868 0.162425 -0.157737 -0.120451 -0.177413 0.129807 0.130954 -0.017687 -0.172741 0.197211 0.199464 0.175181 -0.139334 -0.184563 -0.094557 0.264708 -0.018226 0.170080 -0.172795 -0.061228 0.029123 -0.358471 0.319086 0.668204 0.325254 0.206908 0.123851 -0.133170 0.332670 -0.392930 0.064164 0.259400 -0.088523 0.101865 -0.172301 0.162634 0.059095 -0.003288 0.167592 -0.026965 0.016043 -0.395526 -0.063953 -0.026826 0.457630 -0.107224 0.056445 -0.031437 0.089916 -0.432244 0.277053 -0.341502 0.068773 -0.183210 0.189329 -0.114387 -0.134771 -0.060530 -0.060520 0.022227 -0.267434 0.011764 -0.022560 -0.141358 0.188170 -0.119198 -0.044925 0.236159 -0.062752 -0.113742 -0.080445
经 0.047769 0.355610 0.068295 -0.176022 -0.406701 -0.393943 -0.258878 0.377163 0.386915 -0.440276 -0.101643 -0.258981 0.597631 0.086896 -0.038181 0.194365 -0.212742 0.114185 -0.362429 0.113085 -0.094391 0.178979 -0.064224 -0.016310 0.001671 0.000221 -0.222424 -0.023560 0.317719 -0.103692 -0.038632 0.477569 -0.043813 -0.211568 0.013121 0.198915 -0.581410 -0.552027 -0.016698 0.063680 0.457535 -0.274428 -0.131220 0.003678 -0.156353 0.214161 0.082301 -0.229634 0.533688 0.003888 0.959770 0.006954 -0.195254 -0.415650 0.250992 0.407256 0.209659 -0.085819 0.393361 0.404654 -0.617934 0.030599 -0.336841 -0.329675 -0.085835 0.215405 -0.470481 -0.159501 -0.094007 -0.147363 -0.210016 -0.490356 0.266525 -0.274449 0.356237 -0.509796 0.154278 -0.098822 -0.144969 0.124739 0.307746 -0.251870 0.535923 0.076949 0.039956 -0.117340 -0.327852 -0.159984 0.195904 0.002911 0.041884 -0.298693 -0.236614 0.691192 -0.505376 0.308996 -0.061329 0.140217 -0.208998 0.111132 -0.033308 0.163122 -0.159506 0.341479 0.221793 -0.152182 0.047865 -0.205961 -0.369271 0.053674 -0.151329 0.470856 0.171405 -0.384051 -0.129133 0.142649 -0.069146 0.185693 -0.786084 0.103193 -0.113598 -0.514671 0.106077 -0.267923 0.407278 0.189462 -0.343006 -0.263224
个 0.187271 0.327172 0.103409 -0.355256 -0.358007 0.072848 -0.305677 0.384604 -0.144555 -0.277552 -0.185892 0.078503 -0.445537 0.096547 0.184714 0.207641 0.036814 -0.153084 -0.065942 -0.095390 0.057342 -0.002453 0.087253 0.271937 0.192325 0.169219 0.037124 0.052477 0.332619 -0.204588 -0.005502 -0.054837 -0.081644 0.102901 0.049488 0.162086 -0.305933 -0.155457 0.157039 -0.130709 -0.449545 -0.427068 0.018188 -0.109135 0.145142 0.160822 0.260655 -0.080873 0.142928 -0.159572 0.349146 -0.239924 0.020088 -0.142536 0.200982 0.359199 -0.045205 -0.052006 0.245398 -0.183291 -0.084181 -0.460372 0.057192 -0.313634 -0.557914 0.221595 -0.093856 0.073123 -0.042862 -0.261871 -0.142898 0.136107 0.017549 -0.379810 -0.100561 -0.118736 0.194343 -0.215464 -0.203379 0.061717 0.466308 0.193408 0.270090 0.017469 -0.027815 0.116736 -0.471052 -0.120059 0.247953 0.092445 -0.056481 -0.251828 0.176585 0.071569 0.072357 0.209572 -0.073904 0.329204 -0.245210 -0.064637 0.424240 0.497242 0.160687 0.199926 0.216853 -0.094499 0.010941 0.476085 -0.349092 0.132921 0.019586 -0.153925 -0.124030 -0.145444 -0.201977 0.110943 -0.064684 -0.104541 0.011411 -0.236430 -0.102536 0.294673 -0.211378 -0.113594 0.201944 0.103863 -0.228738 -0.362350
宫 -0.125400 -0.140615 -0.156512 -0.032907 -0.189350 -0.044295 -0.206105 -0.233018 0.358197 -0.227220 -0.220257 0.409606 -0.041310 0.324415 0.475664 0.152912 0.284489 -0.189913 0.231036 0.053479 0.372335 0.203523 0.167205 -0.411494 0.046585 0.074249 -0.252951 0.342363 0.270871 0.078597 0.107496 -0.521466 0.075113 -0.099687 -0.122078 0.278292 -0.231781 -0.502511 0.096908 -0.087046 -0.078278 -0.203974 0.455807 0.384250 -0.164291 -0.360859 0.033575 0.060749 0.183751 -0.088467 -0.282056 -0.303702 0.001143 -0.146648 -0.189046 -0.148965 -0.168559 0.531243 -0.335520 0.216993 0.356904 -0.117353 -0.017812 -0.096546 0.477116 -0.418429 0.057339 0.010365 -0.078296 0.031716 0.174075 0.067839 0.175996 0.072153 -0.164300 0.290134 -0.272870 -0.023249 -0.504838 0.033440 0.198954 0.362674 0.295950 0.257883 0.053750 0.282050 -0.055679 -0.069613 0.157465 0.355179 -0.331589 -0.310722 0.020779 0.869119 -0.367293 0.263391 0.153214 -0.377650 0.341948 -0.174991 0.347683 0.303826 -0.055070 0.120276 0.064377 0.319119 -0.017996 0.243829 0.142076 -0.193206 0.245312 0.259289 -0.695924 -0.189113 0.499020 -0.002327 0.203625 0.293165 -0.596779 0.567183 0.171151 -0.211810 0.149124 0.083568 0.673644 -0.026413 0.050827 0.623445
. 0.142893 -0.512873 0.014277 0.024587 0.158455 -0.004904 -0.722759 -0.005831 0.406717 -0.258977 -0.077422 0.027589 -0.279377 0.027145 0.416908 -0.550747 0.004366 0.098201 0.416643 0.189803 0.036927 0.201560 0.110270 0.463162 0.172025 0.279357 0.179812 0.446541 -0.185972 -0.075695 0.042229 0.102827 -0.071729 0.218382 0.180347 -0.049927 -0.145458 -0.313789 -0.075166 -0.168373 -0.048359 -0.585549 -0.188105 -0.230032 0.258291 0.120414 0.095218 0.414685 -0.185108 0.211046 0.209534 -0.103017 0.019408 -0.011184 -0.332398 -0.273939 -0.312055 -0.016480 -0.120819 -0.396060 -0.121992 0.410837 0.167190 -0.279470 -0.032052 -0.062712 -0.629693 -0.215834 0.054691 0.053467 -0.318642 -0.023419 0.570316 -0.205996 -0.381000 -0.233206 -0.087498 -0.179370 -0.199693 -0.248673 0.252282 -0.178529 0.329563 0.427191 0.305348 -0.156276 -0.205302 0.026968 0.611276 0.023174 -0.338982 -0.488402 0.089793 0.803628 0.004535 0.175096 0.083022 0.124500 0.001473 0.102165 0.056004 0.299604 0.130115 0.024961 -0.374692 -0.146015 -0.168868 0.241902 -0.160799 -0.284491 0.024572 -0.120173 0.347586 0.268377 0.281570 -0.256287 0.169299 0.051870 -0.100819 0.032155 0.207528 0.198443 -0.269966 0.342244 0.384010 0.250850 0.325079 0.103711
化 0.203329 -0.017792 0.055645 0.085560 -0.272921 0.047253 0.029081 -0.057277 0.049488 -0.089235 -0.033776 -0.191044 -0.021208 -0.060231 0.035992 -0.182529 -0.077079 -0.241001 0.020726 -0.019336 -0.233438 -0.091048 0.148077 0.169368 -0.184247 0.107336 0.156483 0.106731 0.412436 0.105074 0.155716 -0.318209 -0.180039 -0.085714 -0.095550 0.183042 -0.059870 -0.099484 -0.020370 -0.189670 0.207833 -0.004174 -0.069334 -0.442178 0.072167 0.143455 0.269893 0.121160 -0.105936 -0.147088 0.257508 -0.097065 -0.211457 -0.417300 -0.114297 -0.231660 0.169001 0.197227 0.038048 -0.205797 -0.177196 0.400867 -0.085026 -0.514338 0.393310 -0.132311 -0.088789 0.044037 0.109313 -0.297971 -0.099449 -0.259117 0.295795 0.495784 -0.056870 0.104871 -0.078869 -0.053631 -0.198654 0.199907 0.256784 0.308904 -0.402182 0.171511 -0.211751 -0.001193 0.255581 0.177997 0.149589 0.409211 0.138844 0.018717 -0.121609 0.499543 -0.291673 0.089180 -0.066888 0.434763 -0.267298 0.146375 0.075369 0.394043 0.084484 0.101667 0.108872 0.062166 -0.062929 0.335535 -0.026432 -0.178574 -0.017256 0.586606 -0.221583 -0.197193 0.395346 -0.316702 -0.214043 0.163404 -0.121677 0.081420 -0.368336 -0.167829 0.405741 0.230406 0.541171 0.444699 -0.119921 0.319826
医 0.306762 0.441397 0.112070 0.295859 -0.910964 -0.019390 -0.132532 0.281149 0.170525 -0.284876 -0.053281 -0.083598 -0.410055 0.172647 -0.205173 -0.303907 -0.194414 0.203232 0.377030 -0.134050 -0.086447 -0.202973 0.228759 -0.143041 0.303758 -0.170474 0.136201 -0.184940 -0.132208 -0.084494 0.581010 0.032021 0.203987 -0.087359 -0.029578 -0.183075 -0.232621 -0.032036 0.236619 -0.223794 -0.265805 0.042451 0.078643 -0.476038 -0.149663 0.110769 0.084114 -0.264302 0.606103 0.112913 -0.036614 -0.210113 0.151444 0.103158 0.182751 -0.050642 -0.646568 -0.134525 0.492706 -0.106553 0.430658 -0.216719 -0.129317 0.191961 0.047509 -0.033372 -0.098290 0.139860 -0.204081 -0.232516 -0.015687 0.363988 0.111382 -0.258251 -0.101037 -0.312293 -0.333678 -0.333721 -0.011764 0.296171 0.071166 0.076020 -0.070624 0.197412 -0.376583 -0.483148 -0.044530 -0.316103 0.236914 0.104728 -0.394523 -0.157654 0.154696 0.066098 -0.048764 0.190801 -0.208501 0.483082 -0.497961 -0.179082 0.142535 0.177925 0.288383 0.119749 -0.015532 0.283697 -0.105279 0.361310 0.318404 -0.304306 -0.036487 -0.042774 -0.508313 0.035497 -0.266466 -0.290163 0.142560 -0.386100 -0.272781 0.013417 -0.496348 0.271244 0.057816 0.034750 0.409258 -0.084529 0.082833 0.286551
哪 -0.043288 0.281686 -0.090154 -0.013700 -0.545279 -0.151723 0.293887 -0.037953 0.486185 -0.307779 0.192691 0.582690 -0.542517 0.164922 -0.122082 0.021401 -0.167505 -0.395515 0.091049 -0.342489 -0.293147 0.540534 0.182856 -0.704274 0.351427 0.046634 -0.143453 0.325486 -0.225389 -0.068739 0.338831 -0.716868 0.113272 -0.032639 -0.212474 0.187492 -0.286296 -0.635195 -0.139758 0.141359 -0.350174 -0.361830 0.332499 -0.295882 0.340819 -0.136528 0.131322 0.155122 -0.069668 0.039567 -0.053470 -0.399682 0.316271 0.227903 -0.111996 -0.202673 -0.578216 -0.271333 0.367195 -0.524675 0.422720 -0.333638 -0.500163 0.590187 0.096090 -0.287362 -0.318308 -0.222425 -0.238021 -0.120157 0.030864 0.242140 0.275306 -0.033961 0.112894 -0.272931 -0.064246 -0.097879 0.382588 0.074104 0.768930 0.142425 0.071629 0.210256 -0.324400 -0.123808 0.144022 -0.098383 0.073908 -0.187222 -0.545020 -0.404158 -0.266475 -0.029862 -0.037422 -0.223147 -0.293109 0.052026 -0.392444 -0.065462 -0.032903 0.281261 0.473569 0.118687 -0.091345 -0.140257 0.105576 0.523214 0.016856 -0.093115 -0.081938 0.452334 -0.223272 0.108273 -0.168220 -0.383408 -0.194324 -0.074900 -0.203298 -0.241812 -0.397947 -0.146586 0.118123 0.024722 0.893390 0.060006 0.304674 0.023277
肉 0.003711 0.099885 0.252466 0.178228 -0.287594 -0.209933 -0.075927 0.357387 -0.083009 -0.346999 0.117201 -0.168166 0.077069 0.092626 -0.061722 0.289078 0.444159 -0.023871 -0.174627 0.022724 0.551426 0.192168 -0.209821 0.132486 0.564606 -0.083919 0.008126 0.224058 0.245072 0.076278 0.136003 0.106193 -0.094048 -0.269818 0.235446 0.139000 -0.271171 -0.590623 -0.155598 -0.024081 0.240303 -0.299053 0.320976 0.165648 -0.004191 0.002316 0.198961 0.112739 0.481565 -0.291678 0.207143 0.044276 0.129889 -0.311476 -0.241718 -0.075430 0.194403 -0.033924 -0.366076 -0.040002 -0.093441 -0.227426 -0.156224 -0.351950 -0.126136 -0.308349 -0.163849 0.441742 0.051080 -0.117155 -0.123136 -0.265578 0.521649 -0.060205 -0.055643 0.096126 0.061136 0.203867 -0.400700 -0.114978 0.032596 0.185691 -0.155810 0.309636 -0.394008 -0.211098 -0.228167 -0.178110 0.042308 0.153069 -0.431498 -0.063217 0.209629 0.316931 -0.127607 -0.192140 -0.017639 0.195280 -0.146077 0.086202 0.109707 0.258549 -0.093893 0.266766 0.217635 0.137113 -0.083836 0.407033 0.136322 0.071213 0.127515 0.421797 -0.076974 -0.401119 0.263028 -0.236691 -0.203425 0.280536 -0.634345 0.261504 -0.007544 0.014934 -0.037529 0.139073 0.322700 -0.247083 -0.190251 0.489012
管 0.063546 0.534934 0.420629 0.230858 -0.328257 -0.030451 0.018619 0.368765 0.068834 -0.365238 0.502075 -0.435590 -0.008431 -0.161452 -0.320255 0.136121 -0.020059 -0.040877 -0.132903 -0.035304 0.069755 0.035774 -0.074341 -0.430168 0.514842 -0.039842 -0.157647 0.136523 0.233481 -0.245478 0.022160 -0.051266 -0.015272 -0.241081 -0.031396 -0.112672 -0.364544 -0.473806 0.119202 0.270504 -0.014602 -0.214128 0.181435 0.029444 -0.135452 0.233890 0.192211 -0.102300 0.246924 -0.176243 0.437308 -0.664654 0.248821 -0.221027 -0.096138 0.024620 0.206061 -0.034230 -0.101237 -0.231862 0.023244 -0.280797 0.195171 -0.158730 0.185675 -0.162311 -0.301662 -0.132526 -0.242780 -0.225941 -0.079475 0.029028 0.325765 0.015170 0.216161 0.276430 -0.172609 -0.009844 -0.150156 0.237042 0.246941 0.206228 0.137400 -0.022911 0.120462 -0.186580 -0.458297 -0.364838 0.444892 0.080006 -0.401901 0.131138 0.059099 0.213472 0.137219 0.091460 0.336153 0.058247 -0.748025 0.213779 -0.111365 0.040846 0.017382 0.339472 0.139365 -0.085004 0.094834 0.364691 0.205641 -0.191572 0.055099 0.454589 0.421005 0.123144 -0.236420 -0.197807 -0.272386 -0.196423 -0.431216 0.272724 0.004337 0.182897 0.102333 0.380693 0.319858 0.296946 -0.101845 0.095609
肺 0.216409 0.050140 0.191210 0.222869 -0.311049 0.312079 -0.073299 -0.014643 -0.063668 -0.036561 0.096556 0.106988 0.078864 0.263054 0.072893 0.298544 -0.209217 -0.075765 0.032898 -0.052671 0.133328 -0.048537 0.031269 -0.128044 -0.091060 0.052384 -0.412525 0.172952 0.296848 0.029976 0.062983 -0.095880 -0.001229 -0.049255 -0.127126 -0.112533 0.174774 0.049952 0.098631 -0.131143 -0.099435 0.034711 -0.203287 -0.113000 -0.033995 0.217473 0.282032 0.050434 0.070320 -0.342980 0.280167 -0.223578 0.056324 -0.157801 -0.031415 -0.000425 0.081040 -0.127734 0.462849 0.155539 0.087793 0.005193 -0.296625 -0.166861 0.078806 -0.143391 -0.141562 0.020997 0.464287 -0.079154 0.094097 -0.189186 -0.061679 0.300434 -0.096558 -0.064515 0.016870 -0.112149 -0.042634 0.166649 -0.063919 0.089425 -0.182719 0.098000 0.072002 0.020565 -0.051862 -0.165967 0.240428 -0.048816 0.238481 -0.034767 -0.025772 0.368148 -0.131501 0.330473 0.186748 -0.061761 -0.028553 -0.143853 0.089762 0.203138 0.060446 0.002048 -0.090063 0.135828 0.166288 0.096147 0.138949 -0.385953 -0.204079 0.635033 -0.232553 -0.096733 0.105181 -0.302520 0.051853 0.057521 -0.232111 -0.086684 -0.131601 0.053821 0.313009 -0.019977 0.088487 0.060017 0.070932 0.254910
骨 -0.092862 -0.047157 0.162103 0.170125 -0.321564 0.077621 -0.078379 0.325882 -0.302259 -0.024161 0.116974 -0.497645 0.289515 -0.058579 -0.223181 0.193299 0.382316 -0.114080 -0.093943 0.065972 0.433003 -0.184150 0.198858 0.192884 0.361630 -0.281581 -0.173275 0.085817 0.428514 0.087790 0.071394 0.315735 -0.198085 -0.092668 0.382543 -0.032457 -0.079692 -0.125493 -0.181609 -0.064991 0.210707 0.018531 0.220618 -0.155761 -0.208737 0.037862 0.350891 -0.115901 0.334875 -0.089731 0.206923 -0.110704 0.199187 -0.257296 0.090253 0.171666 0.012674 0.025500 0.264742 -0.063958 0.209037 -0.072728 -0.269329 -0.234320 0.004063 -0.450301 -0.008135 0.215347 0.244810 0.133517 0.152954 -0.282394 0.383430 0.037023 0.094205 -0.241780 0.127764 -0.060001 -0.319064 -0.170042 -0.060213 0.151937 0.110464 0.011905 -0.539131 -0.161232 -0.367340 -0.178390 0.135758 -0.063555 -0.066061 -0.180459 0.284434 0.163836 -0.202723 0.051140 -0.095564 0.031159 0.027198 -0.253700 0.144751 0.225920 -0.167049 -0.010174 -0.167264 0.248392 -0.056828 0.174076 0.446141 0.061500 0.032357 0.654371 -0.310663 -0.264416 0.183531 -0.465651 -0.227365 0.476847 -0.331103 0.076778 0.250528 0.111301 0.230625 -0.096643 0.162192 -0.250126 -0.047083 0.589712
可 0.069864 0.321706 -0.073317 -0.182711 -0.364775 0.326394 0.189840 -0.078748 0.532353 0.250217 -0.371152 0.086309 -0.347937 0.436557 0.008491 0.008147 -0.161981 0.154439 0.285298 0.363449 -0.122331 -0.219556 -0.028248 -0.316856 0.313115 0.401367 0.074621 -0.015218 0.293474 -0.118018 0.370451 0.161908 0.020566 -0.854201 0.076032 0.163034 0.042125 -0.352649 -0.093846 -0.029884 0.284328 -0.160805 0.023089 -0.230656 -0.029258 -0.080024 -0.005464 0.125105 -0.091967 0.074987 0.237492 -0.107010 -0.177729 -0.258193 0.112819 -0.232324 0.038018 -0.010276 0.196352 -0.021929 0.105942 -0.232984 -0.216777 0.057811 0.230644 0.164963 -0.060872 -0.358087 0.154518 0.212955 -0.298675 0.090559 0.074654 0.011499 -0.036954 -0.224783 -0.014184 -0.172504 0.165485 -0.000766 0.105001 -0.205177 0.216560 -0.016132 -0.705269 -0.439469 0.094559 -0.188990 0.113739 -0.004762 -0.279223 -0.261416 0.269471 0.326349 -0.160755 0.371275 0.174642 0.434065 -0.228127 -0.108271 -0.089110 0.241555 0.259468 0.070889 -0.201848 -0.187276 0.155629 0.146781 0.090809 -0.481988 0.029170 0.039972 0.006242 -0.071787 -0.164839 -0.493598 0.187857 0.331255 -0.366648 -0.323128 -0.123470 -0.184946 -0.095858 0.253309 0.306137 0.069657 0.175215 -0.004683
? 0.039300 0.065385 -0.082879 0.073388 -0.283951 0.061889 -0.054709 0.016580 0.379970 -0.068058 -0.183525 0.075237 -0.502271 0.164450 -0.016925 0.120302 0.291926 0.132602 -0.055219 -0.058872 -0.127970 0.250739 0.239873 -0.324175 0.341321 0.115375 -0.078238 0.243821 0.002152 0.055614 0.064177 -0.110874 0.023950 -0.390739 -0.093645 0.011135 0.048277 -0.161555 -0.043788 0.073773 0.165524 0.067204 0.228238 0.047600 -0.110945 0.144679 -0.059626 0.163734 -0.189910 -0.232686 -0.218474 -0.103319 0.224368 0.167782 -0.269304 -0.470723 0.221605 -0.217103 0.035778 0.106454 0.233324 -0.115710 -0.157476 0.095730 0.216327 -0.198221 -0.100356 -0.085896 0.137696 0.106544 -0.159982 -0.221818 0.327740 0.099187 0.035387 -0.165674 -0.013015 0.030986 0.127894 -0.037652 0.323850 -0.044168 0.091024 0.180745 -0.503991 -0.413772 0.064512 0.140555 0.051201 -0.230926 -0.141311 -0.331187 0.272670 0.366676 0.158675 0.062869 -0.175884 0.125769 -0.239835 -0.109753 -0.132362 -0.020415 0.209469 -0.090497 -0.013463 0.142638 0.384304 -0.059296 0.176711 -0.226710 0.151293 0.195240 -0.133141 -0.168904 0.159226 -0.469847 -0.074239 0.117286 -0.285826 0.046246 -0.049709 -0.033784 -0.094647 0.032927 0.320809 -0.089227 0.146411 -0.026783
维 0.238518 0.348001 -0.236163 -0.163404 -0.645446 -0.143146 -0.105901 0.137357 0.143704 -0.413689 0.185484 -0.425993 0.437558 -0.013201 -0.022291 0.398786 -0.304810 -0.346370 -0.186028 0.364403 -0.095794 0.252830 -0.320988 -0.193132 0.118979 0.020894 -0.247779 -0.402913 0.201014 0.098908 0.004583 0.607216 -0.427633 -0.591382 0.231368 0.082771 -0.296149 -0.656099 -0.269114 0.420444 0.548046 -0.027012 0.057331 -0.063779 0.100619 0.036362 0.070142 0.037379 0.327881 -0.053141 0.694924 -0.324626 -0.327316 -0.326274 -0.034611 -0.096448 0.177761 -0.121054 -0.157151 0.068382 -0.180555 -0.262950 0.059802 -0.446159 -0.182200 0.293304 -0.434253 -0.077057 -0.009657 -0.197673 -0.515482 -0.581114 0.710007 -0.037193 0.332852 -0.167099 -0.026721 0.209925 -0.141688 -0.035352 0.207660 -0.333266 0.038457 0.047383 -0.309958 -0.282530 -0.141553 0.153903 0.380189 -0.101474 -0.396098 0.066338 0.115013 0.532054 -0.167899 0.133746 0.042663 0.289642 -0.664178 0.021182 -0.351082 0.090609 0.214451 0.357288 -0.129587 -0.188670 0.233255 0.086103 -0.374994 -0.320519 0.155684 0.492954 0.308658 -0.515876 -0.149001 -0.336653 -0.303464 -0.080780 -1.048957 -0.014113 0.006716 -0.053419 -0.213629 0.335742 0.535803 0.170920 0.001017 0.259689
头 0.472898 0.278183 0.466279 -0.183217 -0.338012 0.256810 0.206729 -0.178943 0.239594 -0.648878 0.371513 -0.188485 0.064501 0.027266 -0.075209 0.187221 0.035123 -0.445035 -0.088928 0.015701 -0.027167 0.246985 -0.297382 -0.101543 0.267293 -0.251299 -0.302050 -0.119163 0.137054 0.048803 0.102931 -0.348505 -0.222209 -0.057343 -0.110178 0.018905 -0.164520 -0.334820 -0.086077 -0.199202 -0.159899 0.194445 -0.151341 0.122824 -0.180699 0.110539 0.135665 -0.143401 0.018313 -0.322478 0.143150 -0.134257 -0.310067 0.184577 0.301013 0.017556 0.107253 -0.176972 0.239675 -0.053563 0.017348 0.023085 -0.168507 0.101329 -0.261395 -0.442953 -0.391434 0.179346 0.354134 0.016642 -0.264458 -0.503719 0.341597 0.049973 0.447828 0.187765 -0.034777 -0.173294 -0.071062 0.081990 0.291222 -0.073792 0.222856 0.420939 0.085711 0.152056 -0.630713 0.173264 0.189315 -0.028468 -0.046074 0.122515 0.044656 0.110852 0.048283 0.194222 -0.107545 -0.331512 -0.162305 -0.147175 -0.253758 0.376493 0.233551 0.220744 0.001806 0.067030 0.134565 0.431139 0.026814 -0.097509 0.120831 0.902646 0.335236 -0.227317 -0.226642 -0.213251 -0.423213 0.213796 -0.466003 0.237578 0.158165 0.512204 -0.119463 0.384809 0.333309 0.405358 0.076664 0.239030
纤 -0.028870 0.407845 -0.117165 -0.221264 -0.801168 -0.111136 -0.261118 0.076929 0.039541 -0.363176 0.190229 -0.175673 0.576008 0.143768 0.083510 0.477040 -0.287734 -0.414342 -0.074596 0.169979 -0.096816 0.175656 -0.219857 -0.099593 -0.090794 -0.203333 -0.422018 -0.088624 0.064334 0.305778 -0.005199 0.403441 -0.364641 -0.234265 0.019863 0.019378 -0.651715 -0.507995 -0.230386 0.294529 0.738277 0.096162 -0.019016 0.084235 -0.139674 -0.051486 -0.178843 0.156091 0.476577 0.030410 0.831636 -0.187861 -0.410472 -0.390445 0.318319 -0.264560 -0.076509 0.103368 0.142380 -0.240834 -0.314083 -0.531283 -0.461024 -0.559418 -0.408167 0.145824 -0.443634 -0.118085 0.183144 -0.057605 -0.606695 -0.581524 0.444155 -0.117617 0.275197 -0.439491 0.064323 0.190660 -0.189485 -0.290253 0.001001 -0.299845 0.046739 0.131461 -0.595325 -0.486219 -0.307961 0.262481 0.150217 0.058079 -0.455217 -0.103396 0.121605 0.416068 -0.272074 0.150771 -0.133731 0.290379 -0.276222 -0.060189 -0.132532 -0.076979 0.372074 0.321502 -0.124967 -0.227937 0.302527 0.379280 -0.236683 -0.218458 0.358537 0.733195 0.299559 -0.378969 0.082647 -0.313644 -0.242303 0.299777 -0.808575 0.084653 0.151840 -0.085151 -0.239071 0.215025 0.364817 0.531684 0.089723 0.471182
血 0.087880 0.357422 0.511241 0.175176 -0.348598 -0.005122 -0.352829 0.510520 -0.019475 -0.409939 0.080999 -0.408434 -0.321212 -0.205403 -0.148584 0.220609 -0.003203 0.030227 -0.083731 0.103035 -0.300792 -0.016262 -0.028713 -0.271064 0.154888 -0.183466 -0.096888 0.036966 0.115047 -0.089786 0.251160 -0.008325 -0.235973 -0.051686 -0.347388 -0.095647 -0.285599 -0.097837 0.181525 0.239830 0.337090 0.160413 0.179891 0.339790 -0.226892 0.201140 0.041987 0.084824 -0.190010 -0.245001 0.481920 -0.497199 0.151693 0.079057 -0.295271 -0.076604 0.317652 -0.382322 0.176927 -0.307800 -0.165507 -0.093719 0.157365 -0.109382 0.086784 -0.157299 0.006654 0.009243 -0.058276 -0.105640 0.088211 0.002742 0.323209 -0.150136 0.322319 0.190851 0.142937 0.111444 -0.207867 -0.061241 0.331787 0.088221 -0.019518 -0.085711 -0.190612 -0.252660 -0.344090 -0.382715 0.458137 -0.277821 -0.274367 -0.101110 0.122403 -0.094938 0.167463 0.205575 -0.016721 0.271685 -0.836109 -0.000876 0.032422 -0.067573 -0.052872 -0.002249 -0.163633 0.241108 -0.070283 0.271317 0.253105 -0.121112 0.065052 0.057748 0.091275 0.188462 -0.230750 0.101768 -0.034975 -0.206483 -0.108055 0.376091 0.073884 0.049245 -0.029165 0.029802 0.205830 -0.288558 -0.353827 -0.036902
中 0.097534 0.194425 0.080292 -0.083121 -0.508007 0.102420 -0.002241 0.011629 0.457336 -0.146930 -0.220197 0.198267 -0.165189 0.035751 0.191643 0.006334 -0.513693 -0.143656 0.069238 0.014359 -0.125069 0.272196 0.305840 -0.474231 0.141157 0.082854 -0.230542 -0.113550 0.237868 0.001823 0.438427 -0.308799 0.010527 -0.113272 -0.291424 -0.033635 -0.032444 -0.221459 0.191665 -0.024696 0.276942 -0.053324 -0.286457 -0.273821 0.191776 0.041825 0.061524 0.103968 0.298003 -0.112136 0.199205 -0.320713 -0.203992 -0.030838 -0.190601 -0.184945 -0.164917 0.021384 0.328001 -0.234103 0.379812 0.065389 -0.471762 -0.110261 -0.194166 0.231439 -0.213378 -0.001581 0.219460 -0.511945 0.100231 -0.094006 0.034432 0.098809 -0.347806 0.000544 0.004250 0.132840 -0.162483 -0.225202 0.000651 0.483523 -0.119015 -0.065174 -0.316515 -0.148547 0.386703 -0.039983 0.232192 0.217519 -0.019122 -0.126389 -0.043905 0.236483 -0.362729 0.170847 -0.165726 0.251552 -0.245211 0.060909 0.185695 0.128189 0.094601 0.242991 -0.235547 0.130558 0.010018 0.327543 0.042370 -0.374282 -0.142661 0.402631 -0.724544 -0.105181 0.305578 -0.242663 0.127366 -0.124045 -0.004512 0.113672 -0.211466 -0.369573 0.085799 -0.151988 0.406363 0.056591 -0.003815 0.187931
生 0.053810 0.444943 0.330620 -0.058032 -0.439003 -0.057817 -0.045199 0.329362 0.142474 -0.256205 -0.278823 -0.006041 -0.036303 0.303864 -0.146835 0.118783 -0.378315 0.094382 -0.155404 0.412711 0.097699 -0.184782 -0.039406 -0.051802 0.161655 -0.039417 -0.030818 0.090075 -0.074230 -0.137824 0.209758 -0.097462 -0.236811 -0.039498 -0.152969 0.040248 -0.081024 -0.025308 -0.131311 0.124561 0.070041 -0.114840 0.064990 -0.452036 -0.044856 -0.075727 -0.023880 -0.132873 -0.159084 -0.114563 0.337848 -0.201494 0.228104 -0.143858 0.061532 0.264569 0.149635 -0.081069 0.599536 -0.172235 -0.286807 -0.248546 -0.154291 0.130691 -0.050347 0.374889 -0.200449 -0.049111 -0.119845 -0.287319 0.137112 -0.575740 0.031696 -0.009084 -0.143497 0.060023 0.076696 0.153836 -0.063557 -0.208087 -0.055345 0.141581 -0.113152 0.106584 -0.295096 -0.318015 -0.256761 -0.088850 0.090936 -0.284970 0.129412 -0.227957 0.276557 -0.291149 0.080416 0.146783 -0.092251 -0.009715 -0.166653 -0.011688 -0.044396 0.221418 0.016016 0.029436 -0.241833 -0.091404 0.196581 0.056078 -0.089458 -0.085037 0.121787 0.227551 -0.130325 -0.409225 -0.003358 0.051119 -0.058660 0.225262 -0.018563 0.125783 -0.023833 0.032028 0.363116 0.067086 0.250694 -0.024793 0.035800 -0.026836
小 0.102881 0.201423 0.132720 -0.194176 -0.344604 0.501947 -0.430410 0.316706 -0.016713 -0.224738 -0.351306 -0.061320 -0.324758 0.189487 0.007758 0.037113 -0.034659 0.108844 -0.081895 0.042307 -0.117997 0.048934 -0.037814 0.191446 0.144248 -0.020612 -0.060968 0.009474 0.273667 0.107532 -0.012244 0.195944 -0.128263 0.007473 0.023247 0.018625 -0.022355 -0.019083 0.054788 -0.022004 -0.062351 -0.056489 0.046921 -0.036735 -0.241036 -0.027376 0.087144 -0.026181 0.121804 -0.183415 0.263001 -0.081884 -0.190794 0.128001 -0.134210 0.202241 0.001527 -0.150404 0.686345 -0.122857 -0.076538 0.021632 -0.052530 -0.184812 -0.023976 0.010424 -0.423668 0.223424 0.150212 -0.204051 0.018395 0.068399 -0.018937 -0.412901 0.100766 0.134194 0.162333 0.106625 -0.349820 0.023757 0.218181 -0.100558 0.331296 0.108870 -0.124593 -0.140615 -0.155307 -0.000072 0.253490 -0.140509 -0.072637 -0.191659 0.255804 -0.068302 0.206005 0.360158 -0.216879 0.065053 -0.383133 -0.055908 0.081330 0.204893 0.035775 0.166772 -0.130524 -0.030016 0.161225 0.399757 -0.179495 -0.181400 -0.002956 -0.013279 -0.101374 -0.305537 -0.022499 -0.065434 -0.059015 0.317180 -0.208697 -0.085178 0.307130 0.171282 -0.106010 -0.069089 -0.042927 -0.269459 -0.127125 -0.019467
神 0.380080 0.331282 -0.015926 -0.243948 -0.301185 -0.240733 -0.417395 0.356733 0.350422 -0.376368 0.083925 -0.325732 0.543424 0.198745 -0.089264 0.250091 -0.247331 -0.043086 -0.413081 0.057497 -0.238998 0.432265 0.041787 0.068599 0.108501 -0.278190 -0.148501 -0.269990 0.313363 0.116048 -0.005642 0.368173 -0.156249 -0.138375 -0.155777 0.114894 -0.583836 -0.458437 -0.035307 0.357049 0.622211 -0.217991 -0.277060 0.180171 -0.102497 -0.010437 0.002565 0.100402 0.499984 -0.011843 0.841988 -0.127391 -0.479533 -0.332235 -0.004223 0.120423 -0.025417 -0.182081 0.453247 0.349325 -0.126471 0.563986 -0.398950 -0.239902 -0.290829 0.204491 -0.774716 0.096251 0.125372 -0.518044 0.125625 -0.656234 0.331388 -0.160159 0.044330 -0.115182 0.180220 0.310800 -0.601057 0.004740 0.120947 -0.133921 0.242009 0.003836 -0.034556 -0.107248 -0.128146 -0.022727 0.319710 0.191608 -0.059154 -0.317257 -0.018057 0.416136 -0.474033 0.247154 -0.331454 0.181392 -0.156760 0.066807 -0.221015 0.083189 -0.103247 0.379918 0.142182 -0.140389 0.150411 0.094439 -0.598432 -0.126977 -0.440737 0.408335 -0.119790 -0.634378 0.114288 -0.026185 0.131134 -0.143830 -0.679155 0.394726 0.020660 -0.566739 -0.018531 -0.103814 0.170108 0.114709 -0.336117 -0.017208
以 -0.034426 0.310775 -0.146418 -0.370512 -0.436253 0.374340 0.052034 0.078073 0.686730 0.190793 -0.443380 -0.271727 -0.265247 0.131249 -0.176233 -0.069155 -0.016511 -0.171372 0.249182 0.220327 -0.149046 -0.022070 -0.095626 -0.080077 0.291958 0.454616 -0.038733 0.112971 0.463272 -0.318903 0.020431 0.092683 -0.113600 -0.516201 0.031968 -0.189040 -0.172600 -0.048178 0.113763 -0.172575 0.498297 -0.330396 0.062598 -0.289946 0.038728 -0.038121 0.238714 0.104918 0.147626 -0.271144 0.072909 -0.095862 0.003426 -0.126474 -0.047178 -0.095322 0.001610 0.204784 0.126301 -0.005335 0.162622 0.121123 -0.351400 0.057935 -0.102552 0.165160 0.131642 -0.147795 0.436710 0.122598 -0.058189 -0.133026 0.334247 0.157773 -0.045240 -0.216620 0.133770 -0.011378 -0.175770 -0.066451 0.092385 -0.159636 -0.057468 -0.039475 -0.610746 -0.279600 0.131127 -0.015577 0.015966 -0.118487 -0.079573 0.008890 0.334729 0.196416 -0.327408 0.046169 -0.177678 0.287741 -0.103680 0.109968 -0.228265 -0.008820 0.267316 0.267335 -0.006796 -0.116517 0.339582 0.430237 0.214024 -0.229660 -0.249815 -0.032229 -0.203047 0.123666 0.120204 -0.588345 -0.105177 -0.068144 -0.423316 -0.498075 -0.308757 0.274371 -0.512972 0.071710 0.219016 -0.130814 0.236496 0.246925
得 -0.018121 0.255401 0.014537 -0.164858 -0.168579 0.380099 0.093100 -0.163240 0.075471 0.091915 -0.430716 -0.021346 -0.128749 0.208589 0.061133 0.455837 -0.114748 0.001163 -0.144804 0.131543 0.032674 0.235736 0.007120 -0.406390 0.051197 0.169857 -0.261875 -0.152266 0.234858 -0.190628 -0.209818 0.271304 -0.034608 -0.106083 0.273205 0.033451 0.165303 -0.216146 0.255332 0.176568 0.216105 -0.198684 0.017295 0.311026 -0.317687 0.186182 0.097692 0.072191 0.089381 -0.308613 0.224343 -0.377651 -0.192937 0.157331 0.088754 0.323112 -0.158090 -0.043992 0.254996 0.400306 -0.093428 -0.135235 -0.164018 -0.065768 -0.097822 0.066811 -0.106060 -0.017809 -0.024054 -0.141168 0.130003 -0.284382 0.257829 -0.248695 0.257054 -0.167313 0.165670 0.120920 -0.371842 0.138781 0.331002 -0.134152 -0.014456 0.317006 0.006472 0.095434 -0.420636 -0.100772 0.209955 -0.134077 0.000112 0.154472 0.081822 0.267292 -0.100201 0.391034 0.083270 -0.260194 -0.051151 -0.261619 -0.132287 -0.016560 -0.157800 0.151747 -0.059784 0.172548 0.250433 0.281881 -0.173173 -0.241358 -0.018378 0.021336 -0.013964 -0.164639 0.027054 -0.073204 0.115032 -0.059475 -0.505329 -0.071438 0.160946 0.282383 -0.356947 -0.125338 0.253323 -0.300537 -0.102389 0.106303
吃 0.225626 -0.022044 -0.143325 -0.045495 -0.431177 0.176799 0.060409 -0.209311 0.408865 0.124403 -0.409016 0.067127 -0.385072 0.339459 0.245279 0.399272 -0.186141 0.032340 0.024815 -0.025252 0.176299 0.161950 0.178870 -0.113397 0.145498 0.397936 -0.014671 -0.312360 0.065765 0.136262 0.224116 0.093088 0.267070 -0.343886 0.076598 -0.009204 -0.296554 -0.478661 -0.052152 0.279923 0.534943 -0.159589 -0.284364 -0.039971 0.009513 0.179842 0.166324 0.065479 0.095991 -0.182689 0.076853 -0.111454 -0.293500 0.003139 0.131752 -0.402407 -0.182667 -0.036767 0.168770 0.149409 0.136854 0.035316 -0.142225 0.111645 -0.237509 0.040453 -0.341960 -0.473190 0.576249 -0.262188 -0.304178 -0.235744 0.396435 -0.005410 0.023689 -0.252893 0.091826 -0.028051 0.099287 -0.138130 -0.022118 -0.182098 -0.236642 0.222421 -0.800650 -0.106610 -0.018764 0.107618 0.040866 0.082943 0.145717 -0.119199 0.351753 0.453652 -0.475974 0.193390 -0.030759 0.295295 -0.167610 -0.113567 0.071955 -0.079216 0.107298 0.036835 -0.182201 -0.006421 -0.197316 0.225919 0.092867 -0.296494 0.239078 0.385080 0.074757 0.065702 0.097178 -0.499328 0.148183 -0.061985 -0.304675 0.063504 -0.126950 0.021021 -0.218159 0.207129 0.408562 0.093180 0.230429 -0.000427
岁 -0.250236 -0.141083 0.271691 -0.351396 0.051324 0.684583 -0.668486 0.147954 0.289611 -0.121989 -0.481450 0.298205 -0.404272 -0.034342 0.188663 0.248561 -0.209346 -0.146328 0.353704 0.063556 0.194224 0.015757 -0.430845 0.735740 -0.345257 0.061314 -0.307451 0.120022 0.467697 0.117914 -0.262732 0.343975 0.092485 0.591763 0.308589 -0.284476 -0.504009 -0.141458 0.537524 0.128542 -0.010648 -0.687816 -0.188669 -0.074413 -0.319709 0.037445 0.236699 0.405934 0.083410 -0.169500 0.523121 -0.383424 -0.341286 -0.022396 0.171587 0.115564 -0.288559 -0.031669 0.466083 -0.173832 0.073575 -0.223696 -0.335648 -0.293911 0.031683 -0.238710 -0.530129 0.114735 0.245108 -0.158872 0.011393 -0.015660 -0.011928 -0.494397 -0.171454 0.045963 0.257874 -0.247031 -0.238129 0.158872 0.355320 -0.479578 0.351385 0.411486 0.201528 0.381607 -0.531732 -0.525453 0.301695 -0.201955 0.109816 -0.060189 0.137401 0.454184 0.005334 0.738446 -0.088075 -0.277959 0.049725 0.111946 0.141796 0.266178 -0.209486 0.589134 -0.114474 0.036833 0.070738 0.319397 -0.337872 -0.178324 -0.208271 0.155853 0.013473 -0.410094 -0.159424 -0.583047 0.329659 0.065804 -0.204344 0.033790 0.464627 0.378571 -0.279403 -0.077860 0.029912 -0.121185 -0.111983 -0.056390
恶 0.070364 0.057025 0.258448 0.312627 -0.243641 0.105633 -0.222527 -0.062278 -0.067330 -0.269607 0.060415 0.156992 0.279248 0.161927 -0.103192 0.102108 -0.017644 -0.057238 -0.002256 0.302339 0.175405 0.007216 -0.150916 -0.151723 0.551120 -0.072757 -0.093367 0.384125 0.095722 -0.071599 0.141621 -0.026917 -0.246239 -0.479042 0.030876 -0.029446 -0.242112 -0.277381 0.162245 0.152439 0.363180 0.108677 -0.087816 0.067677 -0.204742 -0.119683 0.006025 0.226881 0.014661 -0.045315 0.233584 -0.654343 0.072598 -0.281106 -0.135884 -0.078718 0.186052 -0.079899 0.026188 -0.143002 -0.106418 -0.180059 -0.370977 -0.277148 0.103561 -0.060628 -0.224846 -0.110437 -0.014835 0.055232 0.146856 -0.279577 0.282195 0.359962 0.223444 0.280174 0.143659 0.219192 -0.207655 -0.023878 -0.021465 0.053174 0.247489 -0.102389 -0.315339 -0.344389 0.092964 0.128837 0.450644 0.244547 -0.440130 -0.033823 0.116413 0.232426 -0.182422 0.362276 0.257564 -0.219664 -0.145037 -0.100327 -0.052137 0.544940 0.024865 -0.193853 -0.310952 0.336267 0.327320 0.138027 -0.211569 -0.532208 0.065767 0.129279 0.043441 -0.241391 -0.114496 -0.241206 0.035169 0.309191 -0.454641 0.240471 0.234648 -0.230124 0.128170 0.011849 0.118827 -0.002765 0.007052 0.560846
脑 0.259379 0.187212 0.325304 0.140078 -0.041125 0.183366 -0.245997 0.212065 -0.022817 -0.217515 -0.057504 0.009670 0.014451 -0.175666 -0.040720 -0.001928 -0.001724 0.036192 -0.059658 -0.180935 -0.084002 0.176209 -0.151909 -0.040500 0.236148 0.116493 -0.113155 0.018965 0.368884 0.176092 0.092703 0.134797 0.105617 -0.241553 0.145823 0.146211 0.113964 -0.499061 0.154058 -0.109194 0.338184 0.081369 -0.030146 0.207449 -0.210743 0.051192 0.094343 -0.151858 0.466312 -0.156075 0.103311 -0.147065 -0.162435 -0.059128 -0.200130 -0.058121 -0.226846 -0.035001 0.356081 -0.264635 0.284022 -0.004054 -0.031339 -0.158528 -0.044689 -0.153683 -0.261314 0.225873 -0.048959 -0.092533 0.164208 0.056230 0.083158 -0.116871 0.118250 0.004065 -0.031385 0.038904 -0.280867 0.067803 0.174782 0.309550 0.277088 -0.036347 -0.073567 0.165772 -0.218918 -0.143942 0.478316 0.208445 -0.172556 -0.062975 -0.053781 0.197847 0.108908 0.165706 -0.201882 -0.093600 -0.200684 0.077665 0.026721 0.194237 -0.180940 0.165473 -0.177725 0.248221 -0.166504 0.232974 -0.252889 -0.400544 -0.122164 0.270635 -0.244287 -0.268820 -0.076267 -0.179610 0.045810 0.172465 -0.059334 0.091146 0.001407 0.076986 -0.125325 -0.098572 0.022833 -0.004529 -0.258157 0.156119
现 -0.189870 -0.039705 0.149446 -0.208886 -0.011928 -0.061275 -0.050734 -0.096365 -0.129870 -0.641898 -0.090458 0.137456 0.014513 -0.024195 -0.044526 0.375939 -0.250021 0.252988 -0.055457 0.011461 0.222951 0.042582 -0.044732 -0.235204 0.347287 0.252551 -0.347881 0.245566 0.261172 -0.317021 -0.084439 -0.071820 0.285304 0.195596 -0.154823 0.265905 -0.264294 -0.596340 0.058355 0.042691 0.012860 -0.313070 0.209700 -0.013487 -0.015233 -0.008396 0.235979 -0.130149 -0.131905 -0.331057 0.356391 -0.280115 0.382263 -0.157932 0.068028 0.376859 0.025981 -0.137768 0.232529 -0.236182 -0.517914 -0.018944 -0.170086 0.289314 0.284278 -0.210286 -0.210848 -0.292208 -0.073032 0.084830 0.007480 -0.073607 0.189818 -0.113303 0.229686 -0.230655 0.157122 -0.166780 -0.117805 0.312473 0.479167 -0.059688 -0.059322 0.436386 -0.108692 0.291456 -0.624787 -0.149714 0.291958 -0.205261 0.129099 -0.504200 0.170401 0.006397 0.231634 -0.284464 0.124674 -0.106983 -0.064549 -0.478417 -0.013009 0.344001 -0.238849 -0.090278 0.008692 -0.321266 -0.317609 -0.163632 -0.246221 -0.061489 -0.105829 0.497871 -0.050512 -0.111519 -0.097712 0.268053 -0.051599 0.015739 0.174920 0.067430 -0.228699 0.408384 0.138899 -0.131921 0.292881 0.189919 -0.041390 0.180736
上 0.007479 -0.015036 0.123507 -0.163913 -0.453624 -0.061170 -0.049627 0.111619 0.091145 -0.515718 -0.028268 -0.069530 0.115932 0.231206 -0.179477 0.345419 -0.056584 -0.365229 -0.111917 0.040611 -0.078266 -0.160290 -0.244568 -0.294872 0.084073 -0.235455 -0.255544 -0.145117 0.083215 0.270462 0.124401 -0.463122 0.047878 -0.039948 -0.204705 0.046511 0.066547 -0.317945 -0.068590 -0.148871 -0.430196 -0.205848 0.291025 0.244650 -0.117718 -0.054550 0.313201 -0.154111 0.005955 -0.261103 0.344161 -0.289679 -0.060936 -0.095366 0.255189 0.263662 -0.152551 -0.153508 0.070193 -0.281381 0.121641 -0.172276 -0.212361 -0.039678 -0.449457 -0.286809 -0.012646 0.164563 0.030070 0.029362 -0.220938 -0.031997 0.015289 -0.133300 0.201638 -0.012851 0.065342 -0.289539 -0.195344 -0.049600 0.235612 0.493404 0.171342 0.012286 0.177673 0.078152 -0.413864 -0.065666 0.085495 -0.116344 -0.035656 -0.036593 -0.033959 0.211491 -0.244840 0.270491 0.186626 -0.003264 -0.415351 -0.166287 0.374947 0.291699 0.128695 0.119312 -0.144482 -0.213574 -0.005284 0.533113 0.157403 -0.147225 -0.062617 0.180222 -0.194321 0.003685 -0.152410 -0.103575 -0.104951 0.171236 -0.426668 -0.149298 0.260784 0.111826 0.036623 0.071038 0.576443 -0.044403 -0.040129 -0.179262
要 0.229308 0.241079 0.253210 -0.324179 -0.283285 -0.280366 -0.415840 0.037036 0.551930 -0.218008 -0.405731 0.122747 -0.460490 0.043283 -0.121563 0.121673 -0.067832 0.100143 -0.072410 0.232455 -0.001393 -0.086673 -0.264893 -0.254232 0.207242 0.674423 0.121235 0.039097 0.206050 0.202901 -0.100112 -0.228117 0.097269 -0.672976 -0.251383 0.235190 0.143356 -0.558776 -0.016475 0.157761 0.535959 0.022865 0.051855 -0.109689 0.000519 -0.055606 -0.135777 0.052432 -0.052748 -0.437369 -0.143773 0.144054 -0.217555 -0.334131 -0.197174 -0.247824 -0.048294 0.101622 -0.146788 -0.490976 0.308779 0.073597 0.257127 0.149793 0.123887 0.219650 0.425773 0.079464 0.130145 0.296948 -0.411456 -0.348711 0.272203 0.119120 0.157622 0.123606 -0.353497 0.235908 0.003417 -0.175380 0.297428 -0.000446 -0.236188 0.067828 -0.470499 -0.010330 -0.147254 0.010897 0.089029 0.245361 0.104777 -0.339936 0.368554 0.043627 0.196321 -0.066122 -0.335474 0.401659 -0.118821 0.446464 -0.007426 0.078235 0.164724 0.144379 -0.052382 -0.094858 -0.025029 0.216926 -0.228583 -0.389769 0.016828 0.174537 0.034377 -0.334717 0.156523 -0.426222 -0.149996 0.141060 -0.148333 -0.011524 -0.210469 0.180782 -0.179304 0.679471 0.141896 0.358209 -0.016297 -0.392521
囊 0.192071 -0.343752 0.217090 0.374703 -0.366776 0.218204 -0.380584 -0.079219 0.038627 -0.584325 0.032076 0.026124 -0.047621 -0.142781 -0.049911 0.045859 -0.554698 -0.155087 0.162239 0.469796 0.240811 -0.290604 -0.473571 0.082886 0.083676 0.162600 -0.310049 0.207758 0.188828 0.083182 0.124755 -0.178639 -0.115335 -0.051667 -0.135227 -0.229378 -0.094053 -0.060965 0.179511 -0.136464 0.044909 0.218610 -0.179610 -0.434302 -0.110935 0.073365 0.257854 0.069405 0.241421 -0.193497 0.297786 -0.533511 -0.026991 -0.396684 -0.180699 -0.019915 0.035158 -0.291899 0.025378 -0.626581 -0.170094 -0.193032 -0.252410 -0.023072 0.071389 -0.049883 -0.221061 0.065973 0.153384 0.128945 -0.034713 -0.225361 -0.028300 0.464554 0.211705 0.312368 0.213529 -0.190089 0.096534 -0.019667 -0.047500 0.088308 -0.099440 -0.060930 -0.086160 0.016111 -0.080876 0.081706 0.484744 0.036995 -0.093193 -0.045809 0.183040 0.208716 0.035062 0.135721 0.114557 -0.105285 -0.327457 -0.029502 0.298832 0.537992 0.105463 -0.073725 -0.354840 0.210421 0.079466 -0.147928 -0.009557 -0.458758 0.069255 0.191352 -0.140326 -0.200335 -0.325313 -0.256719 0.049685 0.038809 -0.240568 -0.158616 -0.113436 0.255120 0.170423 0.225851 0.122961 0.041429 0.011196 0.614664
在 0.014896 0.053142 -0.010104 -0.291048 -0.224850 -0.058439 0.055569 0.213085 -0.073431 -0.378118 -0.071989 -0.011109 -0.105577 0.103784 -0.124393 0.444878 -0.054637 -0.062953 0.111015 0.250118 -0.033882 -0.141229 0.004735 -0.306638 0.219266 0.127289 -0.079065 0.162535 -0.024782 -0.049761 0.199031 -0.013758 0.034680 -0.072112 -0.179278 0.264845 -0.120741 -0.520676 -0.051797 0.002532 -0.148416 -0.319125 0.090489 0.033688 -0.148145 -0.051868 0.325894 -0.085135 -0.046967 -0.387858 0.382341 -0.273810 0.118195 -0.109116 0.157941 0.333162 -0.155712 0.099120 0.050918 -0.220029 -0.247196 -0.092435 0.016131 0.157372 -0.070253 -0.137694 0.142716 0.021048 0.123225 -0.074114 -0.165307 0.096101 0.131933 -0.393768 0.111541 -0.364958 0.015909 -0.279492 -0.130881 0.094086 0.362022 -0.023239 -0.040013 0.228140 -0.158777 0.155716 -0.517053 -0.234518 0.177351 -0.111394 0.090536 -0.378808 0.037564 0.156359 -0.082008 -0.048444 -0.178423 0.159993 -0.496264 -0.439364 0.201761 0.221298 0.072774 0.194807 0.089037 -0.260540 -0.334404 0.195448 -0.009346 0.212951 -0.120650 0.438326 -0.102894 -0.037527 -0.199040 0.001828 0.046083 0.039735 -0.075687 0.028933 -0.113200 0.246637 0.010029 0.078723 0.236131 0.058800 0.084681 -0.126411
问 0.245179 0.125628 0.173354 0.267455 -0.608015 0.272035 0.179702 0.122854 0.042904 0.068432 -0.488057 0.206843 -0.512849 0.374883 0.012262 -0.101566 0.087013 0.456357 -0.442166 -0.228994 0.241436 -0.327087 0.065397 0.068511 0.235497 -0.020722 0.112855 0.338746 -0.194241 0.047854 0.103222 -0.152262 0.427320 -0.459558 0.300267 0.025254 0.074940 0.015569 0.326511 -0.150658 0.069507 -0.425846 0.173779 -0.540886 0.142282 0.118882 -0.203641 0.077057 -0.173007 0.126274 -0.061210 -0.182674 0.231915 0.303942 0.129124 0.028643 -0.199744 0.164318 0.313248 -0.106636 -0.209703 -0.292868 0.123975 0.408314 0.162831 0.003007 -0.289274 0.635546 -0.537503 -0.341628 0.054364 -0.456635 0.262736 0.381031 -0.058185 -0.068415 0.017058 0.092100 -0.370764 -0.111003 0.108959 0.620611 -0.053024 0.595686 -0.431670 -0.135818 -0.182626 -0.026414 0.187243 0.343330 0.208893 -0.122097 0.323303 0.372152 0.265692 0.184959 -0.220895 -0.243246 -0.174577 -0.084611 0.075855 0.394961 0.205269 -0.214157 0.323821 0.638782 0.242117 -0.068407 -0.400592 0.253083 0.417995 0.389991 -0.105323 -0.226248 0.311821 0.136725 0.242886 0.154792 -0.382383 0.140271 -0.499457 0.582868 0.301493 0.060491 0.451677 -0.275437 0.497154 0.223616
如 0.076131 0.110255 0.370702 -0.032547 0.095813 0.072260 -0.013680 -0.355989 0.172209 -0.123308 0.040622 -0.439489 -0.077739 0.139857 0.081562 -0.292825 -0.001901 0.377154 0.172363 -0.019032 0.396558 0.372732 0.317870 -0.222955 0.281352 0.137660 0.130540 -0.207137 -0.091955 0.024699 0.382233 0.042294 -0.196361 -0.101742 0.228264 0.080799 0.099183 -0.170317 -0.198594 -0.363968 -0.027536 -0.298457 0.160098 -0.146742 0.033514 0.595625 0.010055 0.513041 0.108649 -0.105306 0.132791 0.158026 0.048329 -0.070282 -0.177626 0.151063 0.272161 -0.049973 -0.172656 -0.053451 0.010708 0.267964 -0.037460 -0.201878 0.459711 -0.080461 0.021828 -0.299011 0.169324 -0.021716 -0.003395 -0.281499 0.544733 -0.292642 -0.173374 -0.453854 0.255412 -0.341145 -0.066410 0.393716 0.386308 -0.312344 -0.183266 0.237447 -0.278441 -0.164209 -0.239774 0.050740 -0.282678 -0.019012 -0.210431 -0.289904 -0.178206 0.812261 -0.033248 -0.038122 -0.535734 0.172711 0.298109 -0.090452 -0.294427 0.104044 -0.194414 0.252624 -0.322874 0.056286 0.287741 -0.216569 0.360570 -0.370555 -0.171761 0.639008 -0.199313 -0.275643 0.079274 -0.245622 -0.228680 0.102393 -0.233999 -0.070816 -0.278006 -0.202588 0.122831 0.296573 0.773852 0.388002 -0.323054 0.615861
何 -0.226144 0.050399 0.167544 -0.117178 0.255597 -0.019307 0.191753 -0.497046 0.406970 0.019962 -0.009979 -0.488658 -0.120976 -0.292151 -0.516964 -0.453590 0.153857 0.199927 0.505552 -0.042195 -0.056570 0.336742 0.565400 -0.151964 0.137250 0.203290 0.005659 -0.128244 -0.016613 -0.242496 0.377994 0.019877 -0.100593 -0.230645 -0.295059 0.323641 -0.011763 -0.057304 -0.124393 -0.109271 0.000943 -0.092977 0.154860 -0.254929 -0.232230 0.457524 0.055345 0.143720 -0.170542 -0.197662 0.297366 0.080373 -0.096525 -0.183919 -0.208208 -0.210129 0.121937 0.172428 -0.197483 -0.188938 0.314596 0.297164 -0.048175 -0.495638 0.433126 -0.189810 -0.130797 -0.276329 0.000428 -0.006069 -0.061264 -0.493997 0.729970 -0.085907 -0.042582 -0.204639 0.241382 -0.422224 0.036354 0.449430 0.430123 -0.180810 -0.477475 0.373060 -0.270950 -0.388146 -0.085951 0.020347 0.192767 0.159213 -0.285437 0.092989 0.232080 0.606457 0.141751 -0.215043 -0.582391 0.352474 0.293061 0.072408 -0.315199 0.346662 -0.310356 0.579858 -0.356800 0.019156 0.371408 -0.059473 0.252478 -0.465078 -0.125769 0.656180 -0.022193 -0.346079 -0.124792 -0.326386 -0.280719 0.172935 0.063170 0.172277 -0.033243 -0.013198 0.082806 0.021443 0.790914 0.280352 -0.628005 0.269478
做 0.116266 0.129183 0.127232 -0.349675 -0.274666 -0.120952 -0.180788 -0.233179 0.417723 -0.264708 -0.106788 -0.064468 -0.145829 0.031073 0.085344 -0.140669 -0.154403 0.005936 0.260035 0.229877 0.021195 -0.041907 -0.076957 -0.099243 -0.006821 0.495109 0.021901 0.145571 0.223168 -0.379954 0.020116 -0.062964 0.133577 -0.078221 0.094053 0.160420 -0.176239 -0.432932 0.169263 -0.186825 0.114242 -0.327564 0.048050 -0.206172 0.199021 0.104373 0.000617 -0.062876 0.073303 -0.151484 0.173404 -0.003272 -0.059758 -0.193653 0.025976 0.249070 -0.127785 0.316171 -0.201689 -0.168898 -0.123107 -0.072748 -0.006921 0.016349 0.064201 0.058711 0.343006 -0.133812 -0.116099 0.155118 -0.263932 -0.099812 0.352061 0.011465 0.197822 -0.336116 -0.147410 -0.074184 -0.150885 0.058208 0.458616 -0.034510 0.030068 0.145614 -0.179894 0.257686 -0.308486 -0.153750 0.337081 0.077048 -0.184739 -0.254855 0.035090 0.297854 -0.158594 -0.008044 -0.063101 0.218609 -0.097228 -0.021210 0.058415 0.396983 -0.018564 0.192976 0.114101 -0.125454 -0.133620 0.175204 -0.153239 -0.109743 -0.193680 0.029819 0.013243 0.042460 -0.054694 0.009591 0.129761 -0.171860 -0.225155 -0.200023 -0.405680 0.330070 -0.262613 0.128603 0.313909 0.318007 -0.011267 0.127565
人 0.032842 0.342217 0.170181 -0.336811 -0.201892 0.278251 0.008745 -0.294388 0.274508 -0.064919 -0.325475 0.375155 -0.333005 0.076989 -0.064113 0.272266 -0.253105 0.108214 0.096450 0.008179 0.113738 0.208624 -0.103525 -0.254909 0.053782 0.160401 -0.113107 -0.117413 0.131776 -0.353560 0.030034 0.047125 -0.152186 0.118527 0.000786 -0.139630 -0.487857 0.091802 0.162681 0.124486 0.331551 -0.119738 -0.213443 -0.050391 -0.211979 0.031998 -0.095556 0.186714 0.139814 -0.248481 0.240942 -0.260527 0.053275 0.254270 0.172614 0.211241 -0.160947 0.158774 0.202783 0.182546 0.013020 -0.178602 -0.381440 -0.049798 -0.118981 0.091793 0.100971 -0.513835 0.236786 -0.308032 0.026464 -0.085212 0.351551 -0.282710 0.184244 -0.174875 -0.005618 0.097641 0.096885 0.184641 0.118526 -0.507344 -0.249524 0.146302 -0.274925 -0.007525 -0.291886 -0.311494 0.112654 0.029450 -0.132420 -0.125360 0.140943 0.189550 -0.136830 0.374391 -0.103921 -0.141675 0.108731 -0.203296 0.035178 0.210924 -0.024359 0.077702 -0.017036 0.169721 0.298146 0.243593 0.122528 -0.208939 0.056688 0.128113 0.009577 -0.109563 -0.071346 -0.086077 0.135449 -0.121493 -0.136052 0.148793 -0.131920 0.180253 -0.214495 -0.240208 0.296721 0.095179 -0.127193 0.015309
晚 0.089924 -0.049437 0.330437 -0.047903 -0.584634 0.442076 0.151721 -0.239764 0.235290 -0.029962 -0.501473 0.034125 -0.087687 -0.053520 0.347233 0.183733 -0.370276 0.025634 0.064058 -0.019243 -0.053320 0.088932 0.147223 -0.503224 -0.088370 0.258001 -0.233828 0.236775 0.213420 -0.122119 0.347888 -0.081110 0.208225 -0.086801 -0.027162 -0.053056 -0.002584 0.008751 0.525586 -0.185065 0.231497 0.166642 -0.204402 -0.074570 -0.433818 0.314902 0.222121 0.194160 0.025870 -0.393253 0.289189 -0.195135 -0.221427 0.023234 -0.065610 0.051875 0.022008 -0.233456 0.139299 0.159918 0.015890 0.048337 -0.645577 -0.123017 0.284909 -0.366288 0.211092 -0.039781 0.478780 -0.236151 -0.073957 -0.098603 0.213055 -0.074427 0.038773 -0.168107 -0.108469 -0.125762 0.090368 0.265736 0.198772 0.303296 -0.393442 0.142017 -0.383291 0.198302 -0.009741 -0.330803 0.310845 -0.117125 0.267680 0.053623 -0.005921 0.585926 -0.164566 0.277505 0.132339 -0.077910 -0.389111 -0.163793 0.055182 0.204859 -0.106404 0.180287 -0.036283 0.563594 -0.114571 0.103433 0.386567 -0.499835 -0.248713 0.375730 -0.276398 0.113423 0.147287 -0.134449 0.290940 -0.126341 -0.056596 -0.232523 -0.093158 -0.212930 0.161635 -0.203588 0.483537 -0.021490 0.196869 0.297215
长 0.057241 -0.095318 -0.008927 -0.160200 -0.236063 0.038314 0.014628 0.305522 -0.282685 -0.412263 -0.136455 -0.290117 0.004285 0.124891 -0.180650 0.321440 0.254873 -0.283735 -0.333162 0.111460 -0.102986 -0.146764 -0.071278 -0.233022 0.451322 -0.046878 -0.099403 0.132780 0.322876 0.031859 -0.175871 -0.182571 -0.037488 -0.171006 -0.180977 0.202674 0.015864 -0.604113 0.004622 0.128966 -0.028712 -0.096163 0.386298 0.197575 -0.200374 -0.071019 0.429738 -0.021419 0.155609 -0.392328 0.293478 -0.361089 0.029373 -0.316128 -0.015793 0.217026 0.100097 -0.072325 0.150456 -0.233668 -0.162263 -0.173614 0.024860 -0.084828 -0.187463 -0.214882 -0.022801 0.248157 -0.040174 -0.020484 -0.014466 -0.221367 0.161928 -0.150704 0.305379 0.055848 -0.026288 0.138850 -0.474970 -0.041904 0.264955 0.257756 0.149093 0.131933 -0.192768 0.001646 -0.380810 -0.150528 0.226123 -0.224374 0.013114 -0.060834 0.360568 -0.036762 -0.078263 0.083137 0.045014 0.079103 -0.557497 -0.247376 0.172916 0.109513 -0.020585 0.153345 0.085231 -0.198546 -0.124130 0.420564 -0.073319 0.000890 -0.107886 0.096612 -0.136485 -0.151219 -0.216556 -0.062750 -0.020156 0.261318 -0.377758 -0.050849 0.230396 0.143386 0.000145 0.060437 0.108874 -0.155096 -0.209328 -0.083488
1 -0.308370 -0.204831 0.295520 -0.290674 0.069321 0.587426 -0.597711 0.179730 0.049123 -0.171913 -0.478278 0.344693 -0.549950 -0.143347 0.187710 -0.205024 -0.341202 -0.227478 0.369612 -0.047745 0.130419 0.299487 -0.257957 0.749749 -0.161668 0.149966 0.026990 0.141291 -0.022657 0.042492 0.008915 0.177894 0.001266 0.628503 0.427807 -0.177137 -0.438991 -0.087011 0.400758 -0.114678 0.084447 -0.825677 -0.388256 -0.425064 0.004838 0.023174 0.066348 0.582790 -0.039468 0.084433 0.454761 -0.659380 -0.188232 0.094818 0.201220 0.085336 -0.321631 -0.148213 0.464346 -0.540175 -0.005220 -0.241476 -0.278037 -0.291765 0.114408 0.075342 -0.851290 0.149307 -0.067490 -0.148804 -0.063187 0.219520 0.218859 -0.186850 -0.223269 -0.143119 0.051141 -0.191265 -0.292104 0.174876 0.521607 -0.488761 0.427402 0.603016 0.403384 0.130803 -0.267601 -0.264175 0.384481 -0.259664 -0.217019 -0.193740 -0.200144 0.562031 0.082847 0.524318 -0.080019 -0.255050 -0.052059 0.218803 0.070078 0.304219 0.012536 0.496540 -0.167414 0.228058 -0.011322 0.148131 -0.474498 -0.189474 -0.187126 0.175659 0.085794 -0.074019 0.099818 -0.387696 0.339222 -0.094763 0.139269 -0.043000 0.078563 0.291008 -0.011506 0.076113 0.324961 0.316108 0.063107 -0.145361
些 0.044963 0.070264 -0.037676 0.311159 -0.561320 -0.393216 0.009245 -0.184136 0.594430 -0.380195 -0.171290 0.658233 -0.571731 -0.045351 0.304685 0.428006 0.057088 -0.135863 0.071188 -0.457145 0.348656 0.571548 -0.038191 -0.442275 0.111430 0.496935 -0.251519 0.053009 -0.000975 0.123996 0.550973 -0.421349 0.048073 -0.336626 -0.434482 0.064318 -0.264166 -0.443677 0.155751 -0.290059 -0.106659 -0.361735 0.032234 0.068754 0.202706 0.365054 0.126689 0.117087 -0.125956 -0.312111 -0.236571 0.155239 0.352784 -0.019004 -0.095903 -0.473927 -0.554705 -0.372908 0.149453 -0.268235 0.294527 -0.413867 -0.398214 0.370331 -0.163826 -0.068213 -0.279906 0.024990 -0.111725 -0.018161 -0.079707 0.262638 0.336056 -0.221770 0.055315 0.023612 0.255935 -0.573628 0.543582 0.046610 0.494268 0.025988 -0.519601 0.329818 -0.386066 -0.014791 -0.139810 -0.024374 -0.061302 0.099168 -0.257586 -0.301463 -0.197985 0.246424 0.405421 -0.219038 -0.307928 0.135280 0.052085 0.015293 0.110675 0.216961 0.304610 0.070236 0.123169 0.086747 0.322879 0.439538 -0.019564 -0.533942 0.069020 0.244978 -0.202907 -0.250546 -0.040609 -0.350209 -0.375147 -0.055666 -0.138687 -0.147303 -0.280509 0.337259 -0.439816 0.293978 0.883805 0.074022 0.414912 -0.107490
年 -0.063852 -0.010727 0.040079 -0.582097 0.133285 0.301909 -0.471695 0.257001 -0.054915 -0.123018 -0.456349 0.000718 -0.160848 -0.002513 0.357207 0.067225 -0.131968 -0.175254 0.119701 0.194428 -0.024200 0.024305 -0.199266 0.607113 -0.193302 0.416419 0.137656 0.377233 0.387983 -0.300770 -0.289575 0.272003 0.033169 0.533623 0.294576 -0.044180 -0.519273 -0.158084 0.223861 0.057339 0.039959 -0.509110 0.059940 -0.421016 -0.021215 -0.113893 0.237388 0.194512 -0.002943 -0.276276 0.376958 -0.162983 0.021306 -0.176823 0.186910 0.507454 0.089643 0.140139 0.190087 -0.116667 -0.234974 -0.048773 -0.048838 -0.361652 0.099607 0.081354 -0.178223 -0.250234 0.294440 -0.059097 -0.033219 -0.185573 0.326428 -0.313294 -0.205250 -0.448828 -0.089236 -0.179991 -0.172754 0.404382 0.359593 -0.525742 0.122168 0.480301 0.077230 0.287068 -0.472840 -0.308319 0.123527 -0.435560 0.180244 -0.347331 0.110907 0.319935 -0.098242 0.275525 -0.201630 0.028427 -0.076210 -0.170887 0.076080 0.205125 -0.184083 0.284087 -0.066298 -0.409344 -0.190907 0.095727 -0.048204 0.088769 -0.271731 0.155452 -0.056108 -0.237728 0.056850 0.002154 0.161860 -0.066847 0.058947 -0.166195 -0.147792 0.204559 0.003341 -0.097012 0.338014 0.321985 -0.048692 -0.087494
还 0.265408 0.068855 0.089974 -0.053410 0.017801 0.054948 -0.121208 0.144468 -0.246443 0.127095 -0.232263 0.163183 -0.027961 0.204074 0.035694 0.316410 0.141756 0.249868 -0.026275 0.226309 -0.034998 -0.077100 -0.152897 -0.214942 0.481927 0.307515 0.087462 0.523551 0.296651 -0.330352 0.057697 0.282854 0.018234 -0.660778 -0.067674 0.114308 -0.059257 -0.411280 0.048225 0.025475 0.371355 -0.045460 -0.043774 -0.069938 -0.115505 -0.162032 0.139811 0.145635 -0.129062 -0.482428 0.053365 -0.178086 0.131180 -0.271843 0.036799 -0.147600 0.158453 0.125535 0.107123 0.169421 -0.107997 -0.362788 -0.263260 -0.035513 0.147447 -0.008332 0.225726 -0.219718 0.181736 0.270003 -0.007922 -0.192070 0.308150 0.232219 0.026061 -0.367061 0.042629 0.032178 0.083097 0.256587 0.088380 -0.021568 -0.097814 0.105607 -0.485924 -0.102462 -0.081360 -0.187509 0.350282 -0.192522 -0.169306 -0.295505 0.227199 0.194919 0.005148 0.011707 0.213869 0.144495 -0.232901 -0.135823 -0.131246 0.483640 -0.101562 -0.033494 -0.026709 0.081785 -0.221591 -0.136151 -0.136047 -0.272601 -0.115926 0.172810 -0.370457 -0.246612 0.032181 -0.339917 0.244729 0.178897 -0.061863 -0.102582 -0.131624 -0.173972 -0.037795 -0.071961 0.147922 0.086392 -0.055499 0.143797
